<?xml version="1.0"?>
<opencv_storage>
<cascade>
  <stageType>BOOST</stageType>
  <featureType>LBP</featureType>
  <height>16</height>
  <width>56</width>
  <stageParams>
    <boostType>GAB</boostType>
    <minHitRate>9.9500000476837158e-01</minHitRate>
    <maxFalseAlarm>4.0000000596046448e-01</maxFalseAlarm>
    <weightTrimRate>9.4999999999999996e-01</weightTrimRate>
    <maxDepth>1</maxDepth>
    <maxWeakCount>100</maxWeakCount></stageParams>
  <featureParams>
    <maxCatCount>256</maxCatCount>
    <featSize>1</featSize></featureParams>
  <stageNum>12</stageNum>
  <stages>
    <!-- stage 0 -->
    <_>
      <maxWeakCount>5</maxWeakCount>
      <stageThreshold>-1.3833614587783813e+00</stageThreshold>
      <weakClassifiers>
        <_>
          <internalNodes>
            0 -1 22 -246353419 1897255383 -14950401 -4196353 -804196103
            1886457905 -207094785 -3073</internalNodes>
          <leafValues>
            -7.9208779335021973e-01 5.8342188596725464e-01</leafValues></_>
        <_>
          <internalNodes>
            0 -1 82 -50332946 -791494462 -2071705402 -1060141362
            -233576633 -177749916 -349185073 -838868993</internalNodes>
          <leafValues>
            -8.0228573083877563e-01 4.8326730728149414e-01</leafValues></_>
        <_>
          <internalNodes>
            0 -1 40 1392760578 1904210243 -262309 -637536385 1967651234
            1883292773 -82322609 -12583121</internalNodes>
          <leafValues>
            -7.4763143062591553e-01 4.3861898779869080e-01</leafValues></_>
        <_>
          <internalNodes>
            0 -1 68 105776392 2002128397 522344447 1594858831
            -1416967220 -74469905 -2085908598 -808465937</internalNodes>
          <leafValues>
            -6.9315576553344727e-01 4.6876943111419678e-01</leafValues></_>
        <_>
          <internalNodes>
            0 -1 100 319815931 999817405 1493391869 2107179229 732071064
            -1164277608 193599644 454557752</internalNodes>
          <leafValues>
            -6.3555884361267090e-01 4.6554887294769287e-01</leafValues></_></weakClassifiers></_>
    <!-- stage 1 -->
    <_>
      <maxWeakCount>7</maxWeakCount>
      <stageThreshold>-1.1171921491622925e+00</stageThreshold>
      <weakClassifiers>
        <_>
          <internalNodes>
            0 -1 62 -67108865 -789319438 -839909633 -704650497
            -147324929 -176687377 -269484033 -1</internalNodes>
          <leafValues>
            -6.2791854143142700e-01 6.6944652795791626e-01</leafValues></_>
        <_>
          <internalNodes>
            0 -1 15 295006933 1945449845 1071071229 1610285653 983301631
            -59143 467351807 973017149</internalNodes>
          <leafValues>
            -6.9496685266494751e-01 4.3585565686225891e-01</leafValues></_>
        <_>
          <internalNodes>
            0 -1 120 -136841470 -682115261 1087101303 -740821197
            -767302137 -419176189 -205536766 1078190659</internalNodes>
          <leafValues>
            -6.2946730852127075e-01 4.5045837759971619e-01</leafValues></_>
        <_>
          <internalNodes>
            0 -1 25 -208544779 -716144395 -1086521347 -1444865 825291197
            1643135280 -1089404993 -33949697</internalNodes>
          <leafValues>
            -5.7526707649230957e-01 4.8101380467414856e-01</leafValues></_>
        <_>
          <internalNodes>
            0 -1 91 657196308 -572367 760692733 -8710851 -1440044133
            -1074231111 170568687 -1893072627</internalNodes>
          <leafValues>
            -5.6728434562683105e-01 4.5975658297538757e-01</leafValues></_>
        <_>
          <internalNodes>
            0 -1 45 -226755510 -492052338 -486562144 -1562910265
            -335813055 1969977953 -1476987933 -218119385</internalNodes>
          <leafValues>
            -5.9241014719009399e-01 4.1110694408416748e-01</leafValues></_>
        <_>
          <internalNodes>
            0 -1 29 -839040775 -8650723 -587244227 2138535353
            -1359355457 -374046920 87035288 -1626340176</internalNodes>
          <leafValues>
            -4.5984321832656860e-01 5.3956407308578491e-01</leafValues></_></weakClassifiers></_>
    <!-- stage 2 -->
    <_>
      <maxWeakCount>8</maxWeakCount>
      <stageThreshold>-1.8058623075485229e+00</stageThreshold>
      <weakClassifiers>
        <_>
          <internalNodes>
            0 -1 44 -135268353 -243927561 -840171521 -570433665
            -256116993 -253496107 -1882457089 -570425345</internalNodes>
          <leafValues>
            -6.2225097417831421e-01 5.1351350545883179e-01</leafValues></_>
        <_>
          <internalNodes>
            0 -1 4 -150995201 -527008185 -661744737 4382926 1886590079
            1073753889 -255609417 1080260467</internalNodes>
          <leafValues>
            -6.1611503362655640e-01 3.8686147332191467e-01</leafValues></_>
        <_>
          <internalNodes>
            0 -1 71 -210764034 -246161202 -863892276 -997422450
            -1284114697 -260643674 -154140673 -1025</internalNodes>
          <leafValues>
            -6.1691188812255859e-01 3.7617573142051697e-01</leafValues></_>
        <_>
          <internalNodes>
            0 -1 102 35787257 296813544 1059019775 402330873 54178554
            -1684399873 59440895 976884923</internalNodes>
          <leafValues>
            -6.1911582946777344e-01 3.6712166666984558e-01</leafValues></_>
        <_>
          <internalNodes>
            0 -1 87 -1364558314 -539082180 152182621 1023410232
            -1158744641 -37766472 452975352 169888784</internalNodes>
          <leafValues>
            -6.4918839931488037e-01 3.3356332778930664e-01</leafValues></_>
        <_>
          <internalNodes>
            0 -1 35 -150472958 -134507918 1594858381 -10241 -486083834
            -249323209 -110366833 -235153669</internalNodes>
          <leafValues>
            -5.4073172807693481e-01 4.1410565376281738e-01</leafValues></_>
        <_>
          <internalNodes>
            0 -1 3 -1367179264 -2710118 -501356033 -136859201 -874805315
            -1075066956 1854640059 -1951724388</internalNodes>
          <leafValues>
            -5.9678733348846436e-01 3.7392294406890869e-01</leafValues></_>
        <_>
          <internalNodes>
            0 -1 97 -261766962 -178794276 1074808845 -682366233
            -13945185 -992149368 -217104177 -211812625</internalNodes>
          <leafValues>
            -4.8532673716545105e-01 4.4933870434761047e-01</leafValues></_></weakClassifiers></_>
    <!-- stage 3 -->
    <_>
      <maxWeakCount>9</maxWeakCount>
      <stageThreshold>-1.4860846996307373e+00</stageThreshold>
      <weakClassifiers>
        <_>
          <internalNodes>
            0 -1 70 -33554433 -791418126 -1062404961 -840185173
            -217596929 -147341077 -338957313 -1049617</internalNodes>
          <leafValues>
            -6.1791616678237915e-01 3.6679536104202271e-01</leafValues></_>
        <_>
          <internalNodes>
            0 -1 19 327112191 2139042619 1071643645 1601925967 987753471
            -71578885 1073474479 998200696</internalNodes>
          <leafValues>
            -7.2571164369583130e-01 2.7998021245002747e-01</leafValues></_>
        <_>
          <internalNodes>
            0 -1 119 -689967102 -11058429 1078285383 1364197227
            -757344477 -28901569 -720375773 -750259645</internalNodes>
          <leafValues>
            -5.5185312032699585e-01 3.8317516446113586e-01</leafValues></_>
        <_>
          <internalNodes>
            0 -1 89 -1699717895 -1073998596 -1726636545 -1078438500
            -1111210818 -34068227 797576956 -1348465656</internalNodes>
          <leafValues>
            -4.7715842723846436e-01 4.3625983595848083e-01</leafValues></_>
        <_>
          <internalNodes>
            0 -1 37 -83891830 -505809921 1392505344 -226895906
            -1008739442 654153 -684461910 -134218753</internalNodes>
          <leafValues>
            -5.2498483657836914e-01 3.5823932290077209e-01</leafValues></_>
        <_>
          <internalNodes>
            0 -1 26 -547545249 -14725353 1567842013 -172665003
            -235611651 -1123001444 159480061 151011544</internalNodes>
          <leafValues>
            -6.1273056268692017e-01 3.3260211348533630e-01</leafValues></_>
        <_>
          <internalNodes>
            0 -1 83 -788032 -603789856 -905977780 -711596737 -367546870
            -1657294583 -98840849 -1996502817</internalNodes>
          <leafValues>
            -5.4337495565414429e-01 3.2875654101371765e-01</leafValues></_>
        <_>
          <internalNodes>
            0 -1 20 -1324214507 -40873697 -652702241 957831453
            -1961314887 -1613066979 1041936313 154867721</internalNodes>
          <leafValues>
            -5.0188374519348145e-01 3.9331549406051636e-01</leafValues></_>
        <_>
          <internalNodes>
            0 -1 111 -1025261330 1410891972 -456932789 21350623
            -875570802 286202402 -608701777 1920983919</internalNodes>
          <leafValues>
            -6.1587113142013550e-01 3.2530468702316284e-01</leafValues></_></weakClassifiers></_>
    <!-- stage 4 -->
    <_>
      <maxWeakCount>10</maxWeakCount>
      <stageThreshold>-1.8549686670303345e+00</stageThreshold>
      <weakClassifiers>
        <_>
          <internalNodes>
            0 -1 56 -257 -789071630 -2102337 -570483489 -411587073
            -143157077 -1320001 -1052929</internalNodes>
          <leafValues>
            -5.8308625221252441e-01 4.2038866877555847e-01</leafValues></_>
        <_>
          <internalNodes>
            0 -1 11 -357577078 -1075335670 550119552 583112974 -3146856
            -561004595 1538956255 -68157521</internalNodes>
          <leafValues>
            -5.7925093173980713e-01 3.3716517686843872e-01</leafValues></_>
        <_>
          <internalNodes>
            0 -1 57 -1088701766 -456835 352324744 494732312 -1081102337
            464609723 -1171604741 -4464641</internalNodes>
          <leafValues>
            -5.1388257741928101e-01 3.4573912620544434e-01</leafValues></_>
        <_>
          <internalNodes>
            0 -1 96 -1474390287 -1725426384 708362111 1593844601
            -2003244808 -1265566804 704695775 -1725431592</internalNodes>
          <leafValues>
            -4.6476912498474121e-01 3.8737887144088745e-01</leafValues></_>
        <_>
          <internalNodes>
            0 -1 5 -184588937 579577690 307146204 47579871 2136148271
            839320320 -706341033 1885566551</internalNodes>
          <leafValues>
            -5.1225638389587402e-01 3.6790198087692261e-01</leafValues></_>
        <_>
          <internalNodes>
            0 -1 10 -378583542 -2097217 -311769174 2144074719 -355684856
            -182087641 -78913618 -34604241</internalNodes>
          <leafValues>
            -6.0675054788589478e-01 2.7380380034446716e-01</leafValues></_>
        <_>
          <internalNodes>
            0 -1 94 639632656 897666325 -14680835 -55471 -1523854951
            -250485537 -1223313480 -12899981</internalNodes>
          <leafValues>
            -5.5339217185974121e-01 3.3781510591506958e-01</leafValues></_>
        <_>
          <internalNodes>
            0 -1 124 -227543485 1074238079 -801386304 1887435731
            -203430592 1081463302 -691541994 1147659895</internalNodes>
          <leafValues>
            -5.4050010442733765e-01 3.3713003993034363e-01</leafValues></_>
        <_>
          <internalNodes>
            0 -1 63 -592187992 -1876902560 -1927265670 -782700549
            1632791327 -849418056 -1074558306 -855667138</internalNodes>
          <leafValues>
            -5.0303751230239868e-01 3.3968102931976318e-01</leafValues></_>
        <_>
          <internalNodes>
            0 -1 13 -1415567344 937042260 1583676761 -1649109708
            -1360220236 -1141002704 -1345418824 -1883308023</internalNodes>
          <leafValues>
            -5.2854341268539429e-01 3.1351238489151001e-01</leafValues></_></weakClassifiers></_>
    <!-- stage 5 -->
    <_>
      <maxWeakCount>11</maxWeakCount>
      <stageThreshold>-1.4454828500747681e+00</stageThreshold>
      <weakClassifiers>
        <_>
          <internalNodes>
            0 -1 28 -606371841 -574083 -1083372035 -10527913 -4476929
            -399105 -1615000323 -1078211329</internalNodes>
          <leafValues>
            -5.2045804262161255e-01 4.6510618925094604e-01</leafValues></_>
        <_>
          <internalNodes>
            0 -1 101 -1071464448 -212613052 -188786817 -102776221
            -615525654 -70007869 -741909889 -746629557</internalNodes>
          <leafValues>
            -5.5754613876342773e-01 3.0885660648345947e-01</leafValues></_>
        <_>
          <internalNodes>
            0 -1 69 -252662082 -728232312 138938378 461703180
            -1098204162 -590808082 -1929659729 -322</internalNodes>
          <leafValues>
            -6.2407046556472778e-01 2.6822188496589661e-01</leafValues></_>
        <_>
          <internalNodes>
            0 -1 103 353370139 93389064 830282655 456984585 819223807
            351357128 -4358145 536171725</internalNodes>
          <leafValues>
            -4.3997091054916382e-01 4.2206433415412903e-01</leafValues></_>
        <_>
          <internalNodes>
            0 -1 0 -495456513 -229446700 1556861887 -1333864398
            -1069033121 -529350362 -489426189 1080292935</internalNodes>
          <leafValues>
            -4.8820903897285461e-01 3.4321132302284241e-01</leafValues></_>
        <_>
          <internalNodes>
            0 -1 21 -1876986095 -746326767 -265683489 -1074154732
            826009599 -23281665 978321407 -1140892867</internalNodes>
          <leafValues>
            -4.1219189763069153e-01 4.0656769275665283e-01</leafValues></_>
        <_>
          <internalNodes>
            0 -1 32 -536916752 -10584161 1505559600 -36528 -605312326
            -105092872 -206481160 824237565</internalNodes>
          <leafValues>
            -6.6029351949691772e-01 2.5227290391921997e-01</leafValues></_>
        <_>
          <internalNodes>
            0 -1 43 -17825842 1860624366 -385957312 551261150 1731416132
            22953776 -2362634 -201326593</internalNodes>
          <leafValues>
            -5.1251566410064697e-01 2.9863643646240234e-01</leafValues></_>
        <_>
          <internalNodes>
            0 -1 58 -747972783 -245368125 1111770195 -1043468594
            -1209600555 -992549944 -989018194 -842006897</internalNodes>
          <leafValues>
            -3.8580390810966492e-01 4.0655118227005005e-01</leafValues></_>
        <_>
          <internalNodes>
            0 -1 112 -358627840 -861501950 1448847377 58649098
            -1096027393 -341067001 -554124994 -1970559824</internalNodes>
          <leafValues>
            -5.7513642311096191e-01 2.6986715197563171e-01</leafValues></_>
        <_>
          <internalNodes>
            0 -1 73 959331038 -211844466 -1969484738 88902312
            -1116742742 -6518376 310873641 727695546</internalNodes>
          <leafValues>
            -4.9239346385002136e-01 3.2459363341331482e-01</leafValues></_></weakClassifiers></_>
    <!-- stage 6 -->
    <_>
      <maxWeakCount>12</maxWeakCount>
      <stageThreshold>-1.8026262521743774e+00</stageThreshold>
      <weakClassifiers>
        <_>
          <internalNodes>
            0 -1 82 -1 -774114590 -856949505 -839955845 -76288082
            -72121234 -292648785 -1056773</internalNodes>
          <leafValues>
            -5.3941696882247925e-01 3.4499999880790710e-01</leafValues></_>
        <_>
          <internalNodes>
            0 -1 79 -365237506 -140880866 1066595199 523796220
            -1342571521 -574805012 -20976646 -5192228</internalNodes>
          <leafValues>
            -4.8753628134727478e-01 3.4094920754432678e-01</leafValues></_>
        <_>
          <internalNodes>
            0 -1 39 1999589127 -213517025 2079317503 -607813 -512753777
            -1334778448 -271594641 -4181</internalNodes>
          <leafValues>
            -4.0069326758384705e-01 4.0530458092689514e-01</leafValues></_>
        <_>
          <internalNodes>
            0 -1 125 -168823485 90173203 -1358970350 1618476542
            -145820160 1148437334 -188226954 1079502455</internalNodes>
          <leafValues>
            -5.4742842912673950e-01 2.8078323602676392e-01</leafValues></_>
        <_>
          <internalNodes>
            0 -1 80 -1130832385 -1629699236 -1747715137 1608012696
            423156216 -1108432964 495819700 1057491968</internalNodes>
          <leafValues>
            -4.3003997206687927e-01 3.8092029094696045e-01</leafValues></_>
        <_>
          <internalNodes>
            0 -1 27 393704947 1403456495 -1122693378 2136978581
            192914423 259986173 332728575 1065315199</internalNodes>
          <leafValues>
            -5.7865405082702637e-01 2.6494631171226501e-01</leafValues></_>
        <_>
          <internalNodes>
            0 -1 93 -710020103 -145679187 -1660891685 -13989398 14274796
            1595285668 4774606 1361305646</internalNodes>
          <leafValues>
            -4.1834723949432373e-01 3.8739034533500671e-01</leafValues></_>
        <_>
          <internalNodes>
            0 -1 8 -1037112792 -79756760 1074388055 13357903 -914117714
            -89470368 -276501537 -1064596788</internalNodes>
          <leafValues>
            -5.4163503646850586e-01 2.9246264696121216e-01</leafValues></_>
        <_>
          <internalNodes>
            0 -1 86 -33554698 -1311510426 -1998271989 -976282981
            -229402074 -59263870 -360478454 -810562037</internalNodes>
          <leafValues>
            -4.4618585705757141e-01 3.3448344469070435e-01</leafValues></_>
        <_>
          <internalNodes>
            0 -1 115 268436172 2123519351 -590123139 -127043 -519254033
            1573422313 -4531025 -1014879796</internalNodes>
          <leafValues>
            -5.6624639034271240e-01 2.5548595190048218e-01</leafValues></_>
        <_>
          <internalNodes>
            0 -1 113 -221589814 -45053942 281207948 1359379629 -68538386
            1224755664 -881892405 2005859567</internalNodes>
          <leafValues>
            -5.3114396333694458e-01 2.9121151566505432e-01</leafValues></_>
        <_>
          <internalNodes>
            0 -1 74 2020865512 411103260 -1147745068 -249737185
            1951431068 -572923685 1254420127 -828379957</internalNodes>
          <leafValues>
            -4.4921255111694336e-01 3.3567646145820618e-01</leafValues></_></weakClassifiers></_>
    <!-- stage 7 -->
    <_>
      <maxWeakCount>12</maxWeakCount>
      <stageThreshold>-1.7412836551666260e+00</stageThreshold>
      <weakClassifiers>
        <_>
          <internalNodes>
            0 -1 61 -42729477 -663549736 -6301221 -570439317 -78398689
            -9329 -76297217 -295957</internalNodes>
          <leafValues>
            -5.3492462635040283e-01 3.5457876324653625e-01</leafValues></_>
        <_>
          <internalNodes>
            0 -1 55 -109916686 -210550592 -475274644 -637545794
            1917893471 -269221894 -67769346 -42442949</internalNodes>
          <leafValues>
            -4.9002853035926819e-01 3.1489056348800659e-01</leafValues></_>
        <_>
          <internalNodes>
            0 -1 78 -1476253126 956884156 218115325 905489074
            -1164968225 -1615010371 -1342439425 252182545</internalNodes>
          <leafValues>
            -6.2038552761077881e-01 2.3478418588638306e-01</leafValues></_>
        <_>
          <internalNodes>
            0 -1 1 -352362769 1652238447 -745819961 294797843
            -1966666146 303702543 1686626983 1651729239</internalNodes>
          <leafValues>
            -4.0870308876037598e-01 3.7288972735404968e-01</leafValues></_>
        <_>
          <internalNodes>
            0 -1 46 -286789466 -470353142 -1247846519 -268744773
            -1212688649 -2098818525 -2052202273 1173405951</internalNodes>
          <leafValues>
            -6.3733714818954468e-01 2.1772059798240662e-01</leafValues></_>
        <_>
          <internalNodes>
            0 -1 92 -886567920 -437384690 -1774687811 -74715606
            -1054194660 1608057165 -91701316 -17923</internalNodes>
          <leafValues>
            -4.1566956043243408e-01 3.6061492562294006e-01</leafValues></_>
        <_>
          <internalNodes>
            0 -1 117 -1069116926 -682108577 1351363447 1599035011
            -876885809 -895368509 -601146481 -618471421</internalNodes>
          <leafValues>
            -4.8002031445503235e-01 2.9497951269149780e-01</leafValues></_>
        <_>
          <internalNodes>
            0 -1 67 47449208 -136442395 288986589 -1646983755
            -2013073430 -4561511 692251645 128385245</internalNodes>
          <leafValues>
            -5.7006281614303589e-01 2.6379054784774780e-01</leafValues></_>
        <_>
          <internalNodes>
            0 -1 76 -372245804 1087563474 -1927175156 1374419187
            -149896959 -857277563 -1162374177 -1996496153</internalNodes>
          <leafValues>
            -5.0711387395858765e-01 2.7842342853546143e-01</leafValues></_>
        <_>
          <internalNodes>
            0 -1 48 -70070546 1340730462 -1411648798 -206252322
            1648674637 -889173605 -231219490 -20453316</internalNodes>
          <leafValues>
            -4.2518034577369690e-01 3.4280520677566528e-01</leafValues></_>
        <_>
          <internalNodes>
            0 -1 60 956301247 297855170 -823919506 -838888305
            -1250853056 -5010145 2050697837 -1082131553</internalNodes>
          <leafValues>
            -3.7937465310096741e-01 3.9454343914985657e-01</leafValues></_>
        <_>
          <internalNodes>
            0 -1 24 736847615 -840993031 805298173 -1611976717
            -1476941829 -16844816 264117689 503123093</internalNodes>
          <leafValues>
            -3.4816682338714600e-01 4.1526296734809875e-01</leafValues></_></weakClassifiers></_>
    <!-- stage 8 -->
    <_>
      <maxWeakCount>13</maxWeakCount>
      <stageThreshold>-1.4395571947097778e+00</stageThreshold>
      <weakClassifiers>
        <_>
          <internalNodes>
            0 -1 41 -9994449 -541862286 -1577153 -2132513 -417099777
            -277748363 -273756161 -33561345</internalNodes>
          <leafValues>
            -5.3613269329071045e-01 2.5315228104591370e-01</leafValues></_>
        <_>
          <internalNodes>
            0 -1 16 288846067 321978993 1967985933 -673754781 -435112005
            -2139029309 1963138861 -753445355</internalNodes>
          <leafValues>
            -4.2709872126579285e-01 3.3011272549629211e-01</leafValues></_>
        <_>
          <internalNodes>
            0 -1 118 -264242672 -550191355 1602067839 -35670261
            -93345124 -6312387 -810565713 -215960830</internalNodes>
          <leafValues>
            -3.7009444832801819e-01 3.7720212340354919e-01</leafValues></_>
        <_>
          <internalNodes>
            0 -1 123 -566239478 -986795105 -693109984 -1238893649
            -475531774 1194795379 -419727869 -402653417</internalNodes>
          <leafValues>
            -4.8320734500885010e-01 2.8457883000373840e-01</leafValues></_>
        <_>
          <internalNodes>
            0 -1 65 -1364567972 -7442348 1043783647 1058015450
            -1440172631 -189742668 712760063 488655924</internalNodes>
          <leafValues>
            -5.7843351364135742e-01 2.4877123534679413e-01</leafValues></_>
        <_>
          <internalNodes>
            0 -1 31 -1876166859 -922252 -8994817 -545784483 -2135429876
            -302252563 -1082131537 183491641</internalNodes>
          <leafValues>
            -3.5656684637069702e-01 4.0844357013702393e-01</leafValues></_>
        <_>
          <internalNodes>
            0 -1 47 -1333766691 -109304676 -1110482945 -1349231352
            -1114058755 -617070100 -1681384211 -1428158200</internalNodes>
          <leafValues>
            -4.2803597450256348e-01 3.1568002700805664e-01</leafValues></_>
        <_>
          <internalNodes>
            0 -1 106 -638326274 -235203999 31818380 292005418 -129916480
            -104609596 -809173026 1799879671</internalNodes>
          <leafValues>
            -4.5136469602584839e-01 3.1546023488044739e-01</leafValues></_>
        <_>
          <internalNodes>
            0 -1 50 -867243282 -289216097 -333527089 -67837743
            -140522773 1279453663 -779271096 1195622725</internalNodes>
          <leafValues>
            -5.9844732284545898e-01 2.4123194813728333e-01</leafValues></_>
        <_>
          <internalNodes>
            0 -1 38 -8391774 1865088383 -1103547930 -696557121 572862413
            174784499 1129408495 1179777903</internalNodes>
          <leafValues>
            -5.6719720363616943e-01 2.2093518078327179e-01</leafValues></_>
        <_>
          <internalNodes>
            0 -1 7 -589164936 2146589306 510269375 25311034 878850133
            1315136809 -524505345 -25725057</internalNodes>
          <leafValues>
            -4.0448093414306641e-01 3.4102153778076172e-01</leafValues></_>
        <_>
          <internalNodes>
            0 -1 72 -1330771942 -238049142 -1161813762 269156866
            -1077194289 1874056408 -275341347 -69210721</internalNodes>
          <leafValues>
            -5.1389437913894653e-01 2.5965949892997742e-01</leafValues></_>
        <_>
          <internalNodes>
            0 -1 49 -261951245 -242625094 1477114323 -844628994
            -1477720639 -485113461 -974142817 -861941761</internalNodes>
          <leafValues>
            -3.6299720406532288e-01 3.7529110908508301e-01</leafValues></_></weakClassifiers></_>
    <!-- stage 9 -->
    <_>
      <maxWeakCount>13</maxWeakCount>
      <stageThreshold>-1.2866176366806030e+00</stageThreshold>
      <weakClassifiers>
        <_>
          <internalNodes>
            0 -1 66 -33554689 -771774218 -1934952865 -1108362305
            -12583073 -79712345 -282068293 -79957089</internalNodes>
          <leafValues>
            -4.9513629078865051e-01 3.5251799225807190e-01</leafValues></_>
        <_>
          <internalNodes>
            0 -1 99 1973026008 -170601836 2078263963 2046543839
            -254024536 -252328876 187310634 -1140851877</internalNodes>
          <leafValues>
            -4.5039293169975281e-01 2.8277963399887085e-01</leafValues></_>
        <_>
          <internalNodes>
            0 -1 85 -1594446060 -748404769 -33572865 -135221265
            1400895789 1098194237 -386954040 -319409112</internalNodes>
          <leafValues>
            -4.2997950315475464e-01 3.0090251564979553e-01</leafValues></_>
        <_>
          <internalNodes>
            0 -1 122 -460863421 -615025065 -71054337 -786699745
            -297544205 -889287863 -91498115 -618441711</internalNodes>
          <leafValues>
            -3.6197778582572937e-01 3.7233847379684448e-01</leafValues></_>
        <_>
          <internalNodes>
            0 -1 14 -1162407405 -1337231785 -115736713 1964881408
            -1959218693 -278203585 -1985153377 -1578298880</internalNodes>
          <leafValues>
            -4.2873540520668030e-01 3.4047573804855347e-01</leafValues></_>
        <_>
          <internalNodes>
            0 -1 88 -227615618 -222902548 -100906215 -254874898
            -1404241784 -38686244 -428070136 -134939471</internalNodes>
          <leafValues>
            -4.0214300155639648e-01 3.2138168811798096e-01</leafValues></_>
        <_>
          <internalNodes>
            0 -1 110 -590434310 499941604 -1868680263 1501618143
            1524271242 188424824 858456985 1571487615</internalNodes>
          <leafValues>
            -4.9036079645156860e-01 2.6074388623237610e-01</leafValues></_>
        <_>
          <internalNodes>
            0 -1 33 -211324937 -32849 -59683 -17027 -12801 -34046465
            -1610871575 -16819713</internalNodes>
          <leafValues>
            -2.2420805692672729e-01 5.5762684345245361e-01</leafValues></_>
        <_>
          <internalNodes>
            0 -1 108 -640699214 -1786220544 -1494253647 1439625955
            -1614348876 -906815168 -243805493 -641467561</internalNodes>
          <leafValues>
            -3.6077082157135010e-01 3.6773288249969482e-01</leafValues></_>
        <_>
          <internalNodes>
            0 -1 81 -3090 728563086 -657653764 -772735825 1784754827
            1339946598 -858570285 -539003529</internalNodes>
          <leafValues>
            -3.9259999990463257e-01 3.3621162176132202e-01</leafValues></_>
        <_>
          <internalNodes>
            0 -1 116 1091158670 -681742644 281063432 1527625583
            1392421832 357040136 736033742 1393948171</internalNodes>
          <leafValues>
            -5.8620321750640869e-01 1.8303734064102173e-01</leafValues></_>
        <_>
          <internalNodes>
            0 -1 104 -2103294 42002310 -2001313728 -505855238 -836484094
            1174832134 68679563 32240639</internalNodes>
          <leafValues>
            -6.1594653129577637e-01 2.0814737677574158e-01</leafValues></_>
        <_>
          <internalNodes>
            0 -1 30 -1346542429 727584295 1964887519 -36209185
            -1551288445 -1426425571 65871239 218104960</internalNodes>
          <leafValues>
            -5.1855957508087158e-01 2.2077900171279907e-01</leafValues></_></weakClassifiers></_>
    <!-- stage 10 -->
    <_>
      <maxWeakCount>13</maxWeakCount>
      <stageThreshold>-1.2861269712448120e+00</stageThreshold>
      <weakClassifiers>
        <_>
          <internalNodes>
            0 -1 62 -117440769 -789333382 -319816001 -859919618
            -142606755 -143131921 -1439716369 -910491749</internalNodes>
          <leafValues>
            -6.3700318336486816e-01 6.6346921026706696e-02</leafValues></_>
        <_>
          <internalNodes>
            0 -1 9 -1346721264 -1610899363 -665659523 -1107666339
            -1413969456 -1076256517 -1411807048 -1881734132</internalNodes>
          <leafValues>
            -4.7344207763671875e-01 2.3627774417400360e-01</leafValues></_>
        <_>
          <internalNodes>
            0 -1 75 1903425008 -601689632 -1344295403 -581578401
            2102919083 -864621259 -153109826 149932287</internalNodes>
          <leafValues>
            -4.5073983073234558e-01 2.6221725344657898e-01</leafValues></_>
        <_>
          <internalNodes>
            0 -1 121 -671092222 1191858254 77819713 1396964695
            -245902846 337519415 -993601981 1111638595</internalNodes>
          <leafValues>
            -6.0810393095016479e-01 2.2972895205020905e-01</leafValues></_>
        <_>
          <internalNodes>
            0 -1 98 52827920 -148828395 -4727051 -28359809 -242622039
            -148692593 -1759992396 -148169607</internalNodes>
          <leafValues>
            -5.5173307657241821e-01 2.2958435118198395e-01</leafValues></_>
        <_>
          <internalNodes>
            0 -1 2 -352321793 -1034231738 1904984602 -1871273738
            1079172867 1618113041 1390933476 1115127649</internalNodes>
          <leafValues>
            -4.8808979988098145e-01 2.5499603152275085e-01</leafValues></_>
        <_>
          <internalNodes>
            0 -1 54 127035962 1062786578 -1241553157 2042161818
            -1735668514 -1729969962 -1426354209 -827734968</internalNodes>
          <leafValues>
            -4.1998299956321716e-01 2.7935159206390381e-01</leafValues></_>
        <_>
          <internalNodes>
            0 -1 95 -1074532630 2009931467 1379986172 1372844651
            -387453526 1279305768 -2018007313 1933830815</internalNodes>
          <leafValues>
            -4.9995052814483643e-01 2.3442608118057251e-01</leafValues></_>
        <_>
          <internalNodes>
            0 -1 52 1048279726 1517618560 -1712334853 -606972670
            -1169359698 -850330467 1608503247 182085376</internalNodes>
          <leafValues>
            -5.4073232412338257e-01 2.3629736900329590e-01</leafValues></_>
        <_>
          <internalNodes>
            0 -1 90 2135947934 -799951148 1276384855 1106206651
            -1297372470 1883275776 -3236710 -660878689</internalNodes>
          <leafValues>
            -4.0804311633110046e-01 2.8874045610427856e-01</leafValues></_>
        <_>
          <internalNodes>
            0 -1 77 -1497750148 1945650023 -570517761 -69183282
            205251917 472342793 1697220044 -320595960</internalNodes>
          <leafValues>
            -4.2246016860008240e-01 2.8588116168975830e-01</leafValues></_>
        <_>
          <internalNodes>
            0 -1 51 -1920570251 -100714641 -1359037889 -75596435
            -1228948549 -772116 1011098937 -1343250211</internalNodes>
          <leafValues>
            -2.9705631732940674e-01 4.2073255777359009e-01</leafValues></_>
        <_>
          <internalNodes>
            0 -1 42 -285216890 -1461854419 -625229118 -219415285
            -78919926 118065967 -81789193 1382542311</internalNodes>
          <leafValues>
            -6.1239302158355713e-01 2.1256934106349945e-01</leafValues></_></weakClassifiers></_>
    <!-- stage 11 -->
    <_>
      <maxWeakCount>15</maxWeakCount>
      <stageThreshold>-1.3302601575851440e+00</stageThreshold>
      <weakClassifiers>
        <_>
          <internalNodes>
            0 -1 105 -6291457 -83300 1440481247 -2375939 -1088847937
            -390331672 2145214415 -785</internalNodes>
          <leafValues>
            -4.3874797224998474e-01 5.4385966062545776e-01</leafValues></_>
        <_>
          <internalNodes>
            0 -1 12 -1360133616 -26053155 -1870990147 -8619875
            -1970368820 -274113794 1687790760 -1348727028</internalNodes>
          <leafValues>
            -4.6855089068412781e-01 2.7963450551033020e-01</leafValues></_>
        <_>
          <internalNodes>
            0 -1 36 -117247151 1918235216 1388904447 -794796 -2092699641
            -162012601 1078132687 -808456194</internalNodes>
          <leafValues>
            -3.4271216392517090e-01 3.6764937639236450e-01</leafValues></_>
        <_>
          <internalNodes>
            0 -1 18 891420597 1971054403 -286273900 -6177 -193943921
            2132105295 2011676047 -2097185</internalNodes>
          <leafValues>
            -3.3293914794921875e-01 3.6630234122276306e-01</leafValues></_>
        <_>
          <internalNodes>
            0 -1 107 3145884 359694381 397448543 -2200257 277896442
            481562857 -1580217601 -543389476</internalNodes>
          <leafValues>
            -3.7630632519721985e-01 3.4218209981918335e-01</leafValues></_>
        <_>
          <internalNodes>
            0 -1 84 -1744271208 455084032 -2012569287 319408131
            -1986340657 -1885583201 31060733 256363551</internalNodes>
          <leafValues>
            -4.0216434001922607e-01 2.8291928768157959e-01</leafValues></_>
        <_>
          <internalNodes>
            0 -1 6 737100527 1646224239 -2008532773 537030879 1940064847
            1516804 811538771 1613197847</internalNodes>
          <leafValues>
            -4.7233814001083374e-01 2.6707601547241211e-01</leafValues></_>
        <_>
          <internalNodes>
            0 -1 34 -801906038 1937757524 -1297616338 -213128734
            -921965942 1092574153 -412429688 1130357255</internalNodes>
          <leafValues>
            -5.4555755853652954e-01 1.7776907980442047e-01</leafValues></_>
        <_>
          <internalNodes>
            0 -1 59 603987445 -1217127716 1477644245 -1074495722
            -1180041544 -12658269 -1362870279 -1401934848</internalNodes>
          <leafValues>
            -4.4968661665916443e-01 2.7955409884452820e-01</leafValues></_>
        <_>
          <internalNodes>
            0 -1 23 -6294689 -104909699 -796374575 1091223683 -424981957
            -258996587 -526215491 -2130579279</internalNodes>
          <leafValues>
            -3.9230725169181824e-01 3.0665674805641174e-01</leafValues></_>
        <_>
          <internalNodes>
            0 -1 109 500409592 -573179564 1731351679 1158662352
            -113962755 -25645484 1481039243 -1890592289</internalNodes>
          <leafValues>
            -3.5958340764045715e-01 3.5686615109443665e-01</leafValues></_>
        <_>
          <internalNodes>
            0 -1 53 -210507126 1768381838 -1015316168 -572533946
            2035335005 -349988350 -2236673 -59622546</internalNodes>
          <leafValues>
            -4.3372181057929993e-01 2.7861678600311279e-01</leafValues></_>
        <_>
          <internalNodes>
            0 -1 64 2043857146 -670880554 -2086337492 -246252298
            2000856847 -854453223 -1624831448 149163618</internalNodes>
          <leafValues>
            -5.0148642063140869e-01 2.5694108009338379e-01</leafValues></_>
        <_>
          <internalNodes>
            0 -1 114 -332516328 -324008812 -1115235215 743834316
            -872245217 -1657812338 -1970737764 -1947587556</internalNodes>
          <leafValues>
            -4.8498636484146118e-01 2.5383511185646057e-01</leafValues></_>
        <_>
          <internalNodes>
            0 -1 17 -12406537 -261959150 -1696874629 -1088463047
            -1551843103 -556285502 -1287539665 -122625865</internalNodes>
          <leafValues>
            -3.2915303111076355e-01 3.6082816123962402e-01</leafValues></_></weakClassifiers></_></stages>
  <features>
    <_>
      <rect>
        0 0 1 3</rect></_>
    <_>
      <rect>
        0 0 1 5</rect></_>
    <_>
      <rect>
        0 1 1 3</rect></_>
    <_>
      <rect>
        0 1 6 2</rect></_>
    <_>
      <rect>
        0 3 1 3</rect></_>
    <_>
      <rect>
        0 5 1 3</rect></_>
    <_>
      <rect>
        0 6 1 3</rect></_>
    <_>
      <rect>
        0 10 3 2</rect></_>
    <_>
      <rect>
        1 1 3 3</rect></_>
    <_>
      <rect>
        1 2 6 1</rect></_>
    <_>
      <rect>
        1 3 9 3</rect></_>
    <_>
      <rect>
        1 4 4 3</rect></_>
    <_>
      <rect>
        2 2 2 1</rect></_>
    <_>
      <rect>
        2 2 6 1</rect></_>
    <_>
      <rect>
        3 0 6 3</rect></_>
    <_>
      <rect>
        3 0 12 2</rect></_>
    <_>
      <rect>
        3 4 14 1</rect></_>
    <_>
      <rect>
        3 5 12 3</rect></_>
    <_>
      <rect>
        4 5 9 1</rect></_>
    <_>
      <rect>
        5 0 10 3</rect></_>
    <_>
      <rect>
        5 1 6 1</rect></_>
    <_>
      <rect>
        5 1 6 2</rect></_>
    <_>
      <rect>
        5 2 11 4</rect></_>
    <_>
      <rect>
        5 11 10 1</rect></_>
    <_>
      <rect>
        5 13 7 1</rect></_>
    <_>
      <rect>
        6 3 11 4</rect></_>
    <_>
      <rect>
        6 10 10 2</rect></_>
    <_>
      <rect>
        7 3 11 2</rect></_>
    <_>
      <rect>
        7 10 6 2</rect></_>
    <_>
      <rect>
        7 12 8 1</rect></_>
    <_>
      <rect>
        7 13 11 1</rect></_>
    <_>
      <rect>
        8 3 5 1</rect></_>
    <_>
      <rect>
        8 9 7 2</rect></_>
    <_>
      <rect>
        8 10 6 2</rect></_>
    <_>
      <rect>
        9 4 2 2</rect></_>
    <_>
      <rect>
        9 6 6 2</rect></_>
    <_>
      <rect>
        9 6 11 2</rect></_>
    <_>
      <rect>
        9 7 2 1</rect></_>
    <_>
      <rect>
        10 3 3 3</rect></_>
    <_>
      <rect>
        10 3 5 3</rect></_>
    <_>
      <rect>
        11 3 5 3</rect></_>
    <_>
      <rect>
        11 5 4 2</rect></_>
    <_>
      <rect>
        11 7 2 1</rect></_>
    <_>
      <rect>
        11 8 1 1</rect></_>
    <_>
      <rect>
        12 4 6 3</rect></_>
    <_>
      <rect>
        12 6 1 1</rect></_>
    <_>
      <rect>
        12 7 6 2</rect></_>
    <_>
      <rect>
        14 0 3 1</rect></_>
    <_>
      <rect>
        14 5 2 2</rect></_>
    <_>
      <rect>
        14 6 7 2</rect></_>
    <_>
      <rect>
        14 9 6 1</rect></_>
    <_>
      <rect>
        14 13 4 1</rect></_>
    <_>
      <rect>
        15 0 3 3</rect></_>
    <_>
      <rect>
        15 4 2 3</rect></_>
    <_>
      <rect>
        15 9 12 2</rect></_>
    <_>
      <rect>
        16 4 2 3</rect></_>
    <_>
      <rect>
        16 4 3 3</rect></_>
    <_>
      <rect>
        16 4 9 4</rect></_>
    <_>
      <rect>
        16 6 7 2</rect></_>
    <_>
      <rect>
        17 1 2 1</rect></_>
    <_>
      <rect>
        17 3 3 3</rect></_>
    <_>
      <rect>
        17 4 2 3</rect></_>
    <_>
      <rect>
        17 4 3 3</rect></_>
    <_>
      <rect>
        17 5 2 2</rect></_>
    <_>
      <rect>
        17 6 2 2</rect></_>
    <_>
      <rect>
        17 12 6 1</rect></_>
    <_>
      <rect>
        18 2 3 4</rect></_>
    <_>
      <rect>
        18 2 5 1</rect></_>
    <_>
      <rect>
        18 3 8 1</rect></_>
    <_>
      <rect>
        18 3 11 4</rect></_>
    <_>
      <rect>
        18 4 3 3</rect></_>
    <_>
      <rect>
        18 4 4 3</rect></_>
    <_>
      <rect>
        18 4 7 2</rect></_>
    <_>
      <rect>
        18 4 10 1</rect></_>
    <_>
      <rect>
        18 5 2 2</rect></_>
    <_>
      <rect>
        18 6 2 2</rect></_>
    <_>
      <rect>
        18 6 3 2</rect></_>
    <_>
      <rect>
        18 7 1 1</rect></_>
    <_>
      <rect>
        18 10 11 2</rect></_>
    <_>
      <rect>
        18 11 6 1</rect></_>
    <_>
      <rect>
        19 0 8 1</rect></_>
    <_>
      <rect>
        19 4 3 2</rect></_>
    <_>
      <rect>
        19 4 3 3</rect></_>
    <_>
      <rect>
        19 6 2 2</rect></_>
    <_>
      <rect>
        19 6 11 1</rect></_>
    <_>
      <rect>
        19 7 1 1</rect></_>
    <_>
      <rect>
        20 4 3 3</rect></_>
    <_>
      <rect>
        20 12 7 1</rect></_>
    <_>
      <rect>
        21 4 6 1</rect></_>
    <_>
      <rect>
        22 0 5 1</rect></_>
    <_>
      <rect>
        22 2 3 4</rect></_>
    <_>
      <rect>
        22 2 6 1</rect></_>
    <_>
      <rect>
        22 10 6 1</rect></_>
    <_>
      <rect>
        24 5 9 1</rect></_>
    <_>
      <rect>
        25 3 6 1</rect></_>
    <_>
      <rect>
        25 5 3 2</rect></_>
    <_>
      <rect>
        25 12 8 1</rect></_>
    <_>
      <rect>
        26 3 3 2</rect></_>
    <_>
      <rect>
        26 3 6 1</rect></_>
    <_>
      <rect>
        27 4 6 3</rect></_>
    <_>
      <rect>
        28 1 8 1</rect></_>
    <_>
      <rect>
        28 2 2 2</rect></_>
    <_>
      <rect>
        28 2 8 1</rect></_>
    <_>
      <rect>
        28 10 7 1</rect></_>
    <_>
      <rect>
        29 6 2 2</rect></_>
    <_>
      <rect>
        30 3 3 2</rect></_>
    <_>
      <rect>
        30 5 3 3</rect></_>
    <_>
      <rect>
        30 11 7 1</rect></_>
    <_>
      <rect>
        33 6 3 2</rect></_>
    <_>
      <rect>
        34 4 2 3</rect></_>
    <_>
      <rect>
        36 3 3 4</rect></_>
    <_>
      <rect>
        37 4 3 2</rect></_>
    <_>
      <rect>
        38 2 6 3</rect></_>
    <_>
      <rect>
        38 4 3 3</rect></_>
    <_>
      <rect>
        39 3 5 1</rect></_>
    <_>
      <rect>
        41 2 3 1</rect></_>
    <_>
      <rect>
        42 4 3 3</rect></_>
    <_>
      <rect>
        48 0 2 3</rect></_>
    <_>
      <rect>
        49 0 2 2</rect></_>
    <_>
      <rect>
        49 1 2 3</rect></_>
    <_>
      <rect>
        50 0 2 4</rect></_>
    <_>
      <rect>
        50 1 2 3</rect></_>
    <_>
      <rect>
        51 0 1 3</rect></_>
    <_>
      <rect>
        52 7 1 1</rect></_>
    <_>
      <rect>
        53 3 1 2</rect></_>
    <_>
      <rect>
        53 4 1 2</rect></_></features></cascade>
</opencv_storage>
