layers 11
layer 0 Convolution2D
32 1 3 3 valid
[ 0.00503265 -0.04747591 -0.09061941]
[-0.06325217  0.04087544 -0.0033227 ]
[-0.09808693 -0.13640024 -0.14016922]
[ 0.31549123  0.08111248 -0.12426872]
[ 0.23287493  0.11783112 -0.24285109]
[ 0.04548153 -0.0851059  -0.25150529]
[ 0.35443145  0.15148528 -0.27860796]
[ 0.25045896  0.08850984 -0.34537414]
[ 0.21896133  0.07876122 -0.50239813]
[-0.29082629  0.17593254  0.08116187]
[-0.392452    0.27656552  0.23808502]
[-0.43025798  0.30948877  0.13535328]
[-0.1365608  -0.00571706  0.06504532]
[ 0.02175567  0.05191901 -0.07543323]
[-0.07481022 -0.05118522 -0.14155661]
[ 0.38670042 -0.23133327 -0.47058806]
[ 0.39646688 -0.21704885 -0.22695467]
[ 0.36630675 -0.0274305   0.02312372]
[-0.1072254  -0.00152189 -0.54750687]
[ 0.06898253  0.25840306 -0.30800387]
[ 0.21925192  0.46255344 -0.03010265]
[ 0.03877024  0.04712369 -0.10361309]
[ 0.08969729  0.00285363 -0.03141857]
[ 0.05833143  0.19513807  0.14536066]
[ 0.00771371 -0.12037162 -0.03190683]
[-0.13220459 -0.10424868 -0.00205834]
[-0.07333063 -0.115705   -0.00652237]
[ 0.15479326  0.02681059 -0.28944528]
[ 0.10008412 -0.05867618 -0.15937625]
[ 0.41311222 -0.0809475  -0.23303938]
[-0.18618752 -0.21847589  0.25076228]
[-0.36423296  0.05648344  0.28403962]
[-0.34759423  0.19462922  0.32085061]
[-0.46722731 -0.5780791  -0.25786275]
[ 0.04891696  0.18806154 -0.08169567]
[ 0.39489552  0.4726536   0.28588042]
[-0.34188223 -0.72223532 -0.55552047]
[-0.29797986  0.11720534  0.32793543]
[ 0.00873511  0.62000287  0.73386991]
[-0.03348497  0.3734825   0.44871521]
[-0.2695764  -0.04635543  0.30553424]
[-0.14944875 -0.42033252 -0.24268569]
[-0.25180802 -0.28985909 -0.43538299]
[ 0.1318579   0.00691273 -0.04065414]
[ 0.14191984  0.31530502  0.43524429]
[-0.18084078  0.39020246  0.40053439]
[-0.19785067 -0.29125863  0.04458138]
[ 0.32235837 -0.28049338 -0.33853549]
[ 0.54315192 -0.37226853 -0.284906  ]
[-0.02837325 -0.27998751  0.10450961]
[-0.18902202 -0.14190646  0.65080011]
[ 0.5290575   0.15124771 -0.06895632]
[ 0.38748318 -0.09287894 -0.27735177]
[ 0.12486757 -0.44895121 -0.3393442 ]
[ 0.43776062 -0.10344571 -0.19399761]
[ 0.48174289 -0.12660734 -0.25187722]
[ 0.3336527  -0.34676138 -0.25460351]
[-0.2634092   0.22489014  0.04925796]
[-0.1659434   0.15209173  0.07775199]
[-0.27231383  0.12615936  0.17731942]
[-0.07556976 -0.13380079  0.07632171]
[-0.13893241  0.01188208 -0.08119826]
[-0.08593147 -0.05324035 -0.05056855]
[-0.75996494  0.06988537  0.40212864]
[-0.67380559  0.45565718  0.54605734]
[-0.69012314  0.2263995   0.46782383]
[-0.52781475 -0.11780559  0.39529541]
[-0.56400228  0.10842647  0.37730697]
[-0.49961677  0.24915847  0.48235208]
[-0.05747556  0.06989535  0.10849104]
[-0.13791977 -0.00928133  0.14860027]
[ 0.0649935   0.13274558 -0.00646629]
[-0.28627202 -0.10052738  0.47446442]
[-0.33499238 -0.04697601  0.44717449]
[-0.4565492  -0.11440775  0.38656104]
[-0.01465553  0.12255137 -0.02564733]
[ 0.10809834  0.23441166  0.09783893]
[ 0.02857039  0.01064096  0.18345195]
[ 0.37002501  0.00739405 -0.20374967]
[ 0.00913411  0.17460828  0.19882013]
[-0.35215634 -0.19882734  0.0009676 ]
[ 0.44677049 -0.26545018 -0.25315008]
[ 0.43526173 -0.10622185 -0.28052044]
[ 0.38194308  0.01367212 -0.38967729]
[ 0.10043967  0.36060745  0.06218301]
[ 0.11778802  0.28428873 -0.20085932]
[-0.01984547  0.13311033 -0.4072682 ]
[ 0.35550606  0.34954497  0.29988122]
[ 0.00591965 -0.06000396 -0.05523765]
[-0.39538187 -0.2347272  -0.249492  ]
[ 0.36729014  0.40519413  0.32684875]
[ 0.07271946  0.05569053 -0.07352335]
[-0.48579496 -0.29292613 -0.36207452]
[ 0.30268851  0.30998766  0.35984766]
[-0.05248872  0.1036414  -0.05846973]
[-0.33159187 -0.32167652 -0.29830799]
[-0.00225218 -0.00954843 -0.00668942 -0.03943647 -0.02147369 -0.00371521
 -0.02314874 -0.08040386 -0.0043712   0.0903368   0.01582577 -0.01436516
  0.00819118 -0.00731449 -0.00242947  0.06590604 -0.0032519  -0.02111937
 -0.00203462 -0.0247031  -0.01642211 -0.03903924  0.04250059 -0.02697084
  0.01341831 -0.35600218 -0.01099921 -0.00515818 -0.22991869 -0.02062151
 -0.01813992 -0.01883051]
layer 1 Activation
relu
layer 2 MaxPooling2D
2 2
layer 3 Dropout
layer 4 Convolution2D
32 32 3 3 valid
[ 0.08132869  0.09566599  0.0209798 ]
[ 0.09434716 -0.0799903  -0.09403296]
[ 0.0797605  -0.02758614  0.0387638 ]
[-0.04767086 -0.01777199  0.11834345]
[-0.00293112 -0.14662649  0.0603606 ]
[ 0.21488976  0.01289109 -0.06039715]
[-0.1621006  -0.45846659  0.1411963 ]
[ 0.06096103 -0.31325307  0.0467322 ]
[ 0.34670919  0.05777888 -0.08854456]
[-0.04728283  0.16332453 -0.12544669]
[-0.10677874  0.13459241  0.11583128]
[-0.08482374  0.07158764  0.30840608]
[ 0.01691503  0.04245337 -0.0809671 ]
[ 0.00743471  0.07471983 -0.05859035]
[ 0.06083005  0.04175863 -0.02305333]
[-0.1802582  -0.77131128  0.01756901]
[ 0.11975454 -0.41209784  0.01010736]
[ 0.17411551  0.08352231 -0.20063752]
[-0.18738654  0.00595998 -0.15523081]
[ 0.28399476 -0.47092599 -0.28408799]
[ 0.27813995 -0.2031886  -0.24535078]
[-0.01677042  0.11121769  0.04329005]
[-0.00507411 -0.0236975   0.02466997]
[ 0.03915195 -0.08152534  0.03576728]
[ 0.05069257  0.04414689 -0.0018205 ]
[-0.02650607 -0.0653453  -0.0493761 ]
[-0.01138351  0.03665268  0.04424086]
[-0.0224868  -0.38222834  0.09193382]
[ 0.06869591 -0.11038516 -0.02606117]
[ 0.29029712  0.13719434 -0.16180766]
[-0.03163482  0.07000236 -0.10921776]
[-0.1646011   0.08259773  0.13370237]
[-0.25737107  0.16860513  0.35533226]
[-0.04622756 -0.4829714  -0.42313081]
[ 0.24418859 -1.33030319 -1.28597391]
[-0.04504783 -0.42055622 -0.27060062]
[-0.33060047 -0.40391222 -0.33787134]
[-0.20052488 -0.58442479 -0.3279731 ]
[-0.25523219 -0.05886685  0.27082577]
[ 0.62466252  0.31027776 -0.29487666]
[ 0.0601562   0.32376307  0.0361893 ]
[-0.54003066  0.20101461  0.02728179]
[-0.0860584  -0.43736362 -0.24282943]
[ 0.21972959 -1.25175738 -0.80130905]
[-0.01329079 -0.42081204 -0.29723573]
[ 0.41871682  0.06491372 -0.23812431]
[ 0.12869321  0.22447023 -0.20700219]
[-0.11814746  0.36029506 -0.1765139 ]
[-0.2581625  -0.45556673 -0.03999664]
[-0.44360146 -0.58842313  0.06869826]
[-0.27300662  0.3071278   0.28964651]
[-0.05862764 -0.64223504  0.04738272]
[ 0.00322786 -0.48592153  0.00850868]
[ 0.25702885  0.12432998 -0.07324959]
[-0.12921564 -0.87432301  0.10309759]
[ 0.13163692 -0.31053588  0.03892462]
[ 0.30266792  0.29364145 -0.07098415]
[ 0.04772994  0.19976823 -0.03473097]
[-0.07447585  0.14638424  0.14226203]
[-0.04946553  0.01964517  0.17191938]
[ 0.00135174  0.01587824 -0.01895158]
[ 0.09549033  0.06827413  0.07497779]
[-0.0287395  -0.03847896  0.09227867]
[ 0.0187205  -0.00093073 -0.1940373 ]
[-0.06511313  0.05757857  0.10905003]
[-0.00572323  0.10140571  0.27070275]
[-0.01173532 -0.03329357 -0.2337154 ]
[-0.1085547   0.00762011  0.07133912]
[-0.10435692  0.09647299  0.29345283]
[ 0.06294604  0.08390611  0.01757361]
[ 0.01494907  0.01218779  0.00239267]
[ 0.02556216 -0.01195534  0.09510683]
[ 0.23972943  0.02169716 -0.17786771]
[-0.09480339  0.10247829  0.10897083]
[-0.23118986  0.13062234  0.20227273]
[-0.073966    0.10072432 -0.0001737 ]
[-0.14768322 -0.04005161  0.0335083 ]
[-0.0329229  -0.25787106  0.00582602]
[ 0.10551727  0.38835639 -0.15450816]
[-0.92171508 -0.22814849 -0.08537634]
[-0.83003414 -0.92666101 -0.3500469 ]
[-0.14282817 -0.6992932   0.07035946]
[ 0.1045266  -0.22317888  0.15706582]
[ 0.2811251   0.28986689 -0.10202113]
[-0.18893383  0.10947376  0.07570856]
[-0.1278235  -0.13431767  0.05782201]
[ 0.13257314 -0.35249117 -0.00426876]
[ 0.24265148  0.32684895 -0.11458416]
[-0.45008641  0.03417194 -0.03504249]
[-0.60456401 -0.40794709 -0.22210376]
[ 0.18486515  0.21934408 -0.03339342]
[-0.46221957  0.01356162 -0.05069577]
[-0.3061536  -0.31238157 -0.05103123]
[ 0.29111373  0.26622751 -0.16340926]
[-0.43571103  0.17269707 -0.06024616]
[-0.61108416 -0.33573949 -0.23714449]
[ 0.01713005  0.09184334  0.07266565]
[ 0.01086477 -0.01236292 -0.04107512]
[ 0.08726934  0.00724335 -0.02000105]
[ 0.16547945 -0.10348418  0.09215225]
[ 0.04261431  0.1180293   0.07123626]
[-0.05095455  0.09793352 -0.00417274]
[ 0.14196323 -0.07506186  0.17272446]
[ 0.09369639  0.06486201  0.03987763]
[-0.02781718  0.1107232  -0.01233625]
[-0.12173773  0.06016039  0.01249581]
[ 0.06965817  0.09816994  0.05621978]
[ 0.05253772  0.03838885  0.14138736]
[ 0.07265061 -0.07217624  0.07071874]
[ 0.09227765 -0.05989235 -0.00293989]
[ 0.07388618 -0.03276262  0.01060924]
[ 0.27940282 -0.20143561  0.21285698]
[ 0.0609251   0.07096049  0.13729243]
[-0.09395398  0.2171151  -0.00119239]
[ 0.08981603 -0.07354801  0.12459561]
[-0.04219802  0.00449996  0.02973759]
[-0.02834769  0.15597084 -0.00468299]
[ 0.03662227  0.01667147  0.01113328]
[-0.00100825  0.00389505  0.00535959]
[ 0.12325153  0.02618024  0.05100014]
[-0.00872656 -0.01841052 -0.07433505]
[ 0.05906787 -0.05314146  0.07782286]
[ 0.0178551   0.02611282  0.01403174]
[ 0.13903521 -0.07613961  0.19233274]
[ 0.06337738  0.07400381  0.0890759 ]
[-0.1637776   0.09240887 -0.07887756]
[ 0.07850651  0.11466898  0.0605122 ]
[ 0.10694084  0.10436262  0.21039672]
[ 0.14864148  0.00631038  0.29883951]
[-0.13723873  0.08488471 -0.00276226]
[-0.08174537 -0.2176438  -0.34477362]
[ 0.08489573 -0.22680366 -0.13545531]
[-0.022016    0.08504929 -0.03764004]
[ 0.09191978 -0.00056385  0.06511825]
[ 0.17376548 -0.1357218   0.20545934]
[-0.45880404 -0.21686997 -0.19979383]
[-0.40509865 -0.46162692 -0.18186277]
[-0.46304303 -0.54601479 -0.09315895]
[ 0.1076473  -0.03131305  0.00609402]
[-0.12125339 -0.25557148 -0.10399754]
[ 0.12380692 -0.05479418 -0.03196436]
[-0.32791331 -0.13160819 -0.0183177 ]
[-0.46028402 -0.28279668 -0.2650443 ]
[-0.52339011 -0.17939952 -0.33575097]
[ 0.68972337  0.01232881  0.44761491]
[ 0.32956195 -0.01308063  0.2748116 ]
[ 0.20134363 -0.18202262  0.23172048]
[ 0.14231627 -0.36295018  0.08527751]
[-0.17481712 -0.04222136  0.03318895]
[-0.44429532 -0.03476026 -0.1073973 ]
[ 0.25254619 -0.23304865  0.18311234]
[ 0.04409584  0.03395829  0.16384585]
[-0.22919875  0.17053638  0.06078085]
[-0.12042432  0.04363753 -0.00945705]
[ 0.05723612  0.07395744  0.03582679]
[ 0.14455055  0.02721411  0.14017706]
[-0.01960306  0.0950371  -0.06100897]
[ 0.04807532 -0.09966439  0.01211133]
[-0.05964003  0.09336051 -0.01414221]
[-0.00945825  0.08572995 -0.01836208]
[ 0.05425265  0.10550538  0.08259808]
[ 0.05862497 -0.05665833  0.18392617]
[-0.04682794  0.09838293  0.01399296]
[ 0.11149897  0.13667603  0.13311855]
[ 0.04372894 -0.0996749   0.15242858]
[-0.03199911  0.03079096 -0.01321483]
[ 0.05932843  0.04885661  0.01833884]
[ 0.10705855  0.01952208  0.14967245]
[-0.08028659  0.10534152  0.0318237 ]
[ 0.09973699  0.10168145  0.23723449]
[ 0.04624818 -0.09419981  0.25803426]
[-0.16441834 -0.03431195 -0.0924174 ]
[ 0.01832277 -0.04304776 -0.08552007]
[ 0.09737065  0.05462755  0.04422941]
[-0.08794087 -1.16746819 -0.39187506]
[-0.60930866 -1.45127499 -0.85464448]
[-0.50920749 -0.69815296 -0.58950585]
[ 0.25270057 -0.17838421  0.2115518 ]
[-0.01521538 -0.00435525  0.14931031]
[-0.22376613  0.12204394 -0.08691211]
[-0.06065195 -0.02291343 -0.02549544]
[-0.00837478  0.05295191 -0.03565586]
[ 0.02260096  0.02670628 -0.06112785]
[-0.70897782 -1.16121376 -0.57516074]
[-1.11610961 -1.34726906 -1.13924384]
[-0.91400427 -0.83402753 -0.75957471]
[-0.36263725 -0.72602105 -0.39769989]
[-0.58553553 -0.65740544 -0.69199747]
[-0.50407255 -0.254159   -0.40367645]
[-0.84016973 -1.05772579 -0.56833965]
[-1.11347473 -1.34181547 -0.99161851]
[-0.84382421 -0.79310006 -0.68044782]
[ 0.10168344 -0.00395152 -0.06385794]
[-0.00141621 -0.07354933 -0.03240039]
[-0.0527315   0.02492055 -0.07624111]
[-0.04815139 -0.10504559 -0.17133744]
[ 0.00563732 -0.13274518 -0.23358361]
[-0.09127661 -0.03432743 -0.05244715]
[-0.14100054 -0.0953331  -0.06852698]
[-0.10211332 -0.15355138 -0.15825902]
[-0.13047406 -0.27654064 -0.10587718]
[-0.23822717 -0.52200252 -0.31489253]
[-0.16770226 -0.30008379 -0.2972973 ]
[-0.09695277 -0.0434061  -0.11137675]
[-0.03631672 -0.03420866 -0.07230401]
[-0.05067135  0.00599832 -0.01962366]
[-0.05490519 -0.08892656 -0.06154829]
[ 0.02921194 -0.02702208  0.04486574]
[-0.06523743 -0.1634682   0.05411801]
[-0.12451511 -0.25652704  0.06135745]
[ 0.09021958 -0.03149588  0.040551  ]
[-0.01378319 -0.02307086  0.07157455]
[-0.01197532 -0.03241031  0.25985342]
[-0.15897609 -0.18559967 -0.2649225 ]
[-0.07085762 -0.08192372 -0.10648479]
[-0.09511659  0.04055346  0.01219605]
[-0.07509349 -0.07751302  0.1004861 ]
[ 0.05828554 -0.015871    0.00105675]
[ 0.0350774  -0.06542119  0.08940151]
[ 0.35807803  0.27026537  0.33327591]
[ 0.2839072   0.35370418  0.28876445]
[ 0.21766482  0.11337299  0.2432595 ]
[-0.12945879 -0.40662265 -0.13347477]
[-0.07420769 -0.07797062 -0.11725746]
[ 0.07688914  0.13752921 -0.19724354]
[-0.01840903  0.01144455 -0.09692495]
[ 0.09450994  0.02931829  0.15974461]
[ 0.29608211  0.23216754  0.23677951]
[-0.03062558 -0.02383509 -0.04927263]
[ 0.1507594   0.05983488  0.10604638]
[ 0.28670603  0.20702089  0.19812781]
[ 0.10709442 -0.05091958 -0.19757813]
[ 0.21558392 -0.15390974 -0.30988127]
[ 0.03470737 -0.16062938 -0.17805916]
[ 0.06717595  0.13935043 -0.00962683]
[ 0.23188883  0.1049123   0.06103572]
[ 0.14742081  0.14658856  0.34864804]
[ 0.36427882  0.06002897  0.21810079]
[ 0.3914524   0.1315248   0.12035057]
[ 0.29699126 -0.0135097   0.24250813]
[-0.08674509 -0.2500712  -0.17359063]
[ 0.06976619  0.00030449 -0.14008547]
[ 0.1636389  -0.02459874 -0.25821087]
[ 0.03903522 -0.04271313 -0.07601845]
[ 0.01400073  0.0541478  -0.1995824 ]
[ 0.09327072 -0.01903881 -0.07730821]
[-0.0785789   0.05676847 -0.03335214]
[-0.06516407 -0.0842358  -0.02328213]
[-0.09696547 -0.22813982 -0.04981162]
[-0.13482592 -0.38430431 -0.12407212]
[-0.13766506 -0.25579697 -0.10335771]
[-0.14824131 -0.0034241   0.05359973]
[ 0.09904853 -0.04855164 -0.00150363]
[-0.05238158  0.09037539 -0.03574342]
[ 0.07739472  0.00813827  0.10121415]
[-0.0765457  -0.38831201 -0.11859531]
[-0.18542033 -0.22679929 -0.20108783]
[-0.06733952  0.0016589  -0.17660363]
[ 0.00059603 -0.13764775 -0.00525946]
[ 0.03734134 -0.06967774 -0.01468434]
[ 0.03633866  0.05423765 -0.1037715 ]
[-0.03500049 -0.05010765 -0.08412845]
[-0.04182368 -0.0155722   0.00422279]
[ 0.04814493  0.00253572  0.10731055]
[-0.09114164 -0.25353318 -0.05092341]
[-0.1427795  -0.24519211 -0.10851151]
[  3.45713086e-03  -1.01298574e-04  -2.86657810e-01]
[-0.17774567 -0.16982982 -0.2378118 ]
[-0.04872874 -0.1604761  -0.01697219]
[-0.19313921 -0.05548275  0.07560893]
[ 0.01904928 -0.236352   -0.3434481 ]
[-0.01233665 -0.16198151 -0.41754797]
[ 0.08775073 -0.1736428  -0.22990644]
[ 0.00670634 -0.00174111  0.07774677]
[-0.06269515 -0.17735396  0.00068268]
[-0.08892439 -0.37199879 -0.03413974]
[-0.1547956  -0.43440849 -0.28531221]
[-0.1577161  -0.25448218 -0.31688216]
[-0.15036941 -0.20964012 -0.11055795]
[ 0.09090512 -0.10672794 -0.21368718]
[ 0.28489652  0.0049766  -0.28843912]
[ 0.0774368   0.06289528 -0.098736  ]
[-0.00899763 -0.12775974 -0.28508016]
[ 0.16484186 -0.0808054  -0.18681455]
[ 0.11119951 -0.0095264  -0.12803455]
[ 0.04825301 -0.18706021 -0.18396221]
[ 0.2715205  -0.00596039 -0.22428139]
[ 0.13657834 -0.03530502 -0.03875021]
[ 0.05877572 -0.00036012 -0.07569706]
[ 0.08736017 -0.00662527  0.01207031]
[ 0.09572574 -0.01234944 -0.09706774]
[ 0.06308313  0.03352938  0.10780628]
[ 0.06509069  0.04499863  0.17685419]
[ 0.08027553  0.02261328  0.05496675]
[-0.02044495  0.03079347  0.2585524 ]
[-0.05587265  0.00739925  0.21392632]
[ 0.17032297 -0.13295186  0.11475145]
[-0.11540139 -0.09651759 -0.28578514]
[-0.11160804 -0.16003561 -0.24150705]
[-0.19044536 -0.05936703 -0.20305251]
[ 0.02734753  0.04486645 -0.02662517]
[-0.08036826 -0.08874618  0.06131547]
[ 0.03648942 -0.04478209 -0.01846577]
[ 0.10323884  0.05618856  0.12962717]
[-0.27264559  0.00653033  0.24476384]
[ 0.118209    0.02680512  0.21373174]
[-0.03024027  0.01258573  0.20826593]
[-0.66089803 -0.00252481  0.29184884]
[-0.23155913 -0.01501149  0.20926324]
[ 0.0058531   0.02863694 -0.09988917]
[ 0.04224019  0.07859889  0.03884382]
[ 0.04753427  0.09297191  0.00752765]
[ 0.00759154  0.01677639  0.02623848]
[-0.06047961 -0.0061326  -0.02940579]
[ 0.01587817  0.00431332 -0.06279957]
[-0.03090843  0.10950384  0.41847718]
[-0.12145624  0.03785997  0.32232288]
[ 0.10785823 -0.04981412  0.29055792]
[-0.34839508 -0.41987887 -0.09305227]
[-0.43273342 -0.60060823  0.00426583]
[-0.38762981 -0.21713366  0.1548626 ]
[ 0.10662429  0.31384021 -0.21141773]
[-0.52978486 -0.17997187 -0.18958658]
[-0.16494738  0.22507927  0.14895336]
[ 0.02933271  0.09498858 -0.24745227]
[-0.54839927 -0.25303373 -0.02943098]
[-0.30938706  0.17491253  0.20395128]
[-0.4576382  -0.23820895  0.23743992]
[-0.28262293 -0.25971383 -0.2190897 ]
[-0.09964149 -0.08958903 -0.20810935]
[ 0.30751741  0.29408279 -0.08790401]
[-0.25542685 -0.00649685  0.0086352 ]
[ 0.20314847  0.17808147  0.17628369]
[-0.2022427  -0.00834069  0.26985422]
[-0.03637275 -0.15343325 -0.08451834]
[ 0.12357758  0.02363458 -0.01185387]
[ 0.18327884 -0.69907904 -0.07715001]
[-0.52757448 -0.60050011  0.29998487]
[-0.02316837 -0.09820512  0.29011977]
[-0.41702247  0.10108081  0.3786898 ]
[-0.20898731  0.07900944  0.33450457]
[ 0.02933068 -0.08743325  0.09031183]
[-0.13615629  0.0478172   0.27684134]
[-0.19150786 -0.01659062  0.2740109 ]
[ 0.10985476  0.01473613  0.1823431 ]
[ 0.00349378 -0.01338866 -0.17901948]
[-0.06418117 -0.08463591 -0.11034326]
[ 0.00344336  0.00239377 -0.11061979]
[ 0.07965681  0.05097496  0.09288544]
[-0.02227748  0.02228471 -0.09707908]
[ 0.02547404 -0.00947074 -0.0147935 ]
[-0.50906467 -0.39629811 -0.10053904]
[-0.61706156 -0.78805572 -0.05633481]
[-0.56333196 -0.38158756  0.0240684 ]
[-0.67069149 -0.64425659  0.09606202]
[-0.7664029  -0.98126209  0.10097637]
[-0.6411069  -0.48831993  0.04240447]
[ 0.05034832  0.02658707 -0.0009678 ]
[ 0.06866554 -0.0229788  -0.06473125]
[ 0.05245826  0.11522666  0.08897898]
[-0.64098608 -0.78517777  0.19553599]
[-0.75985348 -1.07548738  0.09001403]
[-0.62711823 -0.61229694  0.15774833]
[ 0.03530132  0.03722817 -0.07760576]
[ 0.04743039  0.04952528 -0.03861004]
[-0.05628872  0.05044608  0.02792629]
[-0.18580857 -0.32614103 -0.45532832]
[-0.44421983  0.05753642 -0.2806218 ]
[-0.06777907  0.10964269 -0.0038148 ]
[-0.17119619 -0.02075439  0.36294019]
[-0.34621847  0.006358    0.36353359]
[ 0.09439093 -0.062056    0.32108787]
[-0.11238151 -0.06626359 -0.01978571]
[-0.00785765  0.06884728  0.03210562]
[ 0.01362768 -0.10370498 -0.05263457]
[-0.21283975  0.00254    -0.0055095 ]
[-0.14010072  0.02452516 -0.18516463]
[-0.02629914  0.17533728 -0.05525638]
[-0.15758003  0.060196   -0.04293249]
[ 0.03810335  0.15105639 -0.22024581]
[ 0.04287283  0.18095687 -0.08850744]
[-0.39791799 -0.0909175   0.02340643]
[-0.11134601  0.0711409  -0.30432919]
[ 0.02838389  0.12319876 -0.1510426 ]
[ 0.04153054 -0.05041507 -0.07552464]
[ 0.00105786  0.00527607  0.05819149]
[-0.05821901  0.04053509 -0.06947712]
[ 0.09214655  0.0284601  -0.0296478 ]
[-0.02730765 -0.08282461  0.00608986]
[-0.11376277 -0.0165757   0.22339475]
[ 0.22727869  0.08373863 -0.17336917]
[-0.22746925 -0.30419117  0.06876698]
[-0.24976677 -0.14003515  0.09749287]
[-0.02841752 -0.25721335 -0.18127474]
[ 0.01332063 -0.13239957 -0.40994477]
[ 0.17112423 -0.07703168 -0.19209751]
[ 0.06497084  0.04976391  0.061482  ]
[ 0.09398033  0.02373858 -0.09279686]
[-0.01070526 -0.09484149  0.00936715]
[ 0.21618655  0.18325229 -0.22309446]
[-0.01740441  0.06163328  0.1021309 ]
[-0.20948547 -0.19283487  0.04028589]
[ 0.29607525  0.05796327 -0.05656464]
[-0.02944665  0.10264923  0.5336839 ]
[-0.48944899 -0.45213625  0.13962393]
[ 0.04112036  0.0512754   0.03792901]
[ 0.01232659  0.07179276  0.10577662]
[ 0.03322296  0.10037749  0.0927134 ]
[-0.08191757  0.02367494  0.07783553]
[-0.07272133 -0.05422781 -0.07500556]
[-0.05644532 -0.06768329 -0.07484271]
[ 0.13335255  0.113184    0.10448927]
[-0.17524204 -0.16105096  0.26184869]
[-0.13488537  0.02964667  0.16446701]
[-0.22138523 -0.58637756 -0.30283418]
[-0.03742647 -0.67559868 -0.82859272]
[ 0.10227568 -0.36608803 -0.27781886]
[-0.10614823  0.24563077  0.35069701]
[-0.14232288  0.39685962  0.6351372 ]
[ 0.00050196  0.17449175  0.09016668]
[-0.40696123 -0.10557459 -0.02282834]
[-0.20981924  0.19389991  0.10382921]
[ 0.04910693 -0.0386389  -0.08843069]
[-0.32140681  0.27068597  0.29080117]
[ 0.01425635 -0.23306017 -0.48664844]
[-0.29028526 -0.09141397 -0.31880826]
[ 0.11689477  0.35114092  0.29245356]
[ 0.05510937  0.44191793  0.48350871]
[-0.1386597   0.17309301  0.23975253]
[-0.20703506  0.42979342  0.33006614]
[ 0.00034711  0.07302818  0.00690679]
[-0.23860525  0.40254316 -0.04831211]
[-0.20103128  0.09730041 -0.38825411]
[-0.32648095  0.30902991 -0.43087253]
[-0.13365555 -0.22021626  0.03767971]
[-0.15461199  0.04352337  0.01347268]
[-0.79486555 -0.67807806 -0.12939405]
[-0.65144485  0.01719452  0.18031925]
[ 0.06733898  0.14856273 -0.22006933]
[-0.52015644 -0.33811918 -0.00182248]
[-0.38596156 -0.1662728   0.14372008]
[ 0.02574403 -0.09410792 -0.0876919 ]
[ 0.10696294  0.09211215 -0.12934662]
[ 0.11984757  0.03971629 -0.01216042]
[-0.08742401 -0.10064955 -0.06173318]
[ 0.04392269  0.07554314 -0.0889092 ]
[-0.09693991 -0.00819648  0.03840714]
[-0.15966187 -0.39022565 -0.15351421]
[-0.05779895 -0.87258416 -0.94243419]
[ 0.07675979 -0.50375724 -0.58904517]
[-0.17252874 -0.54052901 -0.21488857]
[-0.1177291  -1.04417336 -0.90928054]
[ 0.12442361 -0.64914566 -0.63120377]
[ 0.04452442 -0.02126379  0.08960824]
[ 0.04193518  0.06116828  0.11346215]
[ 0.07190329  0.07398259  0.11676749]
[-0.17871332 -0.48186481 -0.17032553]
[-0.09373829 -1.17616093 -0.92176747]
[ 0.02857772 -0.78879964 -0.54342425]
[-0.00447097 -0.04722018 -0.09840301]
[-0.03015009  0.0736827   0.08388241]
[-0.02209633 -0.0237983   0.06615061]
[ 0.01984654  0.0779471   0.25084165]
[-0.06959509  0.46259034  0.10945208]
[-0.48100173 -0.06379353  0.38068578]
[ 0.25546113  0.16170719 -0.14846128]
[-0.4242734  -0.22261731  0.09027152]
[-0.3716436  -0.18093315  0.06920341]
[ 0.05668428 -0.11237709 -0.03034535]
[-0.0887299  -0.19133273  0.01891621]
[-0.11701651  0.05204229  0.21137521]
[-0.20831689  0.19060197  0.43040201]
[-0.18904716  0.09058895 -0.19762421]
[-0.39357352  0.10334358  0.25256783]
[-0.19340369 -0.07097484  0.3199265 ]
[-0.17395979 -0.06826534  0.00471523]
[-0.32916009  0.07409158  0.31719753]
[-0.23114769  0.18875006  0.37086478]
[-0.22996841  0.12427843 -0.09188082]
[-0.40007496  0.17013268  0.18506616]
[-0.00340236  0.07324147 -0.03814308]
[ 0.07653254 -0.04090826 -0.07105818]
[-0.03018712 -0.08865454  0.08016844]
[-0.07345283 -0.16386001  0.17678191]
[-0.00367108 -0.09952538 -0.04485693]
[ 0.00997161  0.17999853  0.08187328]
[-0.03673498 -0.65965587  0.01826251]
[-0.01843705 -0.14074308 -0.14470257]
[ 0.02019682  0.07295427  0.09613284]
[-0.06256717  0.09761383 -0.08379498]
[-0.04062777 -0.24167953  0.03838144]
[ 0.03964885 -0.11161141 -0.02570259]
[-0.04107455  0.01953341  0.00663802]
[-0.03290067  0.06736255  0.05975257]
[-0.01870431  0.03327765  0.05872007]
[ 0.08172081 -0.85475171 -0.03821045]
[ 0.11452942  0.07949169 -0.22372632]
[ 0.00530277  0.12024769  0.08576116]
[-0.06511468 -0.8597573  -0.22035436]
[ 0.22957978  0.07521945 -0.34780926]
[-0.0523256   0.02065328 -0.0765925 ]
[-0.01218442 -0.0111938   0.02708529]
[ 0.04803749  0.00767348 -0.03901222]
[ 0.06196935  0.03231725 -0.00720413]
[ 0.07087226  0.01401919  0.07979678]
[-0.01293821 -0.08410804  0.06210867]
[ 0.0998077  -0.09828618 -0.10006002]
[ 0.09789243 -0.39692116  0.03734957]
[ 0.05684742  0.10858225  0.08132038]
[-0.02500951  0.09479589  0.11709068]
[-0.00167229  0.00655538 -0.1365061 ]
[-0.22158566 -0.2202545   0.1374546 ]
[-0.10606074 -0.03942722 -0.0009633 ]
[-0.12258699 -0.11724075 -0.13302471]
[ 0.35713601  0.27998218 -0.12775025]
[ 0.02349828  0.16095912 -0.03798039]
[-0.3673948  -0.39359415 -0.47667614]
[ 0.08635491 -0.082688   -0.19577131]
[-0.11195895 -0.02643616 -0.265688  ]
[ 0.45520073  0.67975754 -0.01224403]
[-0.31387198 -0.03553997  0.08908822]
[-0.01647782 -0.1566619  -0.20452619]
[ 0.01296387 -0.25054851 -0.17187583]
[ 0.48533601  0.51108325 -0.17263886]
[ 0.08059776  0.23288637 -0.07530033]
[ 0.27372429  0.45316809 -0.26053882]
[-0.05622353  0.32616213  0.17601025]
[-0.08330662 -0.11630362 -0.02655386]
[-0.3232294  -0.54963154  0.03022218]
[ 0.08296743 -0.21603392 -0.08019678]
[-0.14507556  0.31903252 -0.05193412]
[-0.12894131 -0.53808564  0.04202139]
[-0.25048181 -0.31281501 -0.31916675]
[-0.0402473   0.02891818 -0.01440431]
[ 0.01432167 -0.76424247 -0.03948724]
[-0.03199256 -0.0561607  -0.20134918]
[ 0.00390851  0.13159148  0.14783688]
[-0.03409098  0.10035352  0.03218889]
[ 0.0369865  -0.18516812  0.04043312]
[ 0.125955   -0.06993185 -0.01823399]
[ 0.01930399 -0.07838976  0.00761988]
[-0.09631868 -0.01481988  0.04492509]
[ 0.09486073  0.07055464  0.012441  ]
[ 0.11196259  0.09027853 -0.10453664]
[-0.09035116 -0.10722959  0.06996168]
[-0.04968637 -0.03862895  0.04318097]
[ 0.12292765  0.02740758 -0.15964529]
[-0.06804416 -0.11146127  0.08271465]
[-0.06023617 -0.02322961  0.02311663]
[-0.00072672  0.04352637  0.03280662]
[ 0.02769267 -0.00845708  0.01351121]
[ 0.08225191  0.01046557  0.05053136]
[ 0.20250998  0.15195116 -0.05619991]
[-0.13367608 -0.11199903  0.15978971]
[-0.08064634 -0.01004596  0.07606117]
[-0.05351064  0.06386435  0.0273443 ]
[ 0.06889825 -0.10992245 -0.06142782]
[ 0.10468341  0.03402599 -0.04263395]
[-0.46964711  0.69475216  0.95592642]
[-0.49041632  0.08674911  0.30321461]
[-0.25279045  0.5102641  -0.11208536]
[ 0.07454406 -0.74681407 -0.04699875]
[ 0.08966372  0.03413301 -0.14672333]
[ 0.02207542  0.13043879  0.13624673]
[-0.16750905  0.00755375  0.05931321]
[-0.1337696  -0.22089921 -0.14287432]
[ 0.06388693 -0.02692029 -0.02247504]
[-0.18902944  0.49874994  0.46707556]
[-0.5978927   0.1882461   0.06109756]
[-0.15160675  0.07266319 -0.34365749]
[-0.15513739  0.42305478  0.36568958]
[-0.57234502 -0.10266468 -0.03448635]
[-0.05504475  0.00279066 -0.19007085]
[-0.07615137  0.45785102  0.46205962]
[-0.52843165  0.00729001  0.08409761]
[-0.12059289  0.03175774 -0.34425673]
[ 0.05611359 -0.0802324   0.00362725]
[ 0.00555193  0.05477514 -0.08680698]
[-0.06390692  0.04969887 -0.07480425]
[ 0.18465592  0.1226183   0.15657279]
[ 0.1295328   0.10464256  0.02743489]
[ 0.06663583  0.07257535  0.09964257]
[ 0.15799451  0.1422099   0.16287978]
[ 0.09993557  0.13553531  0.01165016]
[ 0.07763425  0.15537712 -0.01693995]
[ 0.0968112   0.14871261  0.03289964]
[ 0.00204016  0.03854095 -0.05376509]
[-0.08232705  0.07942172 -0.0881068 ]
[ 0.07937621  0.04256631 -0.07300802]
[ 0.07452305  0.01077272 -0.09176541]
[ 0.04558769  0.09366551 -0.02884264]
[ 0.01963769 -0.34638047  0.09372445]
[ 0.01683426 -0.10103913  0.06187675]
[ 0.04476281 -0.03064642 -0.09823353]
[-0.05905542 -0.39252406 -0.28055316]
[-0.04365446 -0.32953006 -0.21783054]
[ 0.06949683 -0.23438297 -0.36031678]
[ 0.12908159  0.10265652  0.09478733]
[ 0.01050357  0.02426921  0.04045613]
[ 0.02033734 -0.02140088  0.04605288]
[ 0.01782476 -0.01374042  0.01297848]
[-0.06020268 -0.0325305   0.00939903]
[ 0.06197579 -0.06150946  0.07318829]
[ 0.04373548 -0.15475532  0.07247189]
[ 0.10509405  0.01812124  0.07856233]
[ 0.15242256  0.18546891  0.04488442]
[ 0.06581852  0.22486971 -0.02295355]
[-0.09929305  0.12494291 -0.00278396]
[ 0.02516779  0.12367677  0.13295318]
[-0.73806649 -1.53957677 -1.66482055]
[-0.82445925 -2.09054303 -2.10167122]
[-0.32009146 -1.36369431 -0.86800629]
[-0.62341398 -0.42469105 -0.95374519]
[-0.52996677 -0.31002524 -0.77048177]
[-0.27216345 -0.214894    0.07313772]
[ 0.03341746  0.04291954 -0.51146334]
[ 0.00251969  0.01283057 -0.38292915]
[-0.11109173  0.20828605 -0.08033948]
[-0.60685843 -1.34716904 -0.97150922]
[-0.73895282 -1.72072184 -0.98088545]
[-0.33227661 -1.06740582 -0.43743339]
[-0.11167291 -0.33995122 -0.23033044]
[-0.05464739 -0.12376304 -0.04055553]
[-0.04149551  0.29811227  0.0670858 ]
[ 0.00069335 -0.56621909  0.04385598]
[-0.15350655 -0.49878722 -0.04741771]
[-0.03591202 -0.45520568  0.41808775]
[ 0.18885346 -0.39448601  0.15232699]
[ 0.18228956  0.05592335  0.04632746]
[ 0.1127358   0.25665429  0.12149163]
[ 0.16019313 -0.1961368   0.07852411]
[ 0.03698428  0.03918489  0.05204586]
[ 0.09724768  0.20435421  0.01123163]
[ 0.11274048  0.16812426 -0.02417202]
[ 0.00871585  0.16029575  0.01206042]
[-0.01272212  0.09740986  0.04355874]
[-0.06806421 -0.06035906 -0.09272998]
[ 0.07746924  0.01822636  0.08378095]
[ 0.09139389  0.06740145  0.07573175]
[-0.12230285  0.11162299 -0.23499282]
[-0.01038599  0.01924784 -0.08315464]
[-0.00166333  0.13789093  0.0751725 ]
[-0.12901682  0.05923906 -0.22194068]
[-0.04621869  0.09934292 -0.03199711]
[ 0.03075149  0.12763083  0.10548739]
[ 0.13315123  0.05569206  0.03531662]
[ 0.06323025  0.07707365  0.00667935]
[ 0.0159272   0.0434145   0.09163891]
[-0.0109852   0.12320223 -0.10294177]
[ 0.0166063  0.1037482 -0.007542 ]
[-0.01088712  0.12674342  0.05863903]
[ 0.02381968  0.09657227  0.06111427]
[-0.07459975 -0.00744623  0.03084529]
[-0.11143112 -0.11214877 -0.09468375]
[ 0.23864698 -0.43194309 -1.07576513]
[-0.01407418 -0.77839118 -0.73444486]
[ 0.08361407 -0.34300643  0.37785044]
[ 0.10298905 -0.26448327  0.06232642]
[ 0.0295227   0.06690449 -0.03376562]
[ 0.04025216  0.24227794 -0.06443894]
[ 0.11593593  0.18968914  0.11326242]
[-0.00674524  0.03422279 -0.02382861]
[-0.1395018  -0.03556203 -0.1125344 ]
[ 0.31393582 -0.42974371 -0.74149972]
[ 0.12431716 -0.41944039 -0.40438583]
[ 0.04858009  0.06010364  0.29961091]
[ 0.34990996 -0.09085568 -0.25390264]
[ 0.15168527 -0.22604197 -0.22746737]
[ 0.03025583  0.0927857   0.26595181]
[ 0.1716108  -0.34720698 -0.6795423 ]
[ 0.11173316 -0.3220723  -0.48461294]
[-0.09149535  0.23284337  0.22111121]
[ 0.00854887 -0.07663572  0.07569122]
[-0.01913944 -0.05874035  0.07470597]
[ 0.00583965  0.08828271  0.00837279]
[-0.08211141  0.05752226  0.20345442]
[ 0.02310798  0.14281091  0.00199883]
[ 0.11702599 -0.04450072 -0.07661216]
[-0.26231202  0.00117278  0.18066217]
[ 0.02110569  0.09733059 -0.06276991]
[ 0.26373172 -0.09360907 -0.03532129]
[ 0.07559247  0.11132476 -0.06065502]
[ 0.22440036 -0.32581604  0.00765131]
[-0.18895186  0.09889159  0.12993702]
[-0.05740155  0.06327868 -0.08189986]
[ 0.05101448 -0.0808741   0.07761229]
[-0.08899429 -0.01737856  0.01871043]
[-0.24389584 -0.20764184 -0.00347452]
[-0.66554809  0.02185469 -0.18041506]
[ 0.12300012 -0.05239916 -0.16301359]
[-0.40272835 -0.2408319  -0.38111243]
[-0.8247152  -0.36514747 -0.38548437]
[ 0.07409486 -0.35149673  0.09159187]
[  4.97636211e-06   1.34350350e-02   3.24158669e-02]
[-0.00612933 -0.05160604 -0.02208229]
[-0.02891652 -0.05136879  0.00198897]
[ 0.03756673 -0.05365897 -0.07741448]
[-0.02065902  0.02302927  0.08171085]
[ 0.05817747 -0.05082058  0.04631084]
[-0.26683432 -0.05365145  0.03366198]
[-0.19136521  0.10394903 -0.02130739]
[ 0.34583282  0.02168264  0.06374926]
[ 0.08403181 -0.06285775 -0.08211678]
[ 0.23672546 -0.33278248  0.17656758]
[-0.22452655  0.47158569  0.10257443]
[-0.098231    0.0737843  -0.61805898]
[-0.80781668 -1.39114726 -0.11991739]
[-0.49302533 -0.16190109  0.17657493]
[-0.09778391 -0.03515529 -0.4600988 ]
[-0.23730971 -0.51836306  0.05616816]
[-0.52924377  0.32698467 -0.00064484]
[-0.37202239 -0.12457274  0.05197445]
[ 0.0104179  -0.32785359 -0.15729393]
[-0.1389994  -0.30016041 -0.06722521]
[ 0.01995561 -0.20528546 -0.52662331]
[-1.17820227 -0.81212157 -0.21972971]
[-0.37059706 -0.12509133 -0.10128361]
[-0.46213058  0.16596039  0.04672271]
[ 0.10567644  0.17220508 -0.02645479]
[ 0.2957803  -0.07286551  0.04758944]
[ 0.43749917 -0.72202784 -0.20126492]
[-0.51783347  0.63236469  0.3878949 ]
[-0.12575291  1.01653814  0.10833222]
[-0.46074328  0.00104067  0.24542509]
[-0.15217282  0.29731834  0.12402991]
[ 0.21323012  0.07854862 -0.198311  ]
[-0.39918664 -0.02465863  0.23405728]
[-0.20604691  0.22890879  0.06036727]
[ 0.18560617 -0.00998765 -0.1109209 ]
[ 0.07926224  0.08919393 -0.06713066]
[ 0.12799187 -0.23483415 -0.03962628]
[-0.10042921 -0.04164334  0.08378254]
[-0.04765197 -0.07688101 -0.04253675]
[-0.08917161  0.08957326 -0.101276  ]
[-0.08269793  0.0868852   0.09632573]
[-0.01730811 -0.01846887 -0.06091582]
[ 0.15496378 -0.5403651   0.04412047]
[-0.13832955  0.23683907  0.0963857 ]
[-0.01625784  0.01086043 -0.0997647 ]
[ 0.19436117 -0.50793147  0.1008575 ]
[-0.18735163  0.31890231  0.11625213]
[ 0.0179144   0.08884068  0.00707411]
[ 0.06509359  0.011566    0.01150364]
[-0.02843304 -0.01102431  0.04203426]
[-0.02707571 -0.12274025 -0.02637652]
[ 0.18302946 -0.43925059  0.08194927]
[-0.15768757  0.31894737  0.11604796]
[-0.01715368  0.07816697  0.06214589]
[-0.02681637 -0.02379389 -0.07220922]
[-0.07303387 -0.14693658 -0.03604579]
[ 0.41045919 -0.32481679  0.48560557]
[-0.23415352  0.52917182  0.46834388]
[-0.39794812  0.50276512 -0.0276264 ]
[-0.45594653 -0.05320444  0.0750863 ]
[-0.23092355  0.08763348 -0.06516629]
[ 0.22250874 -0.0546856  -0.07477   ]
[ 0.03722705  0.0672503   0.14620294]
[ 0.10727495  0.12740031 -0.08930188]
[ 0.08300953 -0.17592716  0.03199045]
[-0.05373731  0.02512913  0.4258211 ]
[ 0.04392798  0.38763729  0.24974765]
[-0.02938251  0.01307749 -0.27296144]
[-0.18929273  0.03137052  0.40473089]
[ 0.02929338  0.33734906  0.03872776]
[ 0.10737965 -0.14124452 -0.21375479]
[-0.28419253  0.14806385  0.42231131]
[ 0.14180988  0.4250125   0.13604498]
[ 0.04892052 -0.09903186 -0.22422254]
[ 0.01412382 -0.00387159 -0.03371316]
[-0.00438145  0.04033842 -0.01111424]
[ 0.02752464  0.01919774 -0.08303975]
[ 0.08138186 -0.11477044  0.00324829]
[ 0.07171736 -0.01519611  0.00137321]
[-0.00145012  0.08470646 -0.26261088]
[ 0.15497315 -0.15797058  0.02980042]
[ 0.19475691  0.04073686  0.03688962]
[-0.02727867  0.21525504 -0.2189737 ]
[-0.06629431  0.06421939  0.13697587]
[ 0.08263413 -0.1125527   0.10889075]
[ 0.18351601 -0.42423019  0.10314955]
[ 0.04770871 -0.09733621 -0.03026241]
[-0.03926216 -0.01111128  0.08539093]
[-0.04853728 -0.09344643  0.02568277]
[ 0.08655827 -0.15624179 -0.22890636]
[ 0.17712052  0.1841532  -0.43077627]
[-0.01728885  0.32769236 -0.42886198]
[ 0.31687674 -0.40871838  0.43169734]
[ 0.60314518 -0.0044114  -0.1582536 ]
[ 0.48118246  0.32191309 -0.22120577]
[ 0.01327199 -0.07611727  0.10441974]
[ 0.05988747 -0.07382434  0.07810702]
[ 0.04326577  0.0719872  -0.00945393]
[-0.09031209  0.00894402  0.08398765]
[-0.06302314 -0.0626522   0.02217419]
[-0.1004426   0.05163391  0.0775296 ]
[ 0.12220617  0.00887837 -0.22849935]
[ 0.0912305   0.17192481 -0.44394535]
[-0.08406871  0.16620049 -0.21057537]
[-0.21163571  0.18490662  0.11776625]
[ 0.03346068 -0.03581895  0.16365781]
[ 0.12219316 -0.380631    0.2181323 ]
[ 0.00543807 -0.28331116  0.19091821]
[ 0.05990674 -0.33071905 -0.55342591]
[-0.00293064  0.06389409 -0.05797934]
[-0.17749843 -0.01867097 -0.07037839]
[-0.06060174 -0.4892042  -0.22416301]
[-0.1068617  -0.22333093  0.0663978 ]
[-0.16763006  0.34351504  0.0522665 ]
[-0.41593242  0.50068742  0.30530149]
[-0.15089302 -0.43423805  0.31644395]
[-0.08433165 -0.27613172  0.04693078]
[ 0.08255024 -0.27991888 -0.5185585 ]
[ 0.11909105  0.31133699 -0.1207178 ]
[-0.11628871  0.25051051 -0.1403069 ]
[-0.48535442  0.39596328  0.08773409]
[-0.4905386   0.15908337  0.24918005]
[-0.23029257  0.41515669 -0.14828208]
[-0.10853902 -0.1444312  -0.17361355]
[-0.10804375  0.0865619  -0.21387269]
[ 0.11508529 -0.08171166 -0.49154666]
[-0.16660953 -0.08745296 -0.40342864]
[-0.38920861  0.05691011 -0.08750509]
[ 0.11341801 -0.10831762 -0.40631777]
[ 0.0530437   0.20479223 -0.27630314]
[-0.13328613  0.26876807 -0.21104158]
[-0.03361391  0.03782086  0.12153028]
[ 0.14686781 -0.07310782  0.08985346]
[ 0.21381791 -0.32438281  0.12186   ]
[-0.09447353  0.03434353  0.04084048]
[-0.0152339   0.06640924 -0.0974557 ]
[-0.03420436 -0.05270988  0.0837422 ]
[-0.10292459  0.04843483  0.07927511]
[ 0.05340817 -0.02923845 -0.00379947]
[ 0.07409215 -0.34761071  0.06232   ]
[-0.12899175  0.11534556 -0.0312426 ]
[ 0.06109842 -0.02337743  0.0945821 ]
[ 0.05555379 -0.2602177   0.10174423]
[ 0.00738145 -0.02938093  0.02613834]
[ 0.09900422 -0.062851    0.06105515]
[ 0.08992585 -0.03157599  0.04301273]
[-0.20486921  0.24719839  0.11518785]
[-0.04424055  0.18157806  0.13258557]
[ 0.0486696  -0.24335434  0.20780848]
[-0.10574219 -0.1476413   0.10486689]
[ 0.00506653 -0.25461835  0.03589223]
[ 0.02753056 -0.13934444 -0.06729373]
[-0.21163808 -0.1719764   0.0585574 ]
[-0.76470822 -1.32179809  0.03048006]
[-0.4213863  -1.01072264 -0.46056128]
[ 0.12131687 -0.18759948 -0.2105837 ]
[ 0.07576396  0.20002589 -0.36324531]
[-0.11805996  0.41392544 -0.42053124]
[ 0.03853518 -0.27662438  0.16833222]
[ 0.03039363 -0.33214104  0.13417751]
[ 0.07138243 -0.14967562 -0.09938078]
[-0.12170198 -0.05520787  0.11297617]
[-0.86088747 -0.57342255  0.27206114]
[-0.65471691 -1.14970243  0.02542568]
[-0.06220798 -0.12280313  0.16647995]
[-0.60099649 -0.4817977   0.31198537]
[-0.35752311 -0.79398686  0.12232129]
[-0.05540686 -0.07867315  0.16639391]
[-0.82802814 -0.46589985  0.26902834]
[-0.61485863 -1.06837785  0.1829893 ]
[-0.07630559 -0.04401839  0.09119569]
[ 0.00181659 -0.10175483 -0.03358578]
[-0.02877551  0.00047165  0.02026448]
[ 0.020866   -0.06648397  0.25024885]
[-0.34617555  0.01786263  0.15979926]
[-0.1357947   0.14671552  0.02748046]
[-0.29171965 -0.28968403  0.27525124]
[-0.81028813 -0.08438905  0.19517203]
[-0.5176006   0.17326501 -0.05279872]
[-0.06962814  0.20178041  0.16381744]
[ 0.01779236  0.05367462 -0.07971521]
[-0.03394878 -0.07756865 -0.09073211]
[-0.01429234 -0.04382937 -0.0705274 ]
[ 0.07117749 -0.09368374  0.02253332]
[ 0.07904313  0.03070087  0.08956686]
[-0.04794271 -0.61946237  0.05335319]
[-0.52616948 -0.45828992  0.11662734]
[-0.9292236  -0.11638867  0.12291574]
[-0.33611313 -0.67081267  0.10437413]
[-0.47844732 -0.53485399  0.17197415]
[-0.77038014 -0.20821898  0.01530046]
[-0.02351817  0.00225047  0.08106735]
[ 0.07011663  0.05991144 -0.0022435 ]
[ 0.02107131  0.09525007  0.07087579]
[ 0.10125304 -0.03039537 -0.05548297]
[ 0.0053259   0.08693467  0.07442233]
[ 0.0765836  -0.0795351  -0.00210142]
[-0.10289383 -0.37571257  0.23297082]
[-0.48067215 -0.13491224  0.19111615]
[-0.34900182 -0.0133596   0.21033756]
[-0.01234959  0.39283159  0.02384573]
[ 0.11799369  0.11960836 -0.1702161 ]
[-0.02811585 -0.11770987  0.20291355]
[ 0.07688063  0.06979514 -0.36559567]
[ 0.49811307  0.0160678  -0.53685176]
[ 0.49303234 -0.31748697 -0.38535619]
[ 0.03303271  0.07305303 -0.45083424]
[ 0.29896098 -0.09979298 -0.61476415]
[ 0.15939882 -0.61318034 -0.19625501]
[ 0.16046207 -0.04951161 -0.49286515]
[-0.13059022 -0.35367316 -0.52437854]
[ 0.13891086 -0.05776876 -0.32227728]
[ 0.03941307 -0.13661443 -0.32795158]
[ 0.35533932 -0.21307404 -0.31095779]
[ 0.12866054 -0.30553707  0.0154191 ]
[ 0.2529363  -0.23172694 -0.1811319 ]
[-0.0217028  -0.04831653 -0.22296023]
[ 0.1662249   0.02512819 -0.12814049]
[ 0.44660717 -0.17929548 -0.63928264]
[ 0.11125933 -0.89645183 -0.29867259]
[-0.344942   -0.44717801  0.05359492]
[-0.10417435 -0.75308013  0.38958782]
[-0.89280862 -0.41630375  0.12050217]
[-0.47191191 -0.20567167  0.04956713]
[-0.18440627 -0.65051556  0.2294156 ]
[-0.90979272 -0.33733878  0.15724984]
[-0.81643611  0.03188713  0.02317015]
[-0.09598022  0.20890006  0.24441332]
[-0.0247556   0.02165423  0.03678849]
[ 0.01548814 -0.00582497  0.0267813 ]
[ 0.08896001  0.02750284  0.02488388]
[ 0.05671161 -0.05832041 -0.09520808]
[ 0.08661132 -0.07089306 -0.03946276]
[-0.10177284  0.2532911   0.00344826]
[ 0.0654159   0.00230934 -0.3129845 ]
[ 0.01098769 -0.18632634 -0.01494396]
[-0.0397875   0.26618603 -0.22496334]
[ 0.07714378 -0.04071042 -0.48709852]
[ 0.0325331  -0.25198665 -0.02488969]
[ 0.03808095  0.08170312  0.13138855]
[ 0.00671362  0.11950199  0.08465082]
[ 0.03578318  0.01416153  0.05248978]
[ 0.06091533  0.30008054 -0.37269038]
[ 0.02102577 -0.05552267 -0.39983639]
[-0.02125775 -0.24368003  0.04134675]
[-0.1510147  -0.04162959  0.03977409]
[-0.05036741 -0.06056614 -0.06926606]
[ 0.05720578 -0.01880989 -0.0230475 ]
[ 0.7690652   0.10012297 -0.62230438]
[ 0.31199098 -0.21840438 -0.34201574]
[ 0.26583841  0.24942648 -0.05087484]
[-0.29226255 -0.66396731  0.31538221]
[-0.9636777  -0.39838824  0.16322474]
[-0.88924217  0.02165073  0.17272528]
[-0.28039131 -0.10378286  0.08734767]
[-0.30564195 -0.10975432 -0.01747491]
[-0.10996193  0.01478291 -0.05737967]
[ 0.25931364 -0.24068466 -0.20262556]
[ 0.12932904 -0.21113493 -0.22252649]
[ 0.16381663  0.05120621 -0.07553316]
[ 0.26130998 -0.14541855  0.10203145]
[-0.09116904 -0.10608427 -0.10656492]
[ 0.12994428  0.04853617 -0.04507219]
[ 0.24500152 -0.28622708 -0.15949349]
[ 0.09540322 -0.16360374 -0.18817797]
[ 0.22451901  0.08966413 -0.15585288]
[ 0.04077039  0.01843364 -0.02944193]
[ 0.02888003  0.07399271 -0.03513166]
[-0.05268567  0.09564567  0.03942138]
[ 0.19270539  0.02392866 -0.17419685]
[ 0.15368587 -0.12706724 -0.04026183]
[-0.18677266  0.32708755  0.01707369]
[ 0.25262997 -0.13184927 -0.29079485]
[ 0.12604846 -0.19179891  0.03117508]
[-0.2880812   0.27088436 -0.02122866]
[-0.49937055 -0.07064728  0.05914681]
[-0.06719633  0.11494642 -0.13248998]
[ 0.28447869 -0.02053149 -0.03117138]
[ 0.05843799 -0.04040467 -0.06479368]
[-0.06594311  0.0218774   0.04705289]
[-0.03407541  0.09894906  0.06871752]
[ 0.09655707 -0.09629783 -0.30250135]
[ 0.19745219 -0.30092558  0.11631551]
[-0.12609656  0.00779321  0.16497745]
[-0.15845834 -0.54960293 -0.1301267 ]
[-0.28016809  0.06603009  0.06124549]
[-0.39106619  0.15987791 -0.08195727]
[-0.00652454 -0.0306033  -0.02186183]
[-0.03809828  0.04083114 -0.01412352]
[ 0.04713038  0.05263838 -0.02020181]
[-0.05094069  0.04200326 -0.04940794]
[ 0.06380992  0.04311096 -0.03594786]
[ 0.09102614 -0.03765163 -0.07199785]
[ 0.1682559  -0.05012409  0.02114777]
[ 0.11295804 -0.09557999  0.15907468]
[-0.28127128  0.10131282  0.06043425]
[-0.81078464  0.02844492  0.07449648]
[ 0.19355814  0.17855239 -0.13973509]
[ 0.41522142 -0.18321067  0.07658815]
[-0.67987388  0.15073471  0.1549723 ]
[-0.15550978  0.39349172 -0.07359684]
[ 0.37474695  0.26870146 -0.28771433]
[-0.64917839  0.17545164 -0.09120841]
[ 0.24946192  0.25806934 -0.36887202]
[ 0.32719454 -0.19365428 -0.14441034]
[-0.50645459 -0.02415663  0.29162332]
[-0.92191142 -0.55562848 -0.04531077]
[-0.23459743 -0.38045686 -0.28448823]
[-0.47140259  0.14022805 -0.14303003]
[-0.00994279  0.26792255 -0.06010504]
[ 0.22823761  0.04705577 -0.16364354]
[ 0.03631016 -0.01509342  0.26860279]
[-0.17078629 -0.22739129  0.20307308]
[-0.23656286  0.02497744 -0.33372724]
[ 0.15653481  0.74498522 -0.2837885 ]
[ 0.87565863  0.3284632  -0.02432345]
[ 0.66933703 -0.82444578  0.58306593]
[ 0.28936788  0.14654399 -0.25362107]
[ 0.26941743 -0.45982742  0.04506887]
[-0.35246032  0.26795253  0.05197878]
[ 0.20156153  0.06275892 -0.24525942]
[ 0.19918641 -0.3409214   0.18204467]
[-0.22906722  0.15185726  0.10450698]
[-0.35938182 -0.04980402  0.0271802 ]
[-0.10216813  0.0657903  -0.10692403]
[ 0.23008935  0.0325649  -0.04410097]
[ 0.06583612  0.04640475  0.02501731]
[-0.02528771  0.07559799  0.04896055]
[-0.04142614 -0.04804289 -0.00608969]
[-0.62708026 -0.05301413  0.07323293]
[-0.01516881  0.03432257 -0.07439676]
[ 0.19209872 -0.08104075  0.0263599 ]
[-0.61741972 -0.01995928  0.04735408]
[ 0.08500906  0.08313574 -0.0673027 ]
[ 0.18953747 -0.1140151   0.06607748]
[ 0.02214761 -0.01423233 -0.00538195]
[-0.05522121  0.0419097  -0.00652852]
[ 0.09371894  0.0516309  -0.01939738]
[-0.71988034  0.0105585   0.15113677]
[ 0.0510138   0.03289204  0.03778897]
[ 0.2317553  -0.17111529  0.09690771]
[ 0.04922968 -0.11871153  0.04003798]
[-0.05607072  0.04031825 -0.02504279]
[ 0.07174696  0.11473153  0.01733582]
[ 0.01546576  0.44666976  0.15419321]
[ 0.37577778  0.0478427  -0.24118027]
[-0.0775899   0.10913053  0.23153327]
[ 0.13617405 -0.1737604  -0.19146374]
[ 0.11965722 -0.23578806  0.20179623]
[-0.20298254  0.12053806  0.05565723]
[ 0.26135725 -0.12885472 -0.15355332]
[-0.00052322  0.03315986 -0.07584045]
[-0.12733583  0.28054225 -0.14083026]
[ 0.18412831  0.31112745  0.19790515]
[-0.18937115 -0.67939287 -0.3960807 ]
[-0.89482969 -0.00433776 -0.42847666]
[ 0.19514422  0.07420124  0.06633353]
[-0.05208828 -0.73898983 -0.49142709]
[-0.658934    0.23180853 -0.24796882]
[ 0.17609651  0.17831719  0.18470813]
[-0.17609286 -0.89544559 -0.39091375]
[-0.92131156  0.02987066 -0.50707442]
[-0.02473356  0.09384784  0.02704667]
[ 0.080968   -0.10055454 -0.09735845]
[ 0.00836299  0.01885807  0.06672443]
[-0.08414751  0.12439499  0.09234406]
[-0.08350538  0.03320738  0.0891871 ]
[-0.0069986   0.03331852  0.00214093]
[-0.39994919  0.26383474  0.27710587]
[-0.41031393  0.00673458  0.14615579]
[-0.07085874  0.10489751  0.10720364]
[-0.07330339  0.08279458 -0.49363092]
[-0.02735901  0.00419958 -0.23485659]
[-0.1170589   0.20310286 -0.12795906]
[ 0.05754636  0.06164761  0.08950622]
[ 0.0269285   0.00483234  0.07561269]
[-0.00772164  0.09781034  0.00321805]
[-0.1705347   0.1077742   0.33259746]
[-0.45589834 -0.07541802  0.27055952]
[-0.16414618 -0.15135363  0.21549454]
[-0.24842019  0.07064406  0.32742035]
[-0.36727425  0.00377762  0.13535433]
[-0.16650853 -0.21274449 -0.005473  ]
[ 0.07536019  0.04619405 -0.02634338]
[ 0.03068294  0.02364875 -0.04570256]
[-0.02630078  0.03851984  0.04127547]
[ 0.06368836  0.06086987 -0.03402089]
[-0.01228056 -0.06877029 -0.04711476]
[ 0.09479254  0.00746099  0.0892683 ]
[-0.4255192   0.04911647  0.30583251]
[-0.41743729 -0.00835347  0.19379178]
[-0.04361837 -0.01347481  0.11814794]
[ 0.01175806 -0.10886627 -0.42042071]
[-0.07039243 -0.05768362 -0.1542169 ]
[-0.08284933  0.19129254  0.07100134]
[ 0.1536165  -0.00978938 -0.11122467]
[ 0.4535901  -0.04964117 -0.20036115]
[ 0.29514548 -0.24423429 -0.47247669]
[ 0.07820803 -0.21883424 -0.29951674]
[ 0.10296372 -0.32619551 -0.19242251]
[-0.07696874 -0.16496427 -0.21735945]
[ 0.08618298 -0.2418941  -0.47438115]
[ 0.09153111 -0.16810198 -0.59378809]
[ 0.15059169  0.09051132 -0.37809619]
[ 0.16762692  0.01739248  0.04571394]
[ 0.21176738 -0.14446154  0.00550289]
[ 0.20165853 -0.35585752 -0.17211305]
[ 0.01909643 -0.26161763 -0.09280636]
[ 0.13355723 -0.24550714 -0.29009801]
[ 0.20296954 -0.07716758 -0.2261968 ]
[ 0.08652997 -0.85619646 -0.0301149 ]
[-0.22384818 -0.64491642 -0.12625146]
[-0.13122533 -0.17947927 -0.02681574]
[-0.32005471  0.00436932  0.36249581]
[-0.18372007 -0.09439897  0.07867242]
[-0.03617512 -0.06767015 -0.07100613]
[-0.40136141  0.13395447  0.39878553]
[-0.4175885  -0.00120835  0.21732363]
[-0.08727709 -0.03690325  0.16827841]
[-0.04702397  0.06785327 -0.29144344]
[-0.01676156  0.06879466 -0.14884093]
[-0.06807189  0.16033693 -0.11040904]
[-0.05594436  0.02824116 -0.04861603]
[-0.018376    0.04861862  0.01844236]
[-0.00744171  0.03864699  0.01358054]
[ 0.03124165 -0.09303951 -0.6483739 ]
[-0.05449217 -0.09001414 -0.29390165]
[-0.05535443  0.20023125 -0.08472234]
[ 0.06070455 -0.18027294 -0.53811568]
[-0.11313054 -0.20817882 -0.25467268]
[-0.10725154  0.19373648 -0.09983485]
[ 0.03390102  0.06625132 -0.14925584]
[ 0.0047694  -0.02231864 -0.09266828]
[ 0.00156905  0.0536567   0.01211171]
[ 0.03924074 -0.20609337 -0.35419685]
[-0.05964829 -0.15790674 -0.00368246]
[-0.09020902  0.17655581 -0.12698457]
[ 0.08904386  0.09620482 -0.16979243]
[ 0.05932064  0.06775845 -0.00422217]
[-0.02775547 -0.02378    -0.12081405]
[ 0.40992761  0.17039955 -0.61780411]
[ 0.39979398  0.21423349 -0.29535726]
[ 0.29206762  0.35047913 -0.13644882]
[-0.48249543  0.2557365   0.36547944]
[-0.71029907 -0.00134924  0.27077857]
[-0.14133883  0.00197357  0.09279027]
[-0.05599865  0.01998342 -0.1327972 ]
[ 0.00135093  0.01605695 -0.11108012]
[ 0.02892151 -0.03770597 -0.08693407]
[ 0.32782099 -0.03780577 -0.39815795]
[ 0.36735603  0.16977552 -0.51170015]
[ 0.26674697  0.15793911 -0.24282776]
[ 0.23522364 -0.03243041 -0.31297088]
[ 0.20322557  0.09983034 -0.31078193]
[ 0.18641439  0.10890398 -0.13883308]
[ 0.22746544 -0.03590944 -0.38251999]
[ 0.2641533   0.10243153 -0.50211215]
[ 0.29202458  0.09760503 -0.29254255]
[ 0.03008024  0.0094149   0.06601825]
[ 0.07865094  0.0873338   0.05207279]
[ 0.0280015   0.0635056  -0.04940886]
[-0.03409775 -0.19550768  0.12569556]
[-0.18099184  0.06809382  0.10033812]
[-0.08287401  0.20347603  0.10856389]
[-0.0373062  -0.38302052  0.21167892]
[-0.44846609  0.06321368  0.15450409]
[-0.24933885  0.18696134  0.08230636]
[-0.25197396  0.0836143   0.09158546]
[ 0.0031683   0.00247252 -0.20977028]
[-0.0658739   0.03511824  0.05357626]
[ 0.0742004   0.04254525 -0.05666636]
[-0.06088979 -0.08148558  0.04820677]
[ 0.07007071 -0.07459468 -0.04805498]
[ 0.16649042 -0.19143161 -0.01272702]
[-0.22852232 -0.39360517  0.07723531]
[-0.3100417  -0.13862766  0.10957044]
[ 0.1576221  -0.08145968  0.180251  ]
[-0.38651866 -0.35686973  0.0826846 ]
[-0.4896898  -0.19078113 -0.16664916]
[ 0.00524913 -0.0197217  -0.00519987]
[-0.00212724  0.05541986  0.03657876]
[ 0.00037403 -0.00479283 -0.00396504]
[ 0.05794479  0.01118339  0.04591295]
[-0.1012338   0.03662539  0.01350347]
[ 0.08332569 -0.09898736 -0.00939709]
[ 0.2078923  -0.16027552  0.13322121]
[-0.19927384 -0.17171565  0.17272161]
[-0.19280024  0.11589538  0.04529407]
[-0.26120266  0.23504873  0.01299212]
[ 0.06677074  0.05501422 -0.16340266]
[ 0.10489149  0.00123723  0.14518781]
[ 0.40585139  0.49001059  0.16797468]
[ 0.21231937  0.26163864 -0.44001818]
[ 0.35032871 -0.32879174 -0.71970057]
[ 0.19447944  0.61108333  0.0169633 ]
[ 0.10404761  0.13049804 -0.43592435]
[ 0.12979093 -0.17604065 -0.13260856]
[-0.25124335 -0.38863239 -0.48776147]
[-0.11423041 -0.22028841 -0.69919133]
[-0.01669483 -0.06501729 -0.3118751 ]
[ 0.38628069  0.41986126 -0.0679655 ]
[ 0.17382486 -0.04628061 -0.29780141]
[ 0.00240858 -0.41228446 -0.37795106]
[ 0.17517884 -0.41577557 -0.13122357]
[ 0.06718223 -0.22126694 -0.33390179]
[ 0.03772335 -0.03143683 -0.26873329]
[ 0.27424392  0.78619355 -0.79058784]
[ 0.31489459 -0.38490966 -0.0097832 ]
[-0.05662145 -0.42748255  0.16856445]
[-0.05375408 -0.55451411  0.13212186]
[-0.42926836 -0.3200278   0.18619971]
[-0.19407876  0.15704189  0.10962737]
[ 0.01004918 -0.41896209  0.20114772]
[-0.39338195 -0.34497896  0.17514336]
[-0.26751614  0.14568605  0.06731255]
[-0.15038863  0.00640824  0.01434409]
[ 0.02661454  0.01264737 -0.0893974 ]
[-0.07864501  0.04193345 -0.07323648]
[-0.07388484 -0.07475627 -0.04912284]
[-0.01572175  0.02532094  0.02796796]
[ 0.08527572  0.07179809 -0.03787183]
[-0.16466494  0.12586863  0.12750439]
[-0.05770994 -0.01386584 -0.29374975]
[-0.03176749 -0.00982524  0.17182076]
[-0.20661145  0.19424513  0.14682636]
[-0.01655306  0.01618113 -0.19629546]
[-0.05673701 -0.00045651  0.20960501]
[-0.02582815  0.02673649  0.06855936]
[-0.03531221  0.05437102 -0.00813875]
[ 0.06837965  0.02567159 -0.00946504]
[-0.23380691  0.22823946 -0.07899572]
[ 0.05277998 -0.03685603 -0.29797536]
[-0.04264098 -0.02795129  0.24245483]
[-0.12879762 -0.02901203  0.00617991]
[ 0.01172073  0.04596518  0.00519534]
[-0.04163738  0.05982701 -0.00531889]
[ 0.43005154  0.19922805 -0.58842903]
[ 0.42119473  0.0222491  -0.22867548]
[-0.00954535  0.15870814 -0.07078079]
[ 0.04278037 -0.30178982  0.14967814]
[-0.40926546 -0.37757021  0.19498776]
[-0.26767603  0.04964793  0.03347147]
[-0.17428662 -0.13580707  0.12899226]
[-0.21118397  0.09319537  0.03203716]
[-0.07294598  0.15753171 -0.04963707]
[ 0.0867117  -0.34849456 -0.60465991]
[ 0.16257907 -0.07438233 -0.3449212 ]
[-0.08240925  0.09166159 -0.17595297]
[-0.05280752 -0.51110721 -0.28617978]
[ 0.0177781   0.12009218 -0.15208794]
[-0.06814372  0.1128904  -0.06550343]
[ 0.08699415 -0.72233564 -0.61108559]
[ 0.15573432 -0.10467721 -0.4346908 ]
[-0.09086362  0.10238948 -0.1738047 ]
[-0.10031223  0.02782277  0.00039458]
[ 0.03899058 -0.08117486 -0.0599737 ]
[-0.02544395  0.00950337 -0.0178431 ]
[ 0.14515752  0.05797049  0.10379479]
[-0.01973234 -0.02371394  0.10377889]
[ 0.0367989  -0.02730782  0.06498475]
[ 0.12601554  0.06421483  0.06560928]
[-0.00191229  0.12210205  0.05802117]
[ 0.07891653 -0.05967092 -0.00079588]
[-0.1095318   0.21928257  0.1330732 ]
[-0.09865205  0.17836349 -0.08409344]
[-0.0837178  -0.01538572  0.00293368]
[ 0.0408778  -0.01186948  0.10085519]
[-0.07313137 -0.00392507  0.03901171]
[ 0.04598957  0.06690004  0.04754442]
[ 0.18444237 -0.38315672 -0.03121053]
[ 0.03649699 -0.26043376 -0.00551942]
[ 0.26232973  0.04391708 -0.10027912]
[-0.18026337 -0.22974329 -0.25140139]
[-0.20448229 -0.36139116 -0.13675395]
[ 0.09435432 -0.10688491 -0.22751972]
[-0.03913376  0.05945051  0.04927098]
[-0.04603301  0.01100127  0.01754431]
[ 0.09716152  0.09539037  0.02578259]
[-0.01660792 -0.02088971  0.0207221 ]
[ 0.08350329 -0.08670371 -0.04348584]
[-0.08952896  0.02062388 -0.00345456]
[ 0.13920908 -0.25638741 -0.04064192]
[ 0.12159233 -0.09253927 -0.01388508]
[ 0.14036717 -0.06497067 -0.05511804]
[ 0.11746413  0.28135309  0.17089103]
[ 0.19004004  0.23334786 -0.01403682]
[ 0.03615374 -0.0927      0.18926775]
[-0.92014152 -0.12830445 -0.45473683]
[-0.50012565 -0.70531029 -0.60878658]
[ 0.09396727  0.08879282  0.13694252]
[ 0.01812876  0.31200683 -0.20358437]
[ 0.03606678  0.06908246 -0.17395893]
[-0.0832013   0.05626793  0.24650277]
[-0.07822457  0.01249684  0.02038239]
[-0.15406135  0.1290153   0.13166498]
[ 0.13505805  0.11805473  0.00486759]
[-0.49451193 -0.33993787 -0.36455324]
[-0.38422751 -0.85799295 -0.29935983]
[ 0.1587573   0.05171358  0.03584967]
[-0.38188726 -0.59851336 -0.13391924]
[-0.21717894 -0.20512857 -0.13614717]
[-0.00387216  0.11611786 -0.04740471]
[ 0.47003928 -0.14310493 -0.24097569]
[ -3.25297862e-02  -6.57816947e-01   5.95828227e-04]
[-0.25472689 -0.40059721  0.26464403]
[ 0.28381085 -0.19810274  0.09350773]
[ 0.02811805 -0.07235694  0.09837386]
[-0.0023526  -0.1389176   0.17237324]
[ 0.20722729 -0.14517012  0.04372503]
[ 0.05950471 -0.14697072  0.1513755 ]
[ 0.148265   -0.20724243 -0.05396407]
[-0.14169106  0.19604561  0.13627301]
[-0.03435368  0.16135335 -0.00302363]
[-0.05627195 -0.00140575 -0.00452078]
[ 0.10005283 -0.02171847  0.06931591]
[ 0.08783837 -0.07067608 -0.05103746]
[ 0.10227589 -0.02230643  0.03238979]
[ 0.11184508  0.10386434  0.07038231]
[ 0.1330488   0.13559113 -0.04993048]
[ 0.02105435 -0.09786601  0.00399027]
[ 0.2725575   0.30282557  0.09845537]
[ 0.14808869  0.09103139 -0.08747777]
[ 0.0683632  -0.15033016  0.12396191]
[-0.05147139  0.0721241   0.05147684]
[ 0.01612156  0.0533907   0.06605028]
[ 0.0314114   0.01898326  0.05991152]
[ 0.19159295  0.252276    0.13473712]
[ 0.27237344  0.0341306   0.04336293]
[ 0.1252864  -0.02855843  0.10052658]
[-0.15716545  0.01089516  0.03750823]
[-0.10611028 -0.02377742 -0.04155948]
[ 0.05925355 -0.02572208 -0.00944532]
[-0.2921831  -1.071594   -0.68803668]
[-1.21393025 -0.86242199 -0.11417167]
[-0.82281232 -0.45898101  0.06048365]
[ 0.12018666 -0.3513017  -0.01116635]
[ 0.04769786 -0.13480347  0.08557216]
[ 0.29609233 -0.26533872 -0.09731004]
[ 0.00671423 -0.01058831  0.0203719 ]
[-0.21154495  0.07611527 -0.01159007]
[-0.17127179 -0.08232488 -0.0211921 ]
[-0.286926   -0.91091448 -0.35555971]
[-1.05967891 -0.26355129 -0.04160629]
[-0.75693887  0.12525742  0.11331307]
[-0.18411805 -0.62093383 -0.10911277]
[-0.82359195 -0.10097778  0.05829021]
[-0.55276024  0.24405086  0.11432797]
[-0.36306188 -0.72458833 -0.36294466]
[-1.12826574 -0.09394078 -0.06105026]
[-0.69665605  0.22211511  0.04996018]
[ 0.03682268  0.08965307  0.01349301]
[-0.02141909 -0.01605614  0.02460686]
[-0.00968399  0.06957428 -0.09706602]
[ 0.16961677  0.09056505  0.017622  ]
[ 0.155129   -0.00032603  0.10174765]
[ 0.36881509  0.09036845  0.09199382]
[ 0.06596444 -0.1894546   0.13199815]
[-0.08354244  0.04822718  0.00597967]
[ 0.47030145  0.0736908  -0.02007341]
[-0.03831238  0.11373482 -0.08833668]
[ 0.00666453 -0.10292516 -0.04650908]
[-0.00663231 -0.0870304  -0.11451326]
[ 0.08947404 -0.03221581  0.07170296]
[-0.01346614  0.10097582 -0.0571381 ]
[-0.00129868  0.09938383 -0.00352139]
[ 0.21923992 -0.40330374 -0.027816  ]
[-0.06460165 -0.11892837 -0.00612505]
[ 0.17212254  0.06109532  0.07586603]
[-0.30527365 -0.41314909  0.04720115]
[-0.56105232 -0.41127053 -0.07145074]
[-0.26424289 -0.11887232  0.05252396]
[ 0.0336123  -0.00063982  0.11832982]
[ 0.13630439  0.0560417  -0.05289876]
[ 0.19866893  0.10417224  0.13429348]
[ 0.06188508 -0.01654929 -0.01152597]
[-0.02664197 -0.00385694  0.09629983]
[ 0.04023079 -0.07631475 -0.00519707]
[ 0.21562475  0.0911748   0.20050688]
[ 0.0858862   0.19945465  0.31737101]
[ 0.41240531  0.29781157  0.28663012]
[-0.0010945  -0.03855408 -0.29164168]
[ 0.00640648 -0.44301927 -0.18626745]
[-0.06136728 -0.06932761 -0.11768486]
[ 0.319139   -0.16122702 -0.72494012]
[ 0.13609441 -0.86367053 -1.23086703]
[ 0.13226008 -0.60979766 -0.57070112]
[ 0.1080742  -0.28054461 -1.04737878]
[ 0.16342059 -0.94308221 -1.00665271]
[ 0.02282504 -0.65947884 -0.39385712]
[-0.27537623 -0.66476554 -0.73946548]
[-0.21120153 -0.88560539 -0.76781315]
[-0.20897648 -0.2028942  -0.49903092]
[ 0.2128485  -0.17819272 -0.38229921]
[ 0.08330946 -0.49173129 -0.40518582]
[ 0.10136189 -0.17282082 -0.17040375]
[-0.07692055 -0.06512852  0.21274886]
[-0.05257772 -0.08511557  0.04509058]
[ 0.09407911  0.28227776 -0.01238064]
[ 0.07689007 -0.93178338 -0.71647179]
[-0.39748374 -1.10785866 -0.54455239]
[-0.37590513  0.02982082 -0.20102577]
[-0.46977934 -0.55171496  0.10770073]
[-0.24604513 -0.11661833  0.05450032]
[ 0.33076814  0.2119699  -0.03902482]
[-0.04030661 -0.34842831  0.13095357]
[-0.21107528 -0.1094204   0.01821739]
[ 0.27805093  0.19811496  0.0201324 ]
[-0.01758493  0.1569936  -0.03245743]
[ 0.10651393 -0.08472013 -0.03544626]
[  3.23443525e-02   9.45046049e-05   2.22300626e-02]
[-0.02690212  0.057427   -0.06463773]
[ 0.03084948  0.06781169  0.0393976 ]
[ 0.02292032 -0.06031254  0.08635694]
[-0.16128822 -0.24545693 -0.78651488]
[-0.03104598 -0.87423545 -0.74507308]
[-0.00939146 -0.44934496 -0.42564607]
[-0.0431494  -0.24524841 -0.69324291]
[-0.03457208 -0.98183882 -0.6086269 ]
[-0.00159114 -0.535124   -0.35220578]
[ 0.07832081  0.071377    0.12524988]
[ 0.07223737  0.06533457 -0.02162245]
[ 0.09681718  0.08740229  0.09786819]
[-0.12873265 -0.36208197 -0.72541863]
[-0.03595139 -0.97357035 -0.55626553]
[-0.1754752  -0.41678482 -0.45246992]
[ 0.01545036  0.02811836  0.00292531]
[ 0.00309502 -0.07156069 -0.02870834]
[ 0.00255885 -0.06063805 -0.00066676]
[ 0.41994491 -0.60605621 -0.65613025]
[-0.09827765 -0.59442645 -0.51792371]
[ 0.03394727  0.10662586 -0.10230024]
[-0.05361854 -0.27497065  0.15511453]
[-0.44009295 -0.10564274  0.00537294]
[ 0.28058138  0.16698298  0.09181401]
[-0.07591949  0.04358913 -0.02238886]
[-0.05289499 -0.0755375   0.00152828]
[ 0.11998284 -0.0131855   0.0016399 ]
[ 0.0097897  -0.63999683 -0.52492511]
[-0.04812992 -0.45501101 -0.42760226]
[ 0.05634193  0.11320139 -0.07873183]
[ 0.19803651 -0.18886369 -0.01342087]
[ 0.09317776 -0.24493757 -0.14917272]
[ 0.20971859  0.16609888 -0.03428029]
[-0.0922055  -0.75581998 -0.5213874 ]
[-0.13569467 -0.41483566 -0.36501533]
[ 0.04709087  0.04440844 -0.05010177]
[ 0.08591695  0.00251511 -0.04462446]
[ 0.07472751  0.02974475  0.02511632]
[ 0.09056216  0.05508521 -0.01280964]
[-0.01148435 -0.21479291 -0.04030248]
[ 0.01116147 -0.08668493  0.02481102]
[ 0.06303514 -0.04507056  0.07341172]
[-0.03473978 -0.05595947 -0.06898971]
[ 0.01958173  0.04646048  0.05556341]
[ 0.05219029 -0.03156241  0.05595264]
[-0.2103043   0.14562625  0.15494822]
[ 0.01206223  0.14217034 -0.0299661 ]
[ 0.12808354  0.12630312 -0.23310962]
[-0.03270742 -0.05706074  0.08215717]
[ 0.08301272 -0.03658419  0.06537919]
[ 0.09119919 -0.05201669 -0.02633907]
[-0.00505744 -0.00365143 -0.0721845 ]
[ 0.04142833 -0.01393567  0.02606724]
[ 0.05541065  0.02361807  0.07725404]
[ 0.18656936 -0.07758869 -0.14418592]
[ 0.2661193  -0.10916558 -0.07536922]
[ 0.07046954  0.03899759  0.09852555]
[-0.07255159 -0.05046319  0.05992429]
[ 0.03773155  0.00136829  0.01185266]
[ 0.03497555  0.15579458  0.04631745]
[ 0.05164261  0.06694066 -0.04768481]
[-0.09338767 -0.06566863 -0.02099458]
[ 0.02578493  0.08031114 -0.05419185]
[ 0.19313295  0.13293493  0.00218638]
[ 0.15475713  0.00485816  0.09915279]
[ 0.04309362 -0.1584353   0.04891883]
[-0.12571386  0.33499926  0.30955181]
[ 0.00110847  0.12385802 -0.10546115]
[ 0.18214163  0.15362237 -0.42413607]
[ 0.09566778 -0.04400898 -0.21742469]
[ 0.05283736  0.00536614 -0.22073394]
[ 0.291724    0.16277683 -0.08172429]
[-0.00443692  0.15667215 -0.14318314]
[-0.08148715 -0.00829303 -0.19268282]
[ 0.2295274   0.16985175 -0.15791996]
[-0.18596739  0.0214664   0.41793099]
[-0.39274445 -0.13606386 -0.15529001]
[-0.44660056 -0.33182099 -0.47012994]
[ 0.01753305 -0.0646843  -0.25230724]
[ 0.15568936 -0.10971944 -0.13121279]
[ 0.22840264  0.05771395  0.0376184 ]
[ 0.01744834 -0.1498675   0.15817299]
[-0.18004286 -0.18684778 -0.0145317 ]
[-0.25003433 -0.44826382 -0.07897366]
[ 0.0421267   0.3004486  -0.64437711]
[ 0.07486135  0.03228918 -0.39843327]
[ 0.29809621 -0.21115905 -0.36251554]
[-0.12895304 -0.08741117 -0.0965867 ]
[-0.12894395 -0.36799189 -0.07298052]
[-0.04609231 -0.53131902 -0.08823761]
[-0.02263068  0.03370476 -0.03216158]
[-0.00412565 -0.0481129  -0.00363821]
[ 0.05019847 -0.22428422  0.03921986]
[-0.06265893  0.12524991  0.23949786]
[-0.01479456  0.15766436  0.00306719]
[ 0.1639733   0.08484659 -0.09541939]
[-0.0388176  -0.01798092 -0.02492443]
[ 0.01594614  0.04514657  0.00974284]
[ 0.04310095  0.07411981  0.02353264]
[-0.05508198  0.21349336  0.43806314]
[ 0.03911632  0.01067154 -0.02227734]
[ 0.1231592   0.04489176 -0.37833551]
[ 0.02851901  0.28801128  0.34887114]
[ 0.13035025  0.02551046  0.02830639]
[ 0.06739123  0.05433784 -0.41605577]
[-0.03746584  0.04892752  0.12053125]
[ 0.01999304  0.0307056   0.02120972]
[ 0.03775965  0.04501154  0.03358063]
[ 0.03656412  0.2838251   0.4604637 ]
[ 0.01745019  0.10158239 -0.02307856]
[ 0.08578111  0.02281329 -0.41133124]
[-0.1773991  -0.10231162  0.01669202]
[-0.07744064 -0.00392093  0.0129737 ]
[ 0.03367772  0.08210415  0.04473393]
[-0.01294778 -0.53942323 -1.09876859]
[-0.20491126 -1.15086913 -1.20832241]
[-0.34500986 -0.92046291 -0.74305207]
[ 0.0067561   0.10237123 -0.04938608]
[ 0.0503592   0.12629317  0.01733645]
[ 0.0125546  -0.10666449  0.08534065]
[-0.13726769 -0.3251476   0.02235444]
[-0.01444912 -0.05386499 -0.02050851]
[-0.07236175  0.07513312 -0.00405811]
[-0.24212006 -1.11311173 -0.49679634]
[-0.63053381 -1.77038062 -0.68038213]
[-0.65899104 -1.08980417 -0.62372565]
[-0.09678861 -0.95572501 -0.32494473]
[-0.3653675  -1.35576963 -0.32886985]
[-0.28361437 -0.64500433 -0.22832042]
[-0.20231451 -1.16497779 -0.33201355]
[-0.70746195 -1.73514104 -0.64381552]
[-0.7023682  -1.13494742 -0.65468007]
[ 0.09215871  0.01317413  0.06073913]
[ 0.0863152  -0.08278233  0.09708524]
[-0.02992818 -0.0349002   0.00412496]
[-0.01001579  0.06187958  0.04764266]
[ 0.062024    0.12441725 -0.09486469]
[ 0.01209669 -0.12557332  0.08443827]
[-0.02232426  0.03518923  0.05515776]
[ 0.05891479  0.00122902 -0.14546023]
[-0.03555159 -0.22272646  0.11055969]
[ 0.09944956  0.0077075  -0.01018801]
[-0.01225996 -0.22594409  0.03261587]
[ 0.00181728  0.05419024 -0.03352068]
[ 0.05700264 -0.09459516 -0.09270418]
[-0.06103299  0.09660892  0.00403184]
[-0.04107556  0.01101345 -0.02095638]
[ 0.03994823 -0.03338708 -0.00464839]
[-0.08739845 -0.06029652 -0.19324109]
[ 0.03526939 -0.15401721  0.04397965]
[-0.09070113  0.0396141  -0.19293067]
[-0.213449   -0.35241786 -0.18985735]
[ 0.11486185  0.04955416  0.10358367]
[ 0.01996236  0.04435538 -0.00356544]
[ 0.00867157 -0.01610498 -0.03901347]
[ 0.01893578  0.00304466 -0.01209072]
[ 0.05640544  0.08466047 -0.08317938]
[ 0.0712655   0.04970327  0.08344558]
[ 0.00761867  0.07347863 -0.02232178]
[-0.03837785  0.05564575  0.02574196]
[-0.02068405 -0.00302362  0.0005854 ]
[-0.02356879 -0.07356091  0.15688024]
[ 0.12343182 -0.01520257  0.05965635]
[-0.1703434  -0.16250657  0.12440316]
[ 0.05719389  0.12595774 -0.00524825]
[-0.13013908  0.07415406 -0.40965572]
[-0.33877596  0.12156034  0.13139567]
[ 0.23938803  0.90813929  0.14182021]
[ 0.07589889 -0.05707442 -0.30575687]
[-0.50403231 -0.00739329 -0.0627901 ]
[ 0.40887818  0.50352752 -0.28749344]
[-0.18978883 -0.00348928 -0.10762407]
[ 0.27096161  0.03604344 -0.11535122]
[-0.57952052 -0.39903414 -0.19596213]
[ 0.00868816 -0.03406791 -0.51032043]
[-0.30194229  0.02521727 -0.22171898]
[ 0.36958995  0.51083177 -0.13451828]
[-0.22735608  0.06891666 -0.19737309]
[ 0.39619875  0.16391492 -0.03980218]
[-0.16422129  0.01048705  0.14920245]
[ 0.48679638 -0.3523221   0.0020818 ]
[-0.33054128  0.56311977  0.27200556]
[ 0.79577541  0.35305357 -0.25187117]
[-0.20375611  0.00412003  0.11530595]
[ 0.09733624  0.27502441 -0.09528956]
[-0.1009079  -0.3862175  -0.00702849]
[-0.05755189  0.05862186  0.13473926]
[ 0.04916901  0.05147094 -0.14466153]
[-0.00778852 -0.20997596  0.17310241]
[ 0.05328084  0.05499914  0.02855228]
[-0.02278804 -0.18347488  0.00875107]
[-0.02201457  0.01467607 -0.02231875]
[-0.09605704 -0.09173547  0.05094944]
[ 0.02179403 -0.07467782  0.05615756]
[ 0.06807419 -0.07922844  0.02007675]
[ 0.0714462   0.03237301  0.01056676]
[-0.03608438 -0.16920148  0.03223665]
[ 0.00548053  0.01195083 -0.01571086]
[ 0.07611011  0.01812181  0.01200671]
[-0.10326649 -0.16622105  0.03958179]
[-0.01226763  0.02800636 -0.04659167]
[ 0.02807028  0.04820452  0.01627501]
[ 0.04364084  0.00416388  0.03833835]
[ 0.00234791  0.05319297  0.01176066]
[ 0.06259444 -0.03886576  0.08876507]
[-0.1579579  -0.16142623  0.10347363]
[-0.02926205  0.00467704  0.00815855]
[-0.00517234 -0.00048721  0.02464193]
[-0.01654153 -0.05535487 -0.02855303]
[-0.04924797 -0.02363872 -0.00355776]
[-0.05621047  0.25563815  0.28270316]
[ 0.12190452  1.0478152   0.48052853]
[ 0.30457917  0.40886173 -0.06217445]
[-0.00159001  0.05491432  0.06270178]
[-0.0041643  -0.04706181 -0.11944538]
[-0.03305306 -0.1903616   0.14232774]
[-0.06031724  0.06316305 -0.00026462]
[ 0.05164133  0.01692749 -0.11266281]
[ 0.00810341 -0.10984551  0.04557748]
[-0.35676464  0.11178647 -0.00953979]
[ 0.34555346  0.73190248  0.0284918 ]
[-0.21175475 -0.32777718 -0.42104536]
[-0.39185604 -0.02878941 -0.06081668]
[ 0.19101384  0.45624498 -0.07627913]
[-0.15560821 -0.42697892 -0.29871443]
[-0.27720338  0.15046015 -0.03866412]
[ 0.39720127  0.69567454 -0.0324356 ]
[-0.23410232 -0.39782622 -0.49208745]
[ 0.02575074 -0.04651791  0.00559079]
[ 0.04049546 -0.04919677 -0.10011814]
[-0.06421595  0.02320613  0.08687312]
[ 0.0458674  -0.11643092 -0.06185578]
[-0.0854565   0.03100155 -0.05803911]
[-0.09535985 -0.00443768  0.1909349 ]
[ 0.14654103 -0.06109558 -0.16800646]
[-0.29216799  0.02671344 -0.03000431]
[-0.08349939 -0.08898434  0.15587743]
[-0.04175915 -0.44889042  0.08694731]
[ 0.10908384 -0.33194816 -0.05656329]
[ 0.00333628  0.14414091 -0.07943094]
[ 0.04313471 -0.05760112  0.03302287]
[ 0.00332622  0.02432644  0.02834775]
[ 0.0943377  -0.07381392 -0.06946328]
[ 0.25369525  0.09805483 -0.17008567]
[-0.02397153  0.20666389  0.12331709]
[-0.03924737 -0.11697244  0.31572688]
[ 0.77453589  0.25571251 -0.10467511]
[ 0.21324597  0.31663981  0.09861661]
[-0.30127648 -0.19752851  0.25809687]
[ 0.07552329  0.00093097 -0.014874  ]
[ 0.04909468  0.07110845 -0.01138061]
[ 0.04578212  0.10139643  0.10805077]
[-0.08682658  0.08064159  0.02384263]
[ 0.09152496 -0.04609973  0.00441153]
[ 0.1016525  -0.09283333  0.07405583]
[ 0.18726382  0.12212243 -0.02703938]
[-0.22085984  0.0330657   0.14196016]
[-0.06807812 -0.12720288  0.13112199]
[-0.04874194 -0.35935679  0.06072661]
[ 0.12282578 -0.715657   -0.07695691]
[-0.02584851  0.08331614 -0.00979275]
[ 0.37440735  0.46620929 -0.20871134]
[-0.12616077  0.47854894  0.09499136]
[-0.17979801  0.18036935  0.258872  ]
[ 0.0714009  -0.28411487 -0.17057884]
[-0.12802655 -0.1171621  -0.12273711]
[-0.25592026  0.06830622  0.0829438 ]
[-0.69767171  0.70593196  0.14725916]
[ 0.18799464 -0.3329199   0.09305524]
[-0.0223088   0.03722197 -0.33516428]
[ 0.44694757  0.4562805  -0.07554574]
[ 0.17818716  0.47513565  0.14043252]
[-0.21522883  0.11293504  0.31791639]
[-0.47469547  0.73087996  0.24250628]
[ 0.02791771 -0.18831466  0.20917141]
[ 0.12305685  0.09562495 -0.2013834 ]
[ 0.25099358 -0.27209091  0.04485806]
[-0.13531354  0.11866666 -0.16940022]
[-0.37522724  0.10351622  0.29246718]
[-0.11209735 -0.2516627  -0.21973129]
[-0.6012069  -0.19519979 -0.20640284]
[-0.25480184 -0.18197821 -0.04708984]
[ 0.08263422 -0.05524545 -0.2186442 ]
[-0.366963    0.03164497  0.01576628]
[-0.17948318 -0.13318172  0.10038594]
[ 0.03237806 -0.23097833  0.10325404]
[ 0.11602435 -0.15019523 -0.00236956]
[-0.01460608  0.08208131 -0.06383549]
[-0.093714    0.09693092  0.05942305]
[ 0.09733794  0.06984163 -0.09025317]
[-0.00767772 -0.0507873  -0.00230291]
[-0.03641815 -0.14509423  0.09057187]
[ 0.08805174 -0.60165912  0.03266846]
[ 0.00329649  0.12155812 -0.04571325]
[-0.01436847 -0.10380803  0.073511  ]
[ 0.06480499 -0.71131015  0.01080379]
[-0.03819189  0.07989261 -0.04346389]
[ 0.00027512 -0.02463992  0.04670505]
[ 0.05655282  0.01716598  0.04559008]
[ 0.03431284  0.08155978  0.03997089]
[-0.08888585  0.15199815  0.10866389]
[ 0.1412545  -0.5040732   0.04330489]
[ 0.02184089  0.00369053 -0.02981822]
[-0.05334838 -0.22147785 -0.16152193]
[ 0.02154286  0.09646275 -0.08790331]
[-0.02578104  0.03972381  0.0070592 ]
[-0.62969148 -0.40854463  0.76955354]
[-0.05028839  0.61434543 -0.21302548]
[-0.36959857  0.2311196   0.19244455]
[ 0.17211974  0.06095871 -0.17548291]
[-0.2823613   0.10340801  0.15846339]
[-0.04826567 -0.10630116  0.21421652]
[-0.08391882 -0.26994887 -0.12475085]
[-0.08010698 -0.04448695 -0.24209252]
[-0.04456458 -0.03187641 -0.05066221]
[-0.95128429 -0.18375215  0.33365071]
[-0.20880531 -0.16416837 -0.2470952 ]
[-0.16839316  0.1591996  -0.13691764]
[-0.84615064 -0.45972005  0.20870313]
[-0.10944793 -0.22839208 -0.25168711]
[-0.1278345   0.09345093 -0.0880428 ]
[-1.04018068 -0.09453556  0.22773992]
[-0.15814763 -0.19086136 -0.25755489]
[-0.13740692  0.20361994 -0.24115528]
[ 0.00375909 -0.00290003  0.07900009]
[ 0.06539212 -0.09344381  0.04658404]
[-0.05398242  0.08414981 -0.05959664]
[ 0.03993882  0.08994238  0.19679581]
[ 0.08966901  0.0109788   0.12640665]
[ 0.13636453 -0.09761352  0.02342274]
[ 0.10187133  0.17167208  0.15128767]
[ 0.13283607  0.04914517  0.10788354]
[ 0.13642301  0.0384158  -0.03551187]
[ 0.01208483  0.22226851  0.01402247]
[-0.00929202  0.19214852  0.09287281]
[-0.04390847  0.11034374  0.12555003]
[ 0.0248749   0.01648486  0.02428901]
[ 0.07645202 -0.02885427 -0.05042417]
[-0.00046271 -0.0079565  -0.06930744]
[-0.14440031 -0.16629943  0.15485646]
[ 0.07238343 -0.1062758   0.15475596]
[ 0.05284796  0.03607957  0.04691654]
[ 0.05446572 -0.01474    -0.19041823]
[ 0.33396783 -0.02982185 -0.09156633]
[ 0.47561723  0.36816519 -0.07855304]
[ 0.01443996  0.08521655  0.00113196]
[ 0.0198225   0.02430961  0.08507842]
[ 0.09235039  0.02629716  0.03755791]
[-0.0526145  -0.06774426 -0.02672802]
[-0.09021867 -0.04543379 -0.03674233]
[-0.0035837  -0.0161606  -0.04169512]
[-0.0163974  -0.09280287  0.08281241]
[ 0.11754794  0.03673227  0.07971054]
[ 0.06993954  0.13640462  0.01533921]
[ 0.03387615  0.26622683 -0.0232196 ]
[-0.05334075  0.18726914  0.01193752]
[-0.2455418  0.0742496  0.100859 ]
[-0.49196136 -0.87959772 -0.43356383]
[-0.42692226 -1.93595994 -0.82056564]
[-0.31493238 -0.75754386 -0.10521223]
[-0.29492331 -0.09970994 -0.0555575 ]
[-0.62144226 -0.46012506 -0.20320456]
[-0.61515141 -0.31721875  0.11187329]
[ 0.03967473  0.1324241   0.05733867]
[-0.16010548  0.34349218 -0.16733992]
[-0.24833877  0.40268654  0.24412784]
[-0.4734126  -0.67862433 -0.22451125]
[-0.45071575 -1.4371649  -0.34278798]
[-0.062208   -0.37459356  0.13197494]
[-0.04326964 -0.26607403  0.12851651]
[-0.08470645  0.03192633 -0.04179538]
[-0.27690387  0.22126751  0.14722711]
[-0.07138085 -0.12318528  0.37036729]
[-0.50380683 -0.27277282  0.29134357]
[-0.33565015 -0.15342861  0.35662672]
[-0.07497713  0.00455124  0.22787693]
[-0.02617229 -0.1155515   0.13071848]
[ 0.05446361 -0.13891239  0.00720292]
[-0.03661576  0.00490462  0.2567462 ]
[ 0.04404108  0.02250252  0.25501943]
[ 0.11017974  0.03454546 -0.04790566]
[ 0.10031982  0.26893434  0.04408904]
[ 0.0567399   0.22326471  0.11865488]
[ 0.06204398  0.13816287  0.16904975]
[ 0.00403473 -0.013636   -0.03545837]
[ 0.00593997 -0.04170757 -0.08260201]
[-0.05662159 -0.00496859 -0.01841352]
[ 0.00998956  0.10860626 -0.12018208]
[ 0.0765344   0.19941419 -0.0425572 ]
[-0.00751758 -0.01161377  0.05618925]
[-0.08583597  0.15343012 -0.07084222]
[ 0.02309589  0.10271221 -0.04180442]
[-0.13632908  0.08397853  0.09185525]
[ 0.08738165  0.06072282  0.12487061]
[ 0.02916841  0.07341569  0.03888747]
[ 0.00975076  0.01986586  0.06832168]
[ 0.01466726  0.27967393 -0.02518221]
[-0.07434034  0.23888062 -0.04499856]
[-0.1295037   0.26424929  0.03088016]
[-0.01801512  0.0575651   0.04143897]
[-0.11517289 -0.06452007 -0.07965554]
[-0.0724013  -0.10570092 -0.0547812 ]
[-0.2068755  -0.34460884 -0.53206068]
[-1.03837168 -1.07337296 -0.37326384]
[-0.30609775 -1.11588311 -0.03945253]
[-0.0474993   0.07283861  0.18118159]
[ 0.14229314  0.12987959  0.20686664]
[ 0.19612686  0.22743574 -0.05950695]
[ 0.04847156  0.22039671  0.10394569]
[-0.00703356 -0.01562027  0.0296785 ]
[-0.0114479  -0.19011688 -0.08339473]
[ 0.03763976 -0.22981718 -0.01512986]
[-0.79359704 -0.49496508 -0.29224008]
[-0.36324427 -0.62240863 -0.01940795]
[ 0.10513168 -0.04310997  0.08870617]
[-0.3625831  -0.18217634 -0.08756497]
[ 0.00217814 -0.41333666  0.03190033]
[ 0.01847759 -0.18570802  0.01614846]
[-0.76203758 -0.34459302 -0.18674749]
[-0.35428575 -0.44574952  0.18769793]
[ 0.039002    0.100766   -0.05082811]
[-0.00150832  0.05274842  0.10036805]
[ 0.01356231 -0.0668557   0.07582889]
[ 0.01141708  0.17759521 -0.19702384]
[ 0.08423125  0.13322359 -0.11914797]
[ 0.00575035 -0.19380017 -0.05830626]
[-0.11078269  0.22587208 -0.06674224]
[ 0.06166884  0.06948278  0.16103455]
[ 0.06021103 -0.21911655  0.1188109 ]
[ 0.01433716 -0.49616167  0.17450643]
[-0.27688676 -0.21392424  0.26924929]
[-0.52958167  0.03439491  0.20698182]
[-0.07695397 -0.08059169 -0.09874446]
[ 0.09305995  0.0355458   0.08689714]
[-0.0898568   0.04816774  0.03677861]
[-0.34735736  0.1654194   0.05855533]
[-0.0863877   0.030277   -0.18636978]
[ 0.06517874 -0.09035961 -0.1231581 ]
[-0.27679017  0.00440374 -0.04209426]
[-0.16972855 -0.39374754 -0.01047625]
[ 0.007647   -0.63558233 -0.02916277]
[ 0.0413099  -0.00724703 -0.04147568]
[ 0.02016347 -0.18360694  0.02234496]
[-0.0686335  -0.12816615  0.09552715]
[ 0.08648444  0.05436262  0.09013939]
[ 0.09270388 -0.0687673  -0.0344504 ]
[-0.00318972  0.03949426 -0.08381882]
[-0.11119591  0.26917422  0.09705715]
[ 0.02746083  0.14018273 -0.1628145 ]
[ 0.14249627  0.03615016 -0.07295253]
[-0.28917706 -0.42911491  0.25578129]
[-0.64644504  0.08028375  0.26864809]
[-0.71167588  0.28913894  0.26285943]
[-0.10642238 -0.52712005 -0.18658324]
[-0.10221899 -0.41330466 -0.25509971]
[ 0.00965361 -0.07111999 -0.13077372]
[-0.34043482 -0.27729496  0.14240183]
[-0.20532483  0.02035931  0.06948971]
[-0.12704359  0.19599991  0.08623126]
[ 0.05580428 -0.52677894 -0.24119477]
[-0.01116527 -0.4746542  -0.23927593]
[-0.15143508 -0.16858616 -0.17033786]
[-0.22760303 -0.23651165 -0.29953969]
[-0.13454555 -0.34239554 -0.5040772 ]
[ 0.02993783 -0.20153798 -0.42384791]
[ 0.1616565   0.01027743 -0.3521705 ]
[ 0.11369534 -0.16947462 -0.44803897]
[ 0.36097813 -0.10108812 -0.36477208]
[-1.20431101  0.3736324   0.54258275]
[-0.69142747  0.52584255  0.12607564]
[-0.11838123  0.80504912 -0.32636759]
[-0.23243597  0.38680828 -0.16522323]
[ 0.08986601  0.28105098 -0.20561641]
[ 0.1846597  -0.01051965 -0.01569639]
[-0.2778717   0.18808533  0.01903108]
[-0.01663136  0.26950556 -0.01136965]
[ 0.10079361 -0.06269342 -0.04380623]
[ 0.10041858 -0.38360149  0.21452171]
[-0.12113418 -0.19182386  0.1946526 ]
[-0.36405373 -0.0329342   0.22122605]
[-0.02409069  0.07886384  0.05338462]
[-0.05697058 -0.09904318 -0.06573184]
[ 0.08084206  0.01174082  0.01316717]
[-0.14730006 -0.43886039  0.26246247]
[-0.54552019 -0.04869632  0.19126451]
[-0.66755718  0.16455799  0.16307212]
[-0.30192706 -0.42526522  0.25597018]
[-0.68229258  0.07993275  0.20361227]
[-0.7612983   0.26428694  0.16999173]
[ 0.0727337  -0.04112711  0.07016079]
[ 0.00550315 -0.00979345  0.07864938]
[-0.02120752  0.03380706  0.12035861]
[-0.30483329 -0.34182411  0.27606729]
[-0.74681067  0.15043099  0.18352017]
[-0.8606202   0.2995069   0.19164668]
[ 0.02721035 -0.06869895 -0.08774868]
[ 0.02731417 -0.19594046  0.06079391]
[-0.08424979 -0.1644377   0.0802864 ]
[-0.12858969  0.36504731 -0.32796416]
[ 0.44835612  0.34956124 -0.94200647]
[ 0.14454427  0.35935915 -1.0648315 ]
[-0.31485337  0.18887088  0.16131839]
[-0.06126519  0.08615813  0.04800873]
[ 0.08746341 -0.19234191  0.01915568]
[ 0.06251735  0.10181495 -0.16624171]
[ 0.03275216 -0.10806517  0.08367947]
[-0.01894267 -0.38758829  0.13933592]
[ 0.1482987   0.13598837 -0.49403909]
[ 0.39015189 -0.04467246 -1.33225632]
[ 0.41534409 -0.33088169 -0.92431396]
[ 0.23684429  0.23753856 -0.53126347]
[ 0.37520105  0.1193372  -0.94678134]
[ 0.32018456 -0.32144165 -0.54071975]
[ 0.32006964  0.16720435 -0.57543927]
[ 0.43017384 -0.19817369 -1.25018084]
[ 0.54469937 -0.59982151 -0.88418299]
[ 0.05915776 -0.00831006 -0.08460908]
[ 0.03604155 -0.0068785  -0.00040527]
[-0.01199083  0.04894738  0.05848402]
[ 0.19663008 -0.05493131 -0.11942902]
[ 0.04404531 -0.23985684 -0.16184723]
[ 0.08651058 -0.28924897 -0.19870472]
[ 0.20189241 -0.05720295 -0.48412982]
[ 0.09917542 -0.32193536 -0.74493968]
[ 0.13960211 -0.40285379 -0.31392118]
[-0.08904763  0.19621626 -0.07584022]
[-0.02790273  0.13298577 -0.02459127]
[-0.21780956  0.09349881 -0.01902388]
[ 0.09276658  0.06067512  0.04126426]
[-0.04737436  0.01588545  0.06488544]
[-0.03365235 -0.10227585  0.05189847]
[ 0.10275085 -0.0584528  -0.15877436]
[ 0.09333636  0.07533765 -0.8239603 ]
[ 0.11631554 -0.1192349  -0.59144717]
[-0.18736972 -0.48792413 -0.08052949]
[-0.06809178 -0.93325955 -0.53255159]
[ 0.01910303 -0.44791773 -0.31777498]
[-0.03546612  0.04186978  0.04364925]
[-0.04854369  0.00739487  0.08535618]
[-0.0744698  -0.03000382  0.07254844]
[-0.09612098  0.02626395 -0.02088608]
[-0.07535525  0.09658575 -0.10110725]
[-0.00186168  0.00366113  0.08370073]
[ 0.16739079 -0.01152821 -0.37390766]
[ 0.23472956 -0.08630116 -0.573035  ]
[ 0.16954242 -0.11993817 -0.16745701]
[-0.06504758  0.25061518 -0.12664914]
[ 0.21861841  0.1588103  -0.15048932]
[-0.12456482  0.1656999  -0.06253549]
[-0.9271068  -0.17952651  0.19461389]
[-0.97776532 -0.36244547  0.39974886]
[-0.5222317  -0.14907163  0.31466511]
[-0.45220092  0.12766559  0.06644568]
[-0.27837905  0.06532841  0.12929197]
[-0.25848201  0.15469025 -0.04545566]
[-0.30267596  0.1962032  -0.16177593]
[-0.21006782  0.33363321  0.15208209]
[-0.08344039  0.33552438  0.4078373 ]
[-0.64939016 -0.13483794  0.34358031]
[-0.63734818 -0.14447175  0.3484081 ]
[-0.21669146  0.01289475  0.05971621]
[-0.12970893 -0.0052492  -0.04707244]
[-0.05863089  0.01859408  0.16740182]
[ 0.01839626  0.16161852  0.311304  ]
[ 0.05111304  0.09296621 -0.30274281]
[-0.14431165 -0.1670756  -0.35597977]
[-0.11925507  0.03263245 -0.39669332]
[ 0.2528035  -0.00331822 -0.79904193]
[ 0.05987558 -0.11632586 -0.66483355]
[ 0.12557949 -0.14169188 -0.39931166]
[ 0.25530076  0.05305197 -0.67530179]
[ 0.12053606 -0.07680675 -1.00216675]
[ 0.17813534 -0.13391238 -0.47184086]
[-0.07037139  0.1961609  -0.01427281]
[-0.08586606  0.12505478  0.06312791]
[-0.11481586  0.03908924  0.0358369 ]
[-0.08403147 -0.03142604 -0.0362661 ]
[ 0.00325017  0.07567653 -0.01512937]
[ 0.07998385  0.0762779  -0.08582231]
[-0.13773358  0.16339026 -0.19948684]
[ 0.19636253  0.12402146 -0.16366041]
[ 0.01362495  0.15613785 -0.06843407]
[-0.05574225  0.13955721 -0.18792915]
[ 0.22582504  0.2287837  -0.20918754]
[ 0.07995998  0.15444982 -0.1158427 ]
[-0.01784609  0.04288066  0.03535566]
[-0.02961722  0.04590343  0.10283934]
[-0.07642817 -0.00962004  0.04127157]
[-0.11255027  0.20613529 -0.24376139]
[ 0.31769913  0.17461328 -0.18134446]
[ 0.06923494  0.14784135  0.03473947]
[-0.04962244  0.10963196  0.10707305]
[-0.10684071  0.10636055  0.21233425]
[-0.17727062 -0.09345549  0.09435401]
[-0.34650719 -0.19732207  0.11862714]
[-0.64098126 -0.36435595  0.46585563]
[-0.50637859 -0.53201103  0.34801644]
[ 0.15918793  0.0333731  -0.58572114]
[ 0.1455455   0.04397304 -0.97768909]
[ 0.1194321  -0.12936261 -0.47376058]
[ 0.05779402 -0.09633654 -0.05180539]
[-0.07797366 -0.18715239  0.05659165]
[-0.11745192 -0.24970347 -0.00290472]
[-0.0522659   0.04037392  0.07327739]
[-0.49937126  0.05458079  0.37478498]
[-0.44660214  0.10592522  0.39265499]
[ 0.00209359 -0.02695198  0.03532587]
[-0.31005713 -0.01618318  0.25656271]
[-0.25118807  0.07132012  0.24542704]
[-0.0639543   0.06864105  0.07941225]
[-0.56035453  0.09710279  0.31182346]
[-0.43845785  0.19849692  0.43835497]
[ 0.06825721  0.02139605  0.02765069]
[ 0.01879011  0.0233366  -0.02123158]
[-0.02423702 -0.00197368 -0.07470039]
[ 0.11419619  0.25962096 -0.20628281]
[ 0.16889246 -0.04270578  0.09954483]
[ 0.03270813 -0.04039032  0.16113894]
[ 0.11823642  0.27713236 -0.32909516]
[ 0.21498258 -0.24082725  0.11103538]
[ 0.08036029 -0.20000988  0.10011007]
[ 0.22306654 -0.43135378  0.05284517]
[-0.2581999   0.06240062 -0.00910967]
[-0.0569605   0.17113337 -0.23327194]
[ 0.03468366  0.0212575   0.02603845]
[-0.07312477 -0.0916411  -0.08815172]
[ 0.07718252  0.05273679 -0.09923875]
[-0.17028879  0.15172781 -0.38554662]
[ 0.06863766 -0.15278615  0.08059286]
[ 0.14789858 -0.50729448  0.19725993]
[-0.06355795 -0.56527293 -0.02973796]
[-0.11138719 -0.41355547  0.27450845]
[-0.15259588 -0.28481558 -0.03717344]
[ 0.02858876 -0.08907627 -0.03673641]
[-0.03873884 -0.01944148 -0.0160461 ]
[ 0.03193914  0.13882717  0.0148621 ]
[-0.01627818  0.03974556 -0.02848878]
[ 0.10033359 -0.00888645 -0.0398924 ]
[-0.0344094   0.03986073 -0.06846634]
[ 0.04342586  0.35368603  0.02539536]
[ 0.23388445 -0.12663189  0.24810599]
[ 0.15266113 -0.24224006  0.1080864 ]
[-0.27513164 -0.22866014  0.19178933]
[ -3.39457661e-01   2.26591662e-01   3.03191249e-04]
[ 0.39295363  0.2394879  -0.33853328]
[-0.52090734 -0.1651374   0.45165095]
[-0.60802078  0.48345965  0.25706637]
[-0.10627989  0.54404807 -0.08678785]
[-0.64028782 -0.0328287   0.21276736]
[-0.3311455   0.32997969 -0.09909719]
[ 0.29037637  0.18799874 -0.40207341]
[-0.55177736 -0.54823256  0.07557493]
[-0.97762698 -0.92308229 -0.18906003]
[-0.52002764 -0.16716884 -0.46174991]
[-0.62685144 -0.09588533  0.04682066]
[-0.35237998  0.14412455  0.07238431]
[ 0.03181955 -0.0335723   0.03166461]
[-0.01502844 -0.12638043  0.06389546]
[-0.03117413 -0.74166822 -0.02846945]
[-0.1376622  -0.05266113 -0.21363059]
[-0.53310168  0.95273894  0.06728394]
[ 0.52503949  0.79837638 -0.38668418]
[ 0.95851243 -0.25754192  0.4967587 ]
[ 0.02908679  0.72856438 -0.42164293]
[ 0.16910419 -0.20196407 -0.05299493]
[-0.00649401 -0.52370012  0.11443493]
[ 0.0362962   0.51863331 -0.49044275]
[ 0.17799495 -0.19519287  0.1571255 ]
[ 0.05657696 -0.5604977   0.17224361]
[ 0.10579497 -0.40092629  0.0639193 ]
[-0.17645532  0.08187426  0.07352116]
[-0.0515224   0.13095228 -0.11449488]
[-0.07510085 -0.00488499 -0.10138618]
[ 0.04901512 -0.01710867  0.0569296 ]
[ 0.05615503  0.02020812 -0.01643674]
[ 0.00124048 -0.28566569  0.06232676]
[-0.33414665  0.02284107 -0.02354616]
[ 0.0924601   0.0587194  -0.37366176]
[-0.15831734 -0.21797292  0.21384777]
[-0.32663485  0.09622925 -0.03538134]
[ 0.2177479   0.07750334 -0.4357731 ]
[ 0.06319869 -0.08047996  0.01746975]
[ 0.04475497  0.06507955  0.01881848]
[ 0.013253    0.09441721  0.04315663]
[-0.34622371 -0.32269293  0.12221523]
[-0.27895495  0.07550623 -0.10768411]
[ 0.29255408  0.12636045 -0.38636374]
[ 0.03099021 -0.23552451 -0.06505687]
[-0.05115905 -0.03418644 -0.03075198]
[-0.08598618  0.09742726 -0.03272327]
[-0.43286666  0.20235328 -0.0696243 ]
[ 0.1748722   0.30207747 -0.50930822]
[ 0.13212888 -0.21687889  0.17531377]
[-0.00160165  0.26947713 -0.38288504]
[ 0.10127335 -0.3078346   0.06734999]
[ 0.02011899 -0.53475559  0.12821484]
[ 0.16860679 -0.00699081 -0.24013253]
[ 0.21779077 -0.22467831 -0.04142918]
[-0.11541982  0.15508012 -0.00322326]
[-0.10141394  0.04389947  0.03195532]
[-0.12803091 -1.07313728 -0.6800561 ]
[-0.47888288 -0.35522375 -0.13810709]
[ 0.16996613  0.05541332 -0.18133803]
[ 0.27764133 -0.78343081 -0.48133883]
[-0.26184502 -0.03797969 -0.00093563]
[ 0.03177527 -0.15655451 -0.12229785]
[-0.0450847  -1.50659895 -0.78772551]
[-0.64346737 -0.27953464 -0.24653694]
[ 0.06541849 -0.04442799 -0.09675533]
[-0.02799186 -0.05848019 -0.04052954]
[ 0.04850216 -0.0366547  -0.04695246]
[-0.12883407 -0.01300771  0.17255728]
[-0.07326825  0.09758604  0.10360641]
[ 0.28098607  0.08847792 -0.08444422]
[-0.48097548 -0.12605326  0.12915733]
[-0.17582174  0.09924468 -0.01080083]
[ 0.37838542  0.09762513 -0.23705409]
[ 0.04895419  0.16916488 -0.51357788]
[-0.03782829 -0.26402631 -0.30259213]
[-0.11204887 -0.11559893  0.01543254]
[-0.00949752 -0.03271074  0.02407414]
[-0.0734282   0.09820754 -0.01198453]
[-0.03729533  0.07110778 -0.05034417]
[-0.28988147 -0.06818779  0.07614998]
[-0.76019245 -0.09535038 -0.03373702]
[-0.00266107  0.23614851 -0.10538306]
[-0.61013728 -0.1896265   0.08219985]
[-0.89999104 -0.55972475 -0.19142799]
[-0.41469932 -0.10225063 -0.02077573]
[-0.00595057 -0.00366894  0.0880297 ]
[ 0.05742699  0.03469611 -0.00352737]
[ 0.11485842  0.05467986  0.12898928]
[-0.04335526  0.03394631 -0.07022887]
[ 0.01566688 -0.06044402  0.06709673]
[-0.0951632  -0.06914929  0.09949859]
[-0.32143816 -0.10505996  0.18803369]
[-0.2786915   0.16144392  0.16234797]
[ 0.18567272  0.20561339 -0.00054412]
[ 0.1517897   0.11849943 -1.02441275]
[ 0.11956833 -0.68264943 -0.46818665]
[-0.27343801 -0.02722027  0.02252335]
[ 0.09996581  0.16819116  0.09684795]
[ 0.45891505 -0.52822846 -0.35009146]
[-0.08378018 -0.24483289  0.25316417]
[ 0.02469906  0.03296156 -0.24194346]
[ 0.32259482 -0.62042212 -0.28899124]
[-0.30641335 -0.21253626  0.34323588]
[-0.01014185 -0.22288758 -0.34986356]
[-0.43601778 -0.3359006  -0.15589142]
[-0.28975412 -0.23420028 -0.40434086]
[-0.04462885  0.14011367  0.22539195]
[ 0.0247525  -0.37192914 -0.04768838]
[-0.16113061  0.05398896  0.28378668]
[-0.08697391  0.12922549  0.04303737]
[-0.18392088  0.25247446  0.06264667]
[-0.0342489   0.12258544 -0.07862919]
[ 0.3152113  -0.36793721 -0.66364181]
[-0.39986184 -0.77383792 -0.09404526]
[-0.60951829  0.58697176  0.07569712]
[-0.79816908 -0.20572589  0.17812538]
[-0.54383409  0.11890518  0.07128378]
[ 0.19411543  0.10156177 -0.34440896]
[-0.59602851 -0.16686229  0.00309892]
[-0.58513373  0.08612606 -0.12131106]
[ 0.29475659  0.17070182 -0.32240751]
[ 0.02794524  0.25318512 -0.27223116]
[ 0.06844848 -0.00998442 -0.1992888 ]
[ 0.01386405 -0.02898643  0.05645821]
[ 0.10004897  0.0783641   0.101     ]
[ 0.08321975  0.10010275 -0.08007587]
[-0.00783156 -0.02575145  0.00240605]
[ 0.10545192  0.07872531 -1.21741116]
[ 0.04935556 -0.76620537 -0.87836307]
[-0.21986376 -0.19587421  0.00832065]
[ 0.18963927 -0.05341182 -1.36240149]
[ 0.16911824 -0.99633336 -0.74667877]
[-0.267564   -0.26857463  0.00430701]
[ 0.07940787  0.1178181   0.06360424]
[ 0.07311776  0.08089865  0.05454602]
[ 0.12588707  0.07335135  0.10794846]
[ 0.13835056 -0.14989409 -1.26053596]
[-0.0155143  -1.12203014 -0.78542924]
[-0.30444735 -0.2297688  -0.09985776]
[-0.07505082 -0.0022602   0.02547756]
[-0.00417456 -0.03117444 -0.06323427]
[ 0.0020827  -0.07128974 -0.14860322]
[ 0.43310782 -0.04402113  0.10724422]
[-0.50394696 -0.27389121  0.15622272]
[-0.07221191  0.26143551  0.04482309]
[-0.63835126 -0.13159564  0.13845409]
[-0.75344616  0.01843846  0.09363372]
[ 0.0688637   0.14279106 -0.1746317 ]
[-0.16429922 -0.07193504 -0.00124546]
[ 0.00293888  0.00770583 -0.04468546]
[ 0.1752712  -0.03962721 -0.24817058]
[ 0.03544309 -0.12962028 -0.03511612]
[-0.36961043  0.0957087   0.18269014]
[ 0.02415833  0.03357951 -0.107336  ]
[ 0.00575137  0.0362705   0.16961268]
[-0.23490907  0.14647558  0.23227951]
[ 0.05690684  0.10322675 -0.08517274]
[-0.00247827 -0.09485035  0.02270645]
[-0.46248004  0.07038891  0.21668591]
[-0.0635117   0.08157639 -0.19072936]
[ 0.04739807  0.08084494  0.00578402]
[ 0.01495018  0.0285792   0.03551624]
[-0.03396068  0.08202858 -0.08584031]
[ 0.13233861  0.18879259 -0.02129868]
[ 0.14014466  0.05556084 -0.02985686]
[ 0.04084826  0.11978218  0.10265125]
[ 0.06628334  0.10519697 -0.05992578]
[ 0.03681714  0.09928062  0.1131705 ]
[-0.18971549  0.10790677  0.13326146]
[ 0.00667364 -0.30057207 -0.00780669]
[-0.05886076 -0.20771243 -0.03287076]
[ 0.12537493 -0.09455906 -0.12055279]
[-0.08355995 -0.09340005 -0.03864865]
[-0.07806735 -0.03757691 -0.06431256]
[-0.01316875  0.05446222  0.09806832]
[ 0.01450969  0.11128581 -0.16533367]
[-0.10553598  0.03638934  0.10127427]
[-0.42205548  0.1531997   0.28974557]
[ 0.23633105  0.12944573 -0.30032825]
[-0.19011292  0.15856476  0.03512964]
[-0.37195975  0.35867512  0.3377938 ]
[ 0.05540919  0.05582975 -0.03690793]
[ 0.04144744  0.0774119  -0.01069561]
[ 0.04850559  0.07585826 -0.01438901]
[-0.05844937  0.03069106 -0.05073374]
[ 0.04536076  0.02029392  0.0717357 ]
[ 0.02553876 -0.05095796  0.02370816]
[-0.04112624  0.20527144  0.06556553]
[-0.03688533  0.21079732  0.18867923]
[-0.23424968  0.19255924  0.36839595]
[ 0.0315544  -0.1028478   0.13084178]
[-0.15940958 -0.03809959  0.01796906]
[ 0.07400867 -0.21698402  0.17207161]
[ 0.20606567  0.0072102  -0.42865637]
[-0.63402224 -0.69598103 -0.43283987]
[-0.64847136 -0.57680082 -0.10362007]
[ 0.17464471 -0.22258186  0.01489017]
[-0.37034836 -0.64198732  0.04125146]
[-0.07995749 -0.53458679  0.29694462]
[-0.27182952 -0.64799315  0.1401647 ]
[-0.36132166 -0.91282499  0.17276417]
[ 0.08569715 -0.52242392  0.07152912]
[ 0.19326615  0.00990601 -0.28810307]
[-0.51020783 -0.20299385 -0.21460912]
[-0.47537035  0.00388823  0.18865845]
[-0.37818491 -0.14032803  0.20425802]
[-0.43761581 -0.33054456  0.20911795]
[-0.26294401 -0.31829071  0.0790216 ]
[-0.03020907 -0.15099001 -0.06024861]
[-0.48845643 -0.29893705 -0.02804914]
[-0.41939446 -0.20223922  0.20977575]
[-0.47391146  0.25092304  0.01973156]
[-0.43709058  0.10249019  0.13106233]
[-0.26891512  0.02539434  0.21689792]
[-0.13269469  0.17452434 -0.04107197]
[-0.18590418  0.05158457  0.0530596 ]
[-0.27918154  0.11019149  0.37799987]
[ 0.05484493 -0.17143469  0.00854632]
[-0.02005516 -0.06177974 -0.00901868]
[ 0.06760603 -0.078279   -0.01774412]
[ 0.03464158  0.05278047  0.06998436]
[-0.08016498  0.09949259  0.06110056]
[ 0.06649098 -0.02632971 -0.05106196]
[-0.02845038 -0.0447233   0.12401782]
[-0.19350031 -0.17948435  0.03927911]
[-0.02232288 -0.29688433  0.07734404]
[-0.0844521  -0.13420352  0.20202562]
[-0.18735424 -0.33629605  0.07608759]
[-0.00831205 -0.33587533  0.12978911]
[ 0.10707434 -0.00501636  0.04112281]
[ 0.04967582  0.04095994  0.06615377]
[ 0.06666196  0.06370186  0.05343158]
[-0.09252149 -0.05954808  0.13728446]
[-0.20890735 -0.10272075  0.19735265]
[-0.03261844 -0.13061285  0.16523358]
[ 0.06125109 -0.0356168  -0.12443485]
[-0.05227509 -0.0970923  -0.13490365]
[ 0.05605019  0.01103541 -0.12461709]
[-0.28799105 -1.19883275 -0.88274682]
[-0.69231886 -1.39171696 -1.2658354 ]
[-0.00408616 -0.46512491 -0.99861586]
[-0.15792334  0.17910351 -0.02634893]
[-0.28819841  0.11526833  0.13820019]
[-0.40974963  0.15748288  0.45686495]
[ 0.0379439  -0.01060816 -0.11290803]
[ 0.04795755 -0.04644639 -0.10615873]
[ 0.00549817  0.03072646 -0.11624772]
[-0.70589495 -1.23231661 -0.13690993]
[-0.65650809 -1.46114886 -0.39435065]
[ 0.01859239 -0.60076571 -0.53172052]
[-0.21083918 -0.38900328 -0.07668115]
[-0.19696686 -0.53640568 -0.14880237]
[ 0.08266962 -0.19857439 -0.28622729]
[-0.7387982  -1.26598084 -0.17116007]
[-0.65366417 -1.54178929 -0.31969452]
[-0.01392118 -0.65862787 -0.43082613]
[-0.01143175 -0.03815585 -0.04318891]
[-0.07595637 -0.00302243  0.09234323]
[-0.08764315  0.05263848 -0.07610007]
[ 0.195242    0.14405632  0.00646053]
[ 0.13613011  0.00053023  0.12266964]
[ 0.25223717  0.05549049 -0.05278664]
[ 0.25779352  0.04635075  0.0321404 ]
[ 0.3008295  -0.0836755   0.00887934]
[ 0.19381361 -0.04665254 -0.25603619]
[-0.19057059  0.06547149 -0.07428806]
[-0.09152439  0.02254811 -0.04755017]
[-0.01547506  0.04881743 -0.00359527]
[-0.08408073  0.09157372  0.04483932]
[-0.07619129  0.06634602  0.00283007]
[ 0.05869382  0.0876887   0.03053468]
[ 0.14740041 -0.20042555  0.10420296]
[ 0.3012459  -0.24915092 -0.00503533]
[ 0.25896391  0.09182777 -0.19345886]
[ 0.2159335   0.29068524  0.09281719]
[ 0.33024132  0.30323777  0.0384358 ]
[ 0.35674945  0.21074003 -0.01375566]
[ 0.02600677  0.0135706  -0.02792863]
[ 0.05701824  0.11237321 -0.03726105]
[ 0.10324762  0.12115242  0.07571659]
[ 0.06758221  0.04458033 -0.08040842]
[ 0.01978933  0.01883903 -0.05397958]
[ 0.04086861  0.01825455  0.05732252]
[ 0.18467379 -0.09049045  0.16489209]
[ 0.15559988 -0.02552692  0.0909223 ]
[ 0.14857382 -0.02930537 -0.00644936]
[-0.04618727  0.01198633  0.01424078]
[-0.16485429 -0.00622886 -0.06990252]
[-0.16186327 -0.09256975  0.03361702]
[-0.68841976 -0.01740169  0.18188867]
[-0.50100356 -0.45622066  0.03491453]
[-0.39809558  0.09527368  0.28872073]
[-0.29445791  0.04752208 -0.07254376]
[-0.57272393 -0.30579588 -0.01031709]
[-0.53391272 -0.06864686  0.11795469]
[-0.31757545 -0.21106116  0.24623622]
[-0.36713967  0.10176847 -0.16636564]
[ 0.11102417 -0.01782374  0.03098216]
[-0.30925596  0.06848302  0.16313346]
[-0.15242037 -0.20341885  0.08103115]
[-0.02268499  0.27912122  0.30168661]
[-0.21116316 -0.27802593  0.37760413]
[-0.34976816  0.08581565 -0.028843  ]
[-0.20350651  0.07766777  0.22341944]
[ 0.28789529  0.03608846  0.24626587]
[-0.07498756 -0.47557446  0.49412671]
[-0.08862765 -0.10929991  0.16371344]
[ 0.2942825  -0.26300743  0.12989576]
[ 0.11031756 -0.39922887  0.04847131]
[ 0.13807878 -0.41184583 -0.30552945]
[ 0.28731856 -0.22536333  0.1185075 ]
[ 0.27248007 -0.27071634  0.06155305]
[ 0.26789847 -0.10359102 -0.29416668]
[-0.11439772  0.09056561  0.00623738]
[ 0.00308949  0.07893686  0.04785127]
[ 0.0887212   0.05665035  0.07173458]
[ 0.06189936 -0.0666049   0.00462581]
[-0.06639569  0.00618972 -0.0106584 ]
[ 0.08068849 -0.02843364 -0.07787184]
[ 0.07909057  0.04485544 -0.07077018]
[-0.08568664 -0.01286456 -0.08843178]
[-0.09442048 -0.07278634 -0.08499406]
[ 0.09680346  0.03878123 -0.02244038]
[ 0.05152139  0.00811203 -0.03881232]
[-0.13002187 -0.06381927 -0.0217367 ]
[ 0.00895148  0.03983083  0.06041538]
[ 0.04374311 -0.01565543 -0.0085851 ]
[ 0.06419168 -0.01017952  0.09310488]
[ 0.14296359 -0.0238281  -0.00633361]
[ 0.15853867 -0.00673671 -0.06369307]
[ 0.02349792 -0.12159511 -0.06683872]
[-0.05597723 -0.1091672  -0.17904225]
[ 0.04298261 -0.04409162 -0.11756329]
[ 0.08449113  0.04393612  0.00201416]
[-1.26251268 -0.67524076 -0.24910325]
[-1.58251333 -0.86549592  0.22858433]
[-0.5653891  -0.38002068  0.04365761]
[ 0.21948984 -0.28480491  0.08269469]
[ 0.29543835 -0.18032807  0.02937171]
[ 0.30168951 -0.01718309 -0.25579974]
[ 0.09096484  0.13829269 -0.19217987]
[ 0.0845245  -0.00849307 -0.10850394]
[ 0.06013316 -0.01947572 -0.11665522]
[-1.11135042 -0.61848438 -0.10471262]
[-1.82114065 -0.35251379 -0.11205026]
[-0.57719117 -0.41948932 -0.02480341]
[-0.49222061 -0.24038896 -0.10891636]
[-0.96965551 -0.10705174  0.0604035 ]
[-0.16930591 -0.19338797 -0.03311513]
[-1.10543334 -0.34160283 -0.02425448]
[-1.71603203 -0.23777428 -0.07773504]
[-0.52335775 -0.26300079 -0.08859402]
[-0.06870009 -0.01494003  0.07955583]
[-0.09114444  0.00900955  0.0905713 ]
[-0.09578113 -0.02208139  0.01594858]
[-0.0541784   0.01145066 -0.06342894]
[-0.0375961   0.067936    0.04403619]
[-0.05825458  0.02668728  0.00780558]
[-0.27519873  0.09526687 -0.12152218]
[-0.09480489  0.00539841 -0.0106355 ]
[-0.16420256  0.03947931 -0.0504139 ]
[ 0.06559809 -0.3032991  -0.03372852]
[ 0.18444644 -0.19906165 -0.03811321]
[ 0.13519041 -0.05875199 -0.12539184]
[ 0.06336667  0.07629047 -0.10098407]
[ 0.01094267 -0.07273334  0.01671768]
[ 0.07520285  0.07352947 -0.09220905]
[-0.18195662  0.11025338  0.09673002]
[-0.3968184   0.06137123  0.03882825]
[-0.48740271 -0.1548562  -0.11558382]
[ 0.16945115  0.0818226   0.21473119]
[-0.15702292 -0.01587108  0.05014379]
[-0.74704862 -0.35245919 -0.22015421]
[ 0.05890936  0.02923854  0.06300145]
[ 0.04793289  0.0482345   0.0360383 ]
[-0.12562796 -0.04184227 -0.03203765]
[-0.06141171  0.06609105  0.00351503]
[-0.05332491 -0.06866202  0.05975718]
[-0.00746422  0.07889944  0.04021747]
[-0.05266832  0.07622166  0.0883069 ]
[-0.24052359  0.04517011  0.01715926]
[-0.00412101 -0.07037387 -0.01520364]
[-0.01088772 -0.3711077  -0.02957618]
[ 0.12292333 -0.24445304  0.00063799]
[ 0.09669593  0.07766555 -0.09857496]
[ 0.10017315  0.086526    0.2254755 ]
[-0.34646139 -0.29195014  0.16570866]
[-0.67414856 -1.05179167 -0.27537975]
[-0.06502713 -0.06633216  0.12143838]
[ 0.02247231 -0.17349885  0.12435885]
[-0.26798713 -0.18010564 -0.13944794]
[-0.10033112 -0.6655308   0.00452416]
[ 0.34807968 -0.2255684   0.06485801]
[ 0.38404357  0.00938949  0.02974331]
[-0.0019978   0.18564002  0.17674698]
[-0.39572844 -0.0314184   0.17382252]
[-0.9166438  -0.63365924 -0.25663835]
[-0.51806223 -0.18494211  0.106466  ]
[-0.02384531  0.06705187  0.00547129]
[ 0.31148171 -0.18012223  0.01586856]
[-0.2329514   0.05834121 -0.05085417]
[-0.12338901  0.04005325  0.02190311]
[-0.62844509  0.18856435 -0.31253344]
[-0.79470658 -0.10163422 -0.24416955]
[-0.14546698  0.12823758 -0.03150715]
[ 0.05451833  0.10329001  0.00936719]
[-0.56573832  0.12708937 -0.097537  ]
[-0.29532522  0.04378192 -0.00193059]
[-0.12899007 -0.0042207  -0.07215485]
[ 0.07332799 -0.16709109 -0.09118451]
[ 0.07165562 -0.09964975 -0.00060378]
[ 0.13675593 -0.09639133 -0.04770971]
[ 0.05198703 -0.08233875 -0.06173733]
[ 0.04543148 -0.00701851 -0.06665358]
[ 0.02888192  0.0981195   0.02471247]
[ 0.04976046 -0.34936601 -0.02421512]
[ 0.06181933 -0.25570583  0.0381547 ]
[ 0.22561215  0.03577061 -0.07296467]
[ 0.00587555 -0.32722092  0.01098761]
[ 0.21314254 -0.26101512  0.03906191]
[ 0.20773272  0.13622485 -0.10219825]
[ 0.01658592 -0.03701211  0.02589662]
[ 0.05967983  0.02492394  0.05364762]
[-0.00079818 -0.01189416 -0.00915148]
[ 0.09240247 -0.48171383 -0.03308171]
[ 0.21091242 -0.29078105  0.04098212]
[ 0.23665453  0.08483122 -0.08336646]
[ 0.11368607 -0.01675758 -0.07481965]
[-0.02102295 -0.03552283 -0.00957196]
[-0.068574   -0.04458253 -0.05693872]
[-0.15450789 -0.56520784 -0.0930072 ]
[ 0.07705206 -0.22787197  0.05351391]
[ 0.14683573  0.17394368 -0.07907396]
[-0.45979032  0.10767821 -0.04472249]
[-0.47193682  0.08097254 -0.00916557]
[-0.23670854 -0.12566087 -0.17784807]
[ 0.13491857 -0.04307991 -0.10640427]
[-0.01663233  0.00704992 -0.04445178]
[-0.0881765   0.05469411 -0.09476758]
[-0.5554536  -1.0772965  -0.18567602]
[ 0.08823989 -0.12917659  0.12753278]
[ 0.26315135  0.14972588  0.05297891]
[-0.31960446 -0.57032531 -0.16467834]
[ 0.20336099  0.03042448  0.15575743]
[ 0.14874133  0.09208459  0.05619739]
[-0.52800256 -0.91254175 -0.07539281]
[ 0.13340575 -0.03850023  0.07692432]
[ 0.35456559  0.08969467  0.07337709]
[ 0.08618584 -0.04026795  0.04181807]
[-0.07359381 -0.08709762  0.09512502]
[ 0.05116007 -0.00171241 -0.03849725]
[ 0.03763534 -0.0716112  -0.03221026]
[-0.17832622 -0.18625306  0.05483593]
[ 0.0512624   0.05591223 -0.01230282]
[-0.35921955 -0.32526457  0.12028138]
[-0.54043454 -0.22674979  0.13504241]
[-0.183382   -0.07301198  0.04666805]
[-0.26390064  0.14889407  0.18028033]
[-0.08398087  0.01669986  0.23796916]
[ 0.06799766  0.1246499   0.18020748]
[ 0.0637598 -0.0962324  0.0684095]
[ 0.03767569  0.05238101  0.03124407]
[-0.08398496  0.07921111  0.00744018]
[-0.62056297 -0.26768592 -0.00389174]
[-0.42243761 -0.15414357 -0.16595989]
[-0.30231902  0.02265082 -0.05921477]
[-0.59448892 -0.36079496  0.0313887 ]
[ 0.19536647 -0.17323323 -0.16373585]
[-0.12689291 -0.00696318 -0.02798108]
[-0.04995022  0.02650797  0.1198777 ]
[-0.01182342 -0.01345798  0.11588383]
