layers 11
layer 0 Convolution2D
32 1 3 3 valid
[-0.455942    0.04745064  0.03541765]
[-0.39442036  0.19772308  0.23359105]
[-0.28155559  0.49815091  0.12312133]
[ 0.61159432 -0.05350619 -0.06426591]
[ 0.31929612 -0.36245164 -0.12802359]
[ 0.12873645 -0.43096283 -0.04595375]
[ 0.20331332 -0.41470721  0.19143593]
[ 0.06298371 -0.40263194  0.29229468]
[-0.14887597 -0.2394155   0.44779474]
[ 0.60403174  0.04568717 -0.44138667]
[ 0.41786185 -0.17098314 -0.36814085]
[ 0.32711595 -0.22356884 -0.1934924 ]
[ 0.74313766  0.329476   -0.09351824]
[ 0.22542176 -0.10448452 -0.06069614]
[-0.52190989 -0.55876255 -0.04524335]
[ 0.41339466  0.14316231 -0.47498453]
[ 0.3480956   0.18643697 -0.5468927 ]
[ 0.21811944  0.11499574 -0.42924947]
[-0.1310454   0.00390256 -0.10913451]
[ 0.07824118  0.18063134 -0.03046075]
[ 0.0522026   0.0867544   0.19858818]
[-0.29807615 -0.02080419  0.34606394]
[-0.3782497   0.06044999  0.37273437]
[-0.30324376 -0.10901491  0.30890724]
[ 0.27510408  0.54135978  0.24606699]
[-0.21489683 -0.08365417  0.21906303]
[-0.33325282 -0.36479923 -0.28037927]
[-0.14862782 -0.01619484  0.05235802]
[-0.1308127  -0.15044744 -0.16737661]
[-0.0580845   0.03699606  0.00074782]
[ 0.19439392  0.02148577 -0.46815956]
[ 0.1429982   0.27406237 -0.20853794]
[ 0.12405155  0.27725303 -0.34350771]
[-0.3648175   0.03850849  0.4363856 ]
[-0.34974474  0.08333221  0.31483284]
[-0.37860885  0.07528219  0.13760583]
[ 0.32812959  0.49597782  0.30068076]
[ 0.09353422 -0.03986689 -0.20059024]
[-0.38707101 -0.38948423 -0.19427563]
[-0.31874427 -0.37751955  0.16442323]
[-0.36100563  0.03763124  0.36067146]
[-0.22192369  0.09411427  0.54029906]
[ 0.09197893  0.11641192 -0.04960668]
[ 0.15507337  0.10491899  0.05043694]
[-0.01472076  0.15199581  0.02014695]
[-0.27698427 -0.36923847  0.01148047]
[-0.086785   -0.10381349 -0.14421137]
[ 0.35452321  0.5123567   0.10132968]
[-0.63902253 -0.46154743 -0.24943677]
[ 0.31589049  0.25480023 -0.14645642]
[ 0.36973917  0.38357532  0.16118105]
[ 0.17638838  0.16029209 -0.08779263]
[-0.12549387  0.06545921  0.05685046]
[-0.09481359 -0.24906245 -0.06003341]
[ 0.303141   -0.1828384  -0.51477593]
[-0.03914717 -0.213067    0.10847858]
[-0.23273969  0.2640028   0.47745383]
[-0.40084875 -0.52740848 -0.36347038]
[ 0.08776446  0.16779625  0.05662813]
[ 0.31002176  0.42534104  0.25338081]
[-0.15030637 -0.00164632  0.06589846]
[-0.07808521  0.11443431  0.14363196]
[ 0.07377235  0.12255093  0.16794637]
[-0.01118853  0.39719239 -0.08130673]
[ 0.10241531  0.26353055 -0.06557268]
[ 0.06753443  0.20588326 -0.52428925]
[-0.49526194 -0.43868035 -0.24593703]
[-0.20898083  0.24856541  0.15242921]
[ 0.11577095  0.64247692  0.22271715]
[-0.0792708   0.16264887  0.53877813]
[-0.10177348 -0.26520914  0.12430762]
[ 0.22152294 -0.42292285 -0.22894514]
[ 0.27257964  0.38740233  0.31268376]
[-0.0054275  0.2622366  0.0902698]
[-0.34112003 -0.57056588 -0.40460855]
[-0.1401398  -0.50246269 -0.18449117]
[ 0.46807864 -0.18555503 -0.27162939]
[ 0.6140781   0.31932187 -0.14416645]
[-0.45551935 -0.41443148 -0.1539581 ]
[-0.0022178   0.00390121 -0.04346859]
[ 0.4921113   0.45432442  0.10386266]
[ 0.22381689  0.31817958 -0.00583271]
[ 0.06674486  0.08001977 -0.10768677]
[-0.28710401  0.01924128 -0.14430861]
[ 0.09863167  0.38449153  0.25876543]
[ 0.01563167  0.06875487  0.17258753]
[-0.50787598 -0.14281777  0.02300607]
[-0.06525013  0.34368324  0.36504975]
[-0.40047812  0.09032885  0.14148259]
[-0.51901251 -0.02009695 -0.0153281 ]
[ 0.1076687  -0.52922642 -0.47575983]
[-0.12394565  0.00508755  0.20265953]
[-0.05472256  0.49922717  0.35928535]
[-0.43575719  0.23555148  0.00275188]
[-0.39231327  0.40062264  0.01321943]
[-0.34052855  0.25075743  0.23426609]
[-0.00853653 -0.00905734  0.00489661 -0.00460813  0.01852599 -0.00741633
 -0.06391343  0.01544364 -0.02425837 -0.02663549 -0.00134269  0.01581209
 -0.01665526  0.01284047 -0.30001518 -0.00868674 -0.0004048   0.08776418
  0.00293214 -0.02407464 -0.10516934 -0.27263474 -0.01305674  0.00549174
 -0.02657223 -0.00997569  0.01038499 -0.03534896 -0.24529864  0.01050994
 -0.01508468  0.00725227]
layer 1 Activation
relu
layer 2 MaxPooling2D
2 2
layer 3 Dropout
layer 4 Convolution2D
32 32 3 3 valid
[-0.46038985 -1.14526439 -0.14431863]
[-0.12004473 -0.55062896 -0.79056299]
[ 0.0978031  -0.10468805 -0.74195361]
[-0.48865914  0.14384635 -0.19681504]
[-0.56957561 -0.32436788 -0.22148521]
[-0.4622227  -0.22023185 -0.01893715]
[-0.56620425 -0.64053816 -0.25272462]
[-0.20625272 -1.24361098 -0.42522639]
[ 0.31924638 -0.83745158 -0.45423183]
[ 0.04308208  0.19040036 -0.18182272]
[-0.62544495 -0.11226604  0.0523531 ]
[-0.40051877 -0.20404199  0.07289855]
[-0.35166961 -0.47469121 -0.02505709]
[-0.24340956 -0.27206719 -0.21394636]
[-0.36159027 -0.07558539  0.14049953]
[ 0.10665218  0.18714863 -0.20584366]
[-0.52036238 -0.12668802  0.10573427]
[-0.41215244 -0.26946425  0.05268306]
[ 0.03269293  0.00291377  0.01401742]
[-0.02551395  0.12317776  0.12699084]
[ 0.03364384  0.04720251  0.10760987]
[-0.2468738  -0.87588614 -0.14301385]
[-0.07621053 -0.76646388 -0.75333524]
[ 0.21036102 -0.22114144 -0.72297102]
[-0.1796312  -0.37112808  0.35834348]
[-0.07487036  0.51294333  0.06430731]
[-0.24339394  0.09330075  0.14827777]
[-0.02182877 -0.06750697  0.03587481]
[-0.05481193  0.0018108  -0.0642281 ]
[ 0.04747129  0.06113071 -0.00415891]
[ 0.16208902  0.16359638 -0.13457155]
[-0.23510632 -0.01621401  0.24939668]
[-0.22190979 -0.19302753  0.16263817]
[-0.26484394 -0.68468827  0.04266077]
[-0.06398892 -0.64706862 -0.69404858]
[ 0.14474061 -0.32573783 -0.74368978]
[-0.49887964 -0.62867624  0.36314601]
[-0.22557312 -0.11051832  0.09239677]
[-0.30564374  0.11473871  0.29838774]
[-0.38454482 -0.9844377  -0.04935707]
[-0.15938626 -0.68035412 -0.36811051]
[ 0.15655053 -0.30515817 -0.48000607]
[ 0.12383954  0.03508101 -0.17275237]
[-0.0186241   0.10508032  0.04962601]
[-0.1441495   0.03722356  0.15639538]
[-0.46977663  0.40582737  0.4589659 ]
[-0.5127911   0.45028549  0.47002977]
[-0.38730404  0.34722891  0.6137684 ]
[-0.34745598  0.13227634  0.00778708]
[-0.33217221  0.22043692  0.40943986]
[-0.41220751  0.01262106  0.19836837]
[ 0.18182884  0.03409928  0.38212317]
[ 0.14256249  0.07438546  0.0706304 ]
[ 0.07259837  0.05288697  0.14084978]
[-0.29684198  0.5076068   0.18415833]
[-0.48435771  0.59543473  0.52203387]
[-0.03023311  0.50221694  0.38074413]
[-0.36351293  0.25499341  0.22181547]
[-0.38343373  0.41731754  0.4533433 ]
[-0.30098671  0.08977707  0.35886365]
[ 0.0118924  -0.05250653 -0.00475147]
[ 0.01465381  0.09264351  0.10536305]
[ 0.02818817  0.03372529  0.11620101]
[-0.10140733 -0.19832973 -0.25517765]
[-0.29495928 -0.24515921 -0.17536002]
[-0.39595041 -0.12733348 -0.01834411]
[-0.4350172  -0.2497057   0.04001114]
[-0.32547918  0.06777958  0.23268054]
[-0.14384878 -0.02013448  0.02369908]
[-0.60402358  0.35281509  0.44334561]
[-0.00503847 -0.18121752 -0.30352283]
[-0.19841528  0.31005323 -0.35091048]
[-0.47408071 -0.66677755  0.19842212]
[-0.02687253  0.33683923  0.19517124]
[-0.34846112  0.15418905  0.19235986]
[-0.20420031  0.29449844  0.16207965]
[-0.39720482  0.15693709  0.43961489]
[-0.2251253  -0.29245102  0.00644463]
[-0.27603799  0.23322797  0.28601778]
[-0.4693048   0.325672    0.48458555]
[-0.29140109  0.1273506   0.25049937]
[ 0.12301836 -0.04718168 -0.10647345]
[-0.03531855 -0.02583432  0.01398029]
[-0.08785181  0.01618431  0.16920984]
[ 0.11033075 -0.41757458 -0.18157354]
[ 0.00056914  0.08331158 -0.21716574]
[-0.02321887  0.07073367  0.08103272]
[-0.12446738 -0.74497199  0.10085454]
[-0.00437438 -0.07755721 -0.50264704]
[ 0.03042801 -0.20153016 -0.20509289]
[-0.40462545  0.18481888  0.04538999]
[-0.51927346  0.41765699  0.49449572]
[-0.11551689  0.427228    0.32723135]
[-0.18193449 -1.07425654 -0.06561663]
[-0.06678815 -0.34802893 -1.1114285 ]
[ 0.21670409  0.04299052 -1.00171578]
[ 0.09297732  0.24149105 -0.22889893]
[ 0.04336877 -0.32083413 -0.10883334]
[-0.04694999 -0.15007459  0.12876189]
[ 0.16774362 -0.33724669  0.0045797 ]
[-0.04769679 -0.09507699  0.14235231]
[-0.00054442 -0.15584657 -0.25466418]
[ 0.36829993 -0.10941909 -0.0244139 ]
[-0.05328109 -0.17478372  0.26934621]
[-0.11893286  0.20107998  0.14872769]
[ 0.10866225 -0.13581346  0.03756764]
[ 0.08135146 -0.31167492  0.06525648]
[ 0.13011575 -0.07214543 -0.09324422]
[-0.05396854 -0.10538273 -0.01689213]
[-0.44975927  0.49422729  0.48775813]
[-0.2208036  -0.12582998 -0.19891597]
[ 0.05679991 -0.13326342  0.05098094]
[ 0.02194044 -0.30461758  0.09734239]
[ 0.12048022 -0.0346147  -0.03933519]
[ -2.11416245e-05   1.05289832e-01  -1.93545092e-02]
[ 0.02809852 -0.0106404   0.00437567]
[ 0.01844926  0.05527829  0.03527826]
[ 0.17843752 -0.0122678   0.02846547]
[ 0.10360111 -0.08973412  0.02063167]
[ 0.00220667 -0.19572955  0.17311367]
[-0.35116142 -0.18190919 -0.21324077]
[-0.10112445  0.82565004  0.20108765]
[-0.44244117 -0.2275869  -0.12758297]
[-0.01468764 -0.05901213 -0.08517925]
[ 0.00516245 -0.08379157  0.04902746]
[-0.1015688   0.05938474  0.06466522]
[-0.03700733 -0.10464339  0.02321139]
[ 0.05532526 -0.35868454  0.03679544]
[ 0.2269327  -0.05123394 -0.08723376]
[ 0.06782111  0.0415349   0.01456191]
[ 0.15911201 -0.05973534 -0.05082107]
[ 0.00784611 -0.24883966  0.18433191]
[-0.35995704 -0.02305966 -0.00970016]
[-0.28311169  0.77710623  0.44131568]
[-0.47367698 -0.09500723 -0.29916915]
[ 0.15018442  0.11833937 -0.21300502]
[-0.0308146  -0.33851907 -0.04623839]
[-0.0429137  -0.02052713  0.15984608]
[-0.05329644 -0.01685841  0.02578679]
[-0.03282347 -0.09056157 -0.01613853]
[ 0.03260128 -0.20442298 -0.07499008]
[-0.73978853  0.36322662 -0.05118338]
[-0.17350343  0.29038379 -0.04140387]
[-0.37226918  0.53824705  0.00695115]
[-0.5059129   0.23856576 -0.11477263]
[ 0.00744015 -0.31049511 -0.32181802]
[-0.08919363  0.44215873  0.11845661]
[ 0.0355776   0.00981884 -0.06157532]
[-0.14160007  0.39465842  0.14416777]
[-0.10443579  0.05140157  0.02658288]
[ 0.36629057  0.52934039 -1.30402005]
[-0.38959247  0.05469945  0.46901917]
[ 0.37797517  0.69892573 -0.66390628]
[-0.55867946  0.15708604 -0.31397206]
[-0.39276868 -0.0864491  -0.31079429]
[-0.12709722  0.40059534 -0.17601104]
[ 0.02219663  0.08631895 -0.02029485]
[ 0.00580246  0.00225228  0.03719757]
[ 0.01236731 -0.04154595  0.06332178]
[ 0.01870345 -0.06858497  0.12912104]
[-0.12203179 -0.14365116  0.07634411]
[ 0.10373536 -0.20053272 -0.03475547]
[-0.21213306  0.42859575 -0.33388567]
[-0.37490374 -0.6024788  -0.15481366]
[-0.12882219  0.23199338  0.06120384]
[-0.15052637 -0.50877708  0.14734583]
[ 0.53811044  0.8674866  -0.45698118]
[-0.43046573  0.1232991   0.11695581]
[-0.2752223   0.06365602 -0.07700624]
[-0.11326285  0.83472466  0.31856421]
[-0.39403644 -0.20775856 -0.22307259]
[-0.23194645 -0.07101011  0.0408406 ]
[ 0.23126884 -0.49040058 -0.29998222]
[ 0.07855951  0.19268465 -0.09531014]
[-0.59313363  0.19765064 -0.11575417]
[-0.11647043 -0.04631111 -0.13156781]
[-0.22509587  0.35522029  0.10252424]
[-0.02769935 -0.04662617  0.01885638]
[-0.04997619  0.11614631  0.15875225]
[ 0.01934991 -0.10039721  0.01654092]
[-0.0553076   0.00158091  0.05568425]
[-0.06657591  0.1844022   0.08851931]
[-0.03147693 -0.27204797 -0.02153435]
[ 0.03142346 -0.11466187 -0.11803044]
[ 0.13850352  0.16662678  0.04258028]
[-0.07704245 -0.38192177  0.02471869]
[-0.06081248  0.3612859  -0.96372318]
[-0.4820841  -0.15831573 -0.20894529]
[ 0.05354235  0.5881058  -0.47299841]
[ 0.11812273  0.18500593 -0.10617802]
[ 0.03425691 -0.14961264 -0.02371469]
[-0.00677434 -0.2163043   0.1218504 ]
[-0.17772871 -0.11245881 -0.27065247]
[-0.15062363 -0.83960217  0.12155338]
[ 0.05298763  0.29193234  0.2799235 ]
[-1.48029411 -0.17237014  0.63153261]
[ 0.13815475  0.27059269  0.35926014]
[ 0.41244531  0.16549397 -0.23712946]
[-0.60474485 -1.08341646  0.15861946]
[-0.99662048 -0.39478415  0.32744446]
[-0.02295974  0.62356091  0.21570815]
[-0.48411    -0.04675138  0.34600279]
[-0.22050644  0.14905103  0.17066115]
[ 0.14813077  0.06049363 -0.08676518]
[-0.64269942  0.13698299  0.38985789]
[ 0.29501876  0.31754261  0.2092541 ]
[ 0.45826557  0.24664195 -0.24821973]
[-0.39482385 -0.04693918  0.28495416]
[-0.12223217  0.0371861   0.09789618]
[ 0.10897357 -0.03413615 -0.08715583]
[ 0.00832432  0.03577848 -0.01451413]
[ 0.04466443 -0.01937198 -0.07805623]
[-0.09852057 -0.06194254 -0.00080663]
[-0.34002441 -0.63225669 -0.14740354]
[-0.52308023 -0.67780572  0.0510786 ]
[ 0.02449081  0.31331161  0.09751772]
[-0.03942758 -0.37988704 -0.25362369]
[ 0.1491805   0.32287699 -0.25324503]
[ 0.34286553  0.10870648 -0.50109005]
[-0.02720028  0.03686861  0.05838014]
[ 0.03771247 -0.00147101 -0.041862  ]
[-0.0594339   0.05731252 -0.02437132]
[-0.04037693 -0.01752836  0.22413309]
[-0.12047401 -0.0543758   0.0367667 ]
[-0.12079885 -0.06763092 -0.06755833]
[-0.32664177 -0.61631447 -0.14264095]
[-0.34961873 -0.77780753 -0.01211479]
[ 0.01041972  0.23559518  0.1439779 ]
[-0.44161427  0.15590782  0.02936078]
[ 0.36389956  0.46707609  0.03986701]
[ 0.4596532   0.13561849 -0.43193629]
[-0.20595458 -0.13797656 -0.21970558]
[-0.64326781 -0.8212052   0.15390757]
[-0.10858613  0.48122269  0.23137042]
[ 0.07058079  0.08593842  0.02096473]
[ 0.04973196  0.09361147  0.03235026]
[-0.1138486  -0.00913518 -0.05015253]
[ 0.05721288  0.04855489 -0.45700076]
[-0.27898222 -1.06043077 -0.51252025]
[-0.37025651 -0.05293016  0.00704665]
[ 0.12383813  0.11984942 -0.16237628]
[-0.2318611  -0.8674466  -0.51563472]
[-0.50982738 -0.21173333 -0.12843107]
[-0.13475329  0.00942825  0.19294007]
[ 0.05047622  0.25565812  0.08698878]
[ 0.33932492  0.26755032  0.02114149]
[ 0.1445279  -0.29960093 -0.82987058]
[-0.69740629 -0.38027599  0.14605938]
[ 0.13465919  0.53498638  0.02701337]
[ 0.08880262  0.12224133 -0.29509833]
[-0.07186317 -0.87927938 -0.51102149]
[-0.32262945 -0.15968366 -0.08601508]
[ 0.0359186   0.09749008 -0.02814089]
[-0.00060772 -0.00579612 -0.07058159]
[-0.06356315 -0.06508757  0.0037175 ]
[-0.07968928  0.11190303  0.18473661]
[ 0.32354644  0.07732877 -0.07872017]
[ 0.023804   -0.16787909 -0.01525436]
[ 0.03354735  0.23000021 -0.33041924]
[ 0.14827555 -0.28756073 -0.14120221]
[-0.10864007  0.10718729  0.12444801]
[-1.00813568 -0.78800792  0.04662375]
[ 0.01967288  0.11450133 -0.39134154]
[ 0.20457514 -0.07712856 -0.60695952]
[-0.01861784  0.30864123 -0.17447498]
[ 0.3533684  0.3023456 -0.2286216]
[ 0.30166239  0.02052394 -0.52791727]
[-0.11563099 -0.09815685  0.16532466]
[-1.16787004 -0.48782164 -0.12946388]
[-0.47279093 -0.19496846 -0.13906029]
[ 0.08584529  0.02879585 -0.30786315]
[-0.2865757  -1.01928794 -0.37876508]
[-0.32737789 -0.14819378 -0.01589085]
[ 0.07130639  0.10751596  0.02763971]
[ 0.09326022  0.10822006  0.01326384]
[ 0.03744156  0.0157955  -0.05072805]
[ 0.07386662  0.1560739  -0.14650752]
[ 0.04980094  0.11499708 -0.21783878]
[ 0.04916682 -0.09360798 -0.09329155]
[-0.23328644 -1.08749092 -0.23442855]
[-0.14277187 -0.20256501 -0.1335374 ]
[ 0.25568804  0.16781615 -0.1270391 ]
[ 0.22422776  0.00315923 -0.73243928]
[-0.03273375 -0.52877158 -0.41184336]
[-0.05991042  0.24345556 -0.04485615]
[-0.2251585  -0.30221549 -0.32627213]
[-0.35619336 -0.94635594  0.0579457 ]
[ 0.0691561   0.35014999  0.18128067]
[-0.01901025 -0.07697503  0.05571985]
[ 0.15947703  0.10491589  0.2249891 ]
[-0.08046178  0.39088243  0.15440339]
[-0.19602779  0.04824789 -0.10503945]
[-0.45203143  0.09371894 -0.32177657]
[-0.24552205 -0.11637016 -0.25685096]
[-0.00641671  0.00854044  0.35793984]
[ 0.03508395  0.23281351  0.4904564 ]
[ 0.05093797  0.35594133  0.28569394]
[-0.2697466   0.06915098 -0.16612381]
[-0.36217499  0.10010205 -0.14592446]
[-0.28126472 -0.20903303 -0.09795571]
[-0.00961098 -0.11492616 -0.0591944 ]
[-0.01997434  0.16267794 -0.54010653]
[ 0.10306309  0.19272496 -0.16421372]
[-0.17628522  0.07105292 -0.13684256]
[-0.1383682  -0.00705881 -0.21847504]
[-0.26096225 -0.40993902  0.01026025]
[-0.07966312 -0.05341644  0.03124624]
[-0.09368681 -0.06722831  0.09491663]
[-0.2253731  -0.10437306  0.16521457]
[-0.04244373  0.08740925  0.27153558]
[ 0.14560975  0.13108325  0.22023627]
[ 0.02404669  0.28217983  0.20849645]
[ 0.02551701  0.18289483  0.24138539]
[ 0.11132009 -0.15831354 -0.21728842]
[ 0.29042509  0.01297792 -0.1781262 ]
[-0.05573012 -0.00984059 -0.03314071]
[ 0.08602412  0.06533985 -0.02156485]
[-0.03717033 -0.03141014  0.07340042]
[-0.0010697  -0.00631478 -0.09798939]
[-0.11722465 -0.07346478 -0.19505109]
[-0.3419241  -0.5845862  -0.01096133]
[-0.03640059  0.20320506  0.2412933 ]
[ 0.11511987  0.13689099  0.13847756]
[ 0.04273722  0.32767317  0.22326109]
[-0.05447644 -0.0437325   0.10764758]
[ 0.16368131  0.06660947 -0.59628397]
[ 0.29473633  0.13412781 -0.05772541]
[-0.00871405 -0.04071242  0.25675043]
[ 0.10310977  0.26351002  0.26085162]
[ 0.0027921   0.39489269  0.27514061]
[ 0.02870895 -0.0067041   0.02907851]
[-0.04189211 -0.09834362  0.01374866]
[-0.32286203 -0.23932406  0.13796473]
[-0.08255178 -0.22897086 -0.3173514 ]
[-0.7557525  -0.61460614  0.23084018]
[-0.29217535  0.02374118  0.14885673]
[-0.02903892 -0.1705489  -0.29635805]
[-0.56014013 -0.59266722  0.04667351]
[-0.34674326 -0.28932115  0.19026703]
[-0.09196907 -0.16393359 -0.11212898]
[ 0.10071876 -0.12354399 -0.35890761]
[ 0.17229322  0.06157678 -0.24187726]
[ 0.19550139 -0.48818406  0.30416816]
[-0.27674034  0.38017231  0.33129531]
[ 0.10615247  0.5745874   0.31908649]
[-0.01963133 -0.31411442 -0.1818693 ]
[-0.66950798 -0.55751681  0.00468621]
[-0.33830881 -0.09429272  0.18129043]
[-0.09117913 -0.10165803  0.05712646]
[-0.04337987 -0.05500424  0.16699779]
[-0.16456567  0.05573074  0.18935251]
[ 0.09369741 -0.0452965  -0.04652319]
[ 0.24098936 -0.03110799 -0.04604888]
[-0.10558423 -0.55278414  0.31788403]
[-0.03439716 -0.40545231 -0.02672259]
[-0.2054083  -0.18935792  0.28717351]
[-0.16335417  0.16386414  0.31042504]
[-0.11615439  0.45227408  0.32320106]
[ 0.11297341 -0.23090729  0.03034308]
[ 0.22975452 -0.13020301  0.0403414 ]
[-0.07973154 -0.00587179  0.10880668]
[ 0.18154521 -0.00657035 -0.52964115]
[ 0.33036232  0.04888175 -0.07958473]
[-0.4097366   0.02929575 -0.10752165]
[-0.69305366 -0.25305828 -0.26092422]
[-0.4463678  -0.74507576 -0.35910201]
[-0.05664438 -0.21867727 -0.37951991]
[-0.69821429 -0.62037688  0.09752037]
[-0.22542045 -0.07210873 -0.01362338]
[ 0.02608163 -0.00256428  0.12862903]
[ 0.12594219  0.00418793 -0.07461187]
[-0.04872885 -0.15298027  0.04686647]
[ 0.09985137  0.00557751  0.29846033]
[ 0.06050053 -0.27860844  0.08591082]
[-0.27064636 -0.25850445  0.14120227]
[ 0.02043717  0.30950829  0.27939245]
[ 0.09614162 -0.13228062  0.15959677]
[ 0.02870533  0.04527861  0.01882737]
[ 0.06208227 -0.51475066  0.10296345]
[-0.41444907 -0.07767898  0.32903731]
[-0.01975204  0.31527492  0.24899967]
[ 0.04613965 -0.0518315   0.08183631]
[ 0.18464407  0.06319965  0.17583296]
[-0.0124496   0.16810869  0.07673436]
[ 0.02077827  0.2334056  -0.00872019]
[ 0.28823048  0.16908319 -0.80269647]
[ 0.32590151 -0.67881578 -0.47775444]
[-0.53581071 -1.17212951  0.0247237 ]
[-0.81449902 -0.76649165  0.01830581]
[-0.77736902  0.14262243 -0.05863365]
[ 0.05523046  0.31398332 -0.63198721]
[ 0.1250255  -0.67975461 -0.46755654]
[-0.31124654 -1.11018991 -0.22536112]
[-0.21747309 -0.45280522  0.30077395]
[-0.79242986 -0.3699415   0.14590965]
[-1.30014288  0.01567119  0.12351906]
[ 0.1262297  -0.31241584 -0.00467924]
[-0.08908053 -0.46132138  0.02433998]
[-0.27590212  0.35542294  0.21964492]
[-0.31174287 -0.31608805  0.12932508]
[-0.88663912 -0.16567428  0.18834348]
[-1.10426676 -0.01477676  0.07718107]
[ 0.08208928  0.1209096   0.04563307]
[ 0.03275422 -0.01186366  0.08167377]
[ 0.11221734  0.05484564  0.00943682]
[ 0.15254477  0.27637511  0.08247135]
[ 0.20818995 -0.059629   -0.58208829]
[ 0.1638961  -0.82517815 -0.15788041]
[ 0.57639867 -0.33563796 -0.87910408]
[ 0.22081791 -1.14602113 -0.96795744]
[-0.12042311 -0.23080669  0.04007467]
[-0.06839029 -0.05327981 -0.0438583 ]
[-0.090872    0.08395498  0.00533203]
[ 0.11070155 -0.01637643 -0.02866917]
[ 0.14292949 -0.1398464   0.13645235]
[-0.48535615 -0.10673093  0.04620828]
[-0.34129572  0.05918013  0.16980304]
[ 0.23647508  0.36396232  0.12873532]
[ 0.20256656  0.01409211 -0.52708465]
[ 0.19727738 -0.64899313 -0.18680629]
[ 0.03706377 -0.49979997 -0.06843333]
[-0.15076672 -0.70646906 -0.05042719]
[-0.07921545  0.10463043  0.2669805 ]
[ 0.05707585  0.30853614 -0.25087586]
[ 0.22833158  0.05766742 -0.69512832]
[ 0.36507106 -0.87685955 -0.34367847]
[-0.00976023 -0.05172042  0.02756066]
[-0.06573401 -0.07120343 -0.01052523]
[ 0.11272461 -0.0234012   0.00038066]
[-0.01644447  0.02036866 -0.60131019]
[ 0.42761102 -0.15940678 -0.97082293]
[ 0.72465354 -0.55259758 -0.76939613]
[ 0.06770283 -0.05493856 -0.13545987]
[ 0.10852064 -0.15914838 -0.56001967]
[ 0.42700332 -0.22623467 -0.41888067]
[ 0.21167395 -0.09047284 -0.12120989]
[ 0.04923043 -0.24339643 -0.05649968]
[-0.06644756 -0.06762607  0.09656043]
[ 0.06057066 -0.18799689 -0.97341383]
[ 0.45289224 -1.26901174 -0.5335865 ]
[-0.08601419 -1.20439625  0.01376039]
[-0.06385187 -0.02969917 -0.30169654]
[ 0.20740415 -0.23310858 -0.8160398 ]
[ 0.48843434 -0.54176617 -0.39504856]
[ 0.06335457  0.08015997  0.16967352]
[ 0.06002868  0.00819629  0.04286169]
[ 0.06923065  0.040235    0.04266377]
[-0.5221737  -0.38769585 -0.00449524]
[-0.45985866 -0.28446805 -0.05649461]
[-0.10355506 -0.21971646 -0.1755275 ]
[ 0.03633098  0.16071273 -0.22630887]
[ 0.25094005  0.05822314 -0.68764234]
[ 0.41515622 -0.26692531 -0.40435389]
[ 0.10144881 -1.04175711 -0.91346174]
[-0.59551781 -1.53053546 -0.97029662]
[-0.71583647 -0.48727873 -0.35424793]
[ 0.1871846  -0.40253556 -0.28750187]
[-0.06370338 -0.75960934 -0.28810161]
[ 0.0561621   0.20722027  0.18673259]
[ 0.25990686 -0.37882558 -0.07878389]
[-0.69453049 -0.823897    0.1326136 ]
[-0.95382285 -0.52282697 -0.11268631]
[ 0.06590661  0.03947714 -0.35206082]
[ 0.31154236 -0.12171052 -0.79647666]
[ 0.62096018 -0.35459572 -0.49130628]
[ 0.06069366  0.11567724  0.11842953]
[ 0.00151308 -0.04387918  0.07658801]
[ 0.0659477   0.11588281  0.09011085]
[-0.06847079  0.03564772 -0.10960945]
[-0.04579428 -0.25107747 -0.13836575]
[-0.15637791 -0.20950618 -0.09030848]
[ 0.28150806  0.28617743 -0.67731577]
[ 0.24368554 -0.3076604  -1.09282339]
[ 0.00096893 -0.60053796 -0.01112062]
[ 0.1060709   0.09277783 -0.70599341]
[ 0.43247882 -0.60686809 -0.84212351]
[ 0.64429677 -0.94312316 -0.04584266]
[ 0.12960136  0.27252033 -0.05633447]
[ 0.24419868 -0.00264114 -0.74273074]
[ 0.34199274 -0.62026536 -0.47414893]
[-0.46390834  0.06102208  0.0454612 ]
[-0.20054428 -0.35777038  0.14469853]
[-0.18661366 -0.25463322  0.31525943]
[  2.45013520e-01  -4.83686948e-04  -4.92341429e-01]
[-0.15785541  0.06057708 -0.38544524]
[-0.12501116  0.38244247 -0.07612214]
[-1.04849756  0.52456838  0.10304068]
[-1.1580894   0.21625574  0.26031765]
[-1.20035481  0.15140404  0.36006555]
[ 0.14615451 -0.22064935 -0.0727192 ]
[ 0.09066188  0.14353789  0.06532758]
[-0.02149708  0.29903096 -0.06697612]
[ 0.19753318  0.00222876 -0.28067765]
[-0.1399889  -0.43724316 -0.45768908]
[ 0.03328509  0.19603574 -0.33893824]
[ 0.17092422 -0.3113105   0.24904153]
[ 0.07242405  0.130326    0.10817657]
[ 0.05027099  0.21480539 -0.1152323 ]
[  2.90467944e-02  -1.75582916e-01  -7.65733057e-05]
[ 0.11960995 -0.0685953   0.02264272]
[ 0.02690733 -0.05432305 -0.01257518]
[-0.91210639  0.34078538  0.14971617]
[-0.71498179  0.19745137  0.19221216]
[-0.49569666 -0.21336848  0.2840521 ]
[ 0.11237548  0.25691324 -0.00200427]
[ 0.04539425  0.08955187 -0.01494904]
[ 0.16613403 -0.43963119  0.06724023]
[-0.08504047  0.01635353  0.03216051]
[ 0.03733241 -0.08482495 -0.04185636]
[-0.07998037 -0.09817154  0.01330988]
[ 0.13711181 -0.34399265  0.16308072]
[ 0.22457221  0.06684448  0.05010055]
[ 0.11226527  0.06101457 -0.27039766]
[-0.93631327  0.17860156  0.09292801]
[-0.68541366  0.14833286  0.10550896]
[-0.4641     -0.19121663  0.31144717]
[ 0.37184364  0.03033029 -0.36889935]
[-0.33160931 -0.80930471 -0.46872088]
[ 0.1267779  -0.14988604 -0.43380517]
[-0.73361439  0.17455848 -0.06512597]
[-0.51373273 -0.03147449  0.16194341]
[-0.46896964 -0.0373951   0.30142599]
[-0.04614597 -0.19166201  0.07309224]
[ 0.00162196 -0.13320832  0.01612324]
[ 0.08164772 -0.05716315 -0.02384183]
[ 0.45646772 -0.37191305 -1.43221104]
[ 0.46966699  0.22315474 -1.87654197]
[-0.16007538  0.18410578 -0.43932089]
[ 0.51626003 -0.27018684 -0.33089441]
[ 0.50355113  0.24099739 -1.10996354]
[ 0.04747972  0.07472458 -0.56393284]
[ 0.133783    0.12770128 -0.02071679]
[-0.06129849  0.02648129 -0.0709913 ]
[ 0.05749185  0.02618595  0.04263328]
[-0.01348844 -1.01613569 -0.93574351]
[ 0.31964782 -1.15285313 -1.32759202]
[-0.15407901  0.10734934 -0.50309706]
[ 0.41074723 -0.263583   -0.77431428]
[ 0.5233767   0.21648309 -1.57027674]
[-0.05961618  0.18911818 -0.53359526]
[-0.03952909 -0.07858039 -0.02874275]
[ 0.05515063 -0.06489883  0.03374743]
[ 0.04764669 -0.00233953  0.04258988]
[-0.03492832 -0.60828847  0.17730454]
[ 0.06346884 -0.49486586  0.00212822]
[ 0.17675598 -0.06149665 -0.20254624]
[ 0.00956636 -0.37261447 -0.28362504]
[ 0.3776392  -0.4757002  -0.35645065]
[ 0.03445303 -0.11027899 -0.02805922]
[ 0.17706089  0.82433057 -0.41027486]
[-0.83764845  0.72019726 -0.06014486]
[-0.33211812  0.04699209  0.28368384]
[ 0.24470142  0.04571345 -0.23287342]
[-0.35080603 -0.54607481 -0.25604564]
[ 0.19675024 -0.28028601 -0.25421339]
[ 0.24535175  0.06076607  0.2519958 ]
[ 0.23908702  0.47583622 -0.43872532]
[-0.33928317  0.20246993 -0.11788461]
[ 0.43382722  0.01669222 -0.83550125]
[ 0.39341852  0.28578481 -1.24478424]
[-0.09681733  0.19600472 -0.24234781]
[ 0.08265335 -0.02406559  0.0368337 ]
[ 0.08324755 -0.20836774  0.00628983]
[ 0.13127545 -0.06109594 -0.02358273]
[-0.11005974  0.10632636  0.09380092]
[-0.03922724 -0.10758765  0.00508066]
[ 0.0393967  -0.31450361 -0.05345137]
[-0.29637319  0.20459215  0.06754588]
[-0.21060623  0.26842996  0.06783504]
[-0.32820621 -0.46710902  0.24489748]
[ 0.11808008 -0.91948074 -0.76984417]
[ 0.41905007 -0.81153661 -1.16468728]
[-0.08937172 -0.20167086 -0.38442993]
[-0.55799717  0.13701174  0.13757767]
[-0.30145413 -0.12572739  0.1962747 ]
[-0.2206551  -0.4775998   0.28555903]
[ 0.3522211  -1.70235765  0.17354651]
[ 0.31032118 -0.41650349  0.15531158]
[-0.71735048 -0.08176703  0.15613352]
[-1.47617054  0.17305669  0.57040441]
[-0.0614814   0.30524153 -0.02011763]
[ 0.1368123   0.05473412 -0.19810586]
[ 0.04163433 -0.47273535  0.52329314]
[-0.47699109  0.54502398  0.27700067]
[-1.32656181  0.41205105  0.19389279]
[-1.1397301   0.09888598  0.22544746]
[ 0.06166345  0.07741305  0.01723632]
[ 0.44037989 -0.04886913 -0.13310349]
[-0.96389765  0.39016545  0.31894606]
[-0.15316887  0.32128742  0.06422647]
[-0.05845432  0.28409278  0.04061094]
[-0.90268487  0.09533628  0.23086733]
[ 0.22016868  0.0591353   0.05025714]
[ 0.52515227 -0.14206488 -0.12104846]
[-0.01371659 -0.01357532 -0.03703073]
[ 0.0113983  -0.10800105  0.00820454]
[ 0.00833639 -0.10128395  0.07161241]
[ 0.26254073 -1.56683981  0.21655308]
[ 0.14843144 -0.20978005  0.19166434]
[-0.74988681  0.21869799  0.1350811 ]
[-0.324572    0.07657568 -0.07336752]
[-0.18790728  0.08351789 -0.38876158]
[-0.29231292  0.06963862 -0.02947685]
[-0.0267542   0.09248794 -0.06908184]
[ 0.00844604  0.0931392   0.02902774]
[-0.03200778  0.08871508 -0.07945239]
[-0.43534353  0.05477175  0.06695782]
[ 0.09452391 -0.02114771 -0.00746147]
[ 0.45125616 -0.25023246 -0.00706052]
[ 0.26500291 -1.6085217   0.19028018]
[ 0.2039177  -0.42889002  0.1977253 ]
[-0.61291373  0.17320065  0.23451929]
[-0.43167546  0.59720308  0.0072194 ]
[ 0.17048031  0.3643395  -0.33446679]
[ 0.00216454  0.21868387 -0.15543488]
[ 0.17397508 -1.05739939  0.14575833]
[ 0.00650468  0.25311485  0.16273108]
[-0.96120685  0.13133466  0.12134697]
[-0.07828096  0.00832719  0.04792876]
[-0.04686115 -0.02814855 -0.01549052]
[ 0.01484166 -0.17996526  0.04313768]
[-1.16653717 -1.19894409 -0.78822857]
[-0.72205442 -0.57259679 -0.22175492]
[ 0.04550603  0.31046528 -0.11619435]
[-0.84607422 -0.87089914 -0.50848633]
[-0.92703605 -1.69821143 -0.23853254]
[ 0.09408364  0.08754814 -0.02389334]
[-0.16008598  0.25935227  0.03651037]
[ 0.12752046  0.30694827  0.04248949]
[ 0.15255775  0.36740267  0.07296399]
[-1.09136736 -0.60582626 -0.20100386]
[-1.25509083  0.54777002 -0.09563825]
[ 0.19217305  0.26523942 -0.12627377]
[-0.84289038 -0.92273319 -0.58694369]
[-1.23801959 -0.88683647 -0.27723664]
[ 0.11597376  0.28402498 -0.13278061]
[ 0.01385097  0.01274178  0.0064676 ]
[ 0.05297459 -0.02775552  0.08148421]
[-0.01936425 -0.0288519   0.04093845]
[-0.08738917  0.3314729  -0.04233756]
[ 0.34142175  0.09158125  0.01389904]
[ 0.14270213 -0.55442154 -0.01319792]
[ 0.11017496 -0.4866305  -0.01838453]
[-0.20564188  0.13335772  0.04000999]
[-0.2996605   0.17668004 -0.04408663]
[-0.53506672  0.02697068 -0.03143201]
[ 0.01647277 -0.14387484 -0.31486395]
[ 0.02268809  0.20376064 -0.05720914]
[-0.2340737   0.4867143  -0.19858283]
[ 0.06331496  0.40533558 -0.41559133]
[-0.08562897  0.21834095 -0.22156526]
[-1.80512249 -0.34661993  0.04180557]
[-0.44964191 -0.5162288  -0.20609871]
[ 0.66050076 -0.00279344 -0.10622276]
[-0.92953211 -1.23604953 -0.51598716]
[-0.70527232 -1.19946837 -0.06448659]
[ 0.05765145  0.31468463  0.05296931]
[-0.07428316  0.13341323  0.0245396 ]
[-0.04971359  0.0463085  -0.03907444]
[ 0.0360742  -0.10926183  0.05312159]
[ 0.03192538 -0.0754765  -0.07921471]
[-0.0684642  -0.32404351 -0.15823115]
[-0.21100096 -0.32357228  0.032373  ]
[ 0.12323776 -1.18741703  0.11913878]
[-0.04221513 -0.70380205  0.02245309]
[-0.44292104 -0.07636222  0.19334462]
[-0.57162362 -0.55218816 -0.39486077]
[-1.11033428  0.39252332 -0.30366558]
[ 0.03837924  0.1547842  -0.31883773]
[ 0.35468689 -1.93150496  0.10731846]
[ 0.35519937 -0.70904082  0.14760128]
[-0.49352145 -0.10211616  0.1537049 ]
[ 0.19458885 -0.17962025 -0.24093807]
[ 0.12982072 -0.81404614 -0.30642596]
[-0.11517011 -0.1286141  -0.04299345]
[ 0.53013211  0.2071016  -0.04731048]
[ 0.3567934   0.09813897 -0.24645258]
[ 0.71543646  0.16113353 -0.75676972]
[ 0.10434612 -0.11370035 -0.00648816]
[-0.32541126 -0.58152801  0.03350067]
[-0.04866411 -0.08088708  0.12501754]
[ 0.58739656  0.25007296 -0.04322822]
[ 0.29463109  0.08980032 -0.54337591]
[ 0.56535828  0.0935965  -0.62888259]
[ 0.17530568  0.02385403  0.06501917]
[ 0.18364081 -0.03772954  0.07497703]
[ 0.51265794  0.06886877 -0.32245994]
[ 0.51853418  0.21771686 -0.12937176]
[ 0.23507571 -0.00434375 -0.73239392]
[ 0.44800398 -0.00176126 -0.74824935]
[ 0.05836522 -0.14341642 -0.17104658]
[ 0.04993089 -0.17048845 -0.30359447]
[ 0.06522043 -0.17497672 -0.17590801]
[ 0.36533988  0.01658378 -0.05876977]
[ 0.08439203 -0.64394891 -0.10922733]
[-0.2632544  -0.43603906 -0.00334347]
[-0.10328419 -0.04043021  0.11547796]
[-0.30492964 -0.33386946  0.11317156]
[-0.40197203 -0.88921601 -0.11183666]
[ 0.09258619  0.05358849 -0.01377163]
[ 0.04273387 -0.07263362  0.08969775]
[ 0.09810805 -0.00568321 -0.08053586]
[ 0.33389443  0.07987352 -0.14104858]
[ 0.36164698 -0.03099048 -0.40146935]
[ 0.37184682 -0.06019327 -0.31582162]
[ 0.41732153  0.08171121 -0.06085598]
[ 0.17663993 -0.44181755 -0.14688706]
[-0.15879869 -0.51783299 -0.02195411]
[-0.05387367 -0.01483401  0.08154691]
[-0.15454164 -0.11945906  0.00157303]
[ 0.03988659 -0.26602921 -0.4014377 ]
[ 0.09638231 -0.24488619 -0.12291252]
[-0.16396038 -0.74732274 -0.04623195]
[-0.24836826 -0.01755779  0.11109551]
[ 0.33045581 -0.01184494 -0.22708333]
[ 0.27574232  0.16916534 -0.15181436]
[ 0.28277785 -0.08287443 -0.19647123]
[-0.35440981 -0.43962318 -0.04732807]
[-0.24892591 -0.35789573 -0.08518642]
[-0.23040456 -0.02501906  0.22513089]
[-0.09319473 -0.3604176  -0.03856415]
[ 0.11020616 -0.49899292 -0.51355869]
[-0.07482295 -0.18474431  0.22858983]
[-0.02133223  0.12689121  0.24423103]
[-0.04667144  0.13105203  0.29425022]
[ 0.08517487  0.1603805   0.19437242]
[-0.62211138  0.17721461  0.00660141]
[-0.5364266  -0.0617002   0.24525397]
[-0.02700615  0.37940821  0.24345851]
[-0.37917343 -0.23140466 -0.0924008 ]
[-0.14639625 -0.45393622 -0.17668301]
[-0.16696507 -0.06782118  0.140315  ]
[ 0.02872328 -0.11243537 -0.15014364]
[ 0.04142475 -0.22821145 -0.21173695]
[-0.06503653 -0.25126049 -0.16959278]
[ 0.26071948  0.08708142 -0.21013032]
[ 0.1953682   0.15202482 -0.42940623]
[ 0.54586017  0.18481553 -0.38971302]
[-0.40706965 -0.5906316  -0.30547312]
[-0.34041217 -1.10459733 -0.45210564]
[-0.34484193 -0.20666319 -0.04488738]
[ 0.06195049  0.18967199  0.29127938]
[-0.23487833 -0.08157123  0.14097656]
[-0.52706993 -0.82600218  0.24140759]
[-0.21757571 -0.05515574  0.0966277 ]
[-0.24643296 -0.12849636  0.02610334]
[-0.18457401 -0.50418991 -0.34200773]
[ 0.54008222  0.09556358 -0.19258119]
[ 0.53765047  0.01486857 -0.56415516]
[ 0.37115309 -0.10630745  0.04085522]
[-0.04899354 -0.21272992  0.1684916 ]
[-0.01283276 -0.28597769 -0.03152759]
[-0.08409972  0.01586571  0.33768937]
[ 0.20085073  0.0188162  -0.06731864]
[ 0.10228451 -0.0879982  -0.21987073]
[ 0.24655254 -0.17996873 -0.39642587]
[ 0.16915654 -0.13692576 -0.19242941]
[ 0.17871924 -0.08654007 -0.30270755]
[ 0.01256257 -0.15272474 -0.22020842]
[ 0.14153551 -0.09010462 -0.02824828]
[-0.0289912  -0.48309261 -0.10627913]
[-0.28735942 -0.833125   -0.18920751]
[-1.05090332 -0.21991365 -0.20296846]
[-1.0459094  -0.68282527 -0.09727277]
[-0.44978938 -0.00556427  0.24582267]
[ 0.43081531  0.06737272 -0.11186633]
[ 0.16530566 -0.534244   -0.2699618 ]
[-0.08508912 -0.23485938 -0.09398653]
[-0.21480528  0.16566484  0.13894868]
[ 0.11247294 -2.06983972 -0.4904204 ]
[ 0.08908758 -1.2195369  -0.78939837]
[ 0.05349568  0.08166904 -0.12223352]
[-0.67173868 -0.15422775 -0.32499084]
[-0.30337432 -0.33352274 -0.04161681]
[-0.27326921  0.3803916   0.136684  ]
[-0.33603698 -1.56157815 -0.21587005]
[ 0.0736431  -1.8724972  -0.48770162]
[ 0.57922047  0.14824447 -0.10078725]
[ 0.17296328  0.14570224 -0.16545644]
[-0.42048809 -0.03997816  0.13499756]
[-0.59687334 -0.48795441  0.21168444]
[-0.11565179 -0.73629105 -0.07517131]
[ 0.07679744 -0.14458013 -0.04338015]
[ 0.6695388   0.12873998 -0.04113922]
[ 0.24434514  0.18485226 -0.22256239]
[-0.43982497 -0.0434004   0.01820218]
[ 0.12779096 -0.05623836 -0.02500471]
[ 0.0877303   0.1240539  -0.13129239]
[ 0.00091937  0.1205742   0.03954582]
[-0.2864646   0.83350331  0.15318535]
[ 0.13631564 -1.31983876  0.02966789]
[ 0.15063608 -0.90160358 -0.58504057]
[-0.94673908  0.10872007  0.23924795]
[ 0.26595607 -0.39414299  0.24174705]
[ 0.12724991  0.19883607 -0.22435357]
[-0.08655332 -0.00892125 -0.00726562]
[-0.01970612 -0.09646349  0.04644296]
[ 0.0487911  -0.03138883  0.03544927]
[ 0.67074209  0.0148252  -0.04575222]
[ 0.22927137  0.22255209 -0.27255517]
[-0.31050366  0.05502068  0.05900852]
[-0.36550501  0.82824719  0.21254642]
[ 0.24985695 -1.19123232  0.06158521]
[ 0.11425533 -0.73515397 -0.66661245]
[-1.03785467 -0.5148198   0.33160785]
[-0.19236295 -1.24340665 -0.07491629]
[ 0.15759459 -0.09127723 -0.19702579]
[-0.26863715  0.19260694  0.06476697]
[-0.24939394 -1.79830134 -0.12861338]
[ 0.17270952 -1.590904   -0.38196266]
[ 0.10174571 -0.08238066 -0.03197937]
[ 0.05549539  0.10392293 -0.12202866]
[ 0.03649892  0.0928023   0.02247307]
[ 0.1475012   0.16063416 -0.63232762]
[-0.65320528  0.56419748  0.07994697]
[-0.26681566  0.4883312   0.36040887]
[ 0.44644231  0.04634422 -0.61486691]
[-0.1328494   0.33380964  0.02254097]
[-0.37562153  0.33935222  0.23160973]
[-0.29328987 -0.01604646  0.17725594]
[ 0.01416325 -0.21550985  0.20913576]
[-0.06562149 -0.08427658 -0.07174677]
[ 0.09727273 -0.69491136  0.05505489]
[ 0.0915219   0.33763933 -0.28956622]
[-0.63566083  0.33158407  0.04332885]
[ 0.19944219 -0.13169415 -0.51854324]
[-0.26028565  0.29763678  0.04132025]
[-0.32328066  0.42303437  0.2193938 ]
[ 0.03882567 -0.1028907  -0.02196806]
[ 0.03294693 -0.08029059 -0.04032863]
[ 0.07140064  0.10934966 -0.0145514 ]
[ 0.03709944 -0.3968671  -0.07026956]
[-0.19449927 -0.20299946 -0.39065564]
[-0.09415605 -0.12399355 -0.20085716]
[-0.15146032 -0.54735911 -0.24946341]
[-0.38762099 -0.40400141 -0.34183156]
[-0.1216701  -0.14699498 -0.07224253]
[-0.82628167  1.16216493  0.0262502 ]
[-0.16539341  0.02287397  0.30379537]
[ 0.34285429 -0.41581714 -0.19474551]
[-1.10103083 -0.23582898  0.22004774]
[ 0.15389471 -0.58300221  0.07944395]
[ 0.1093462   0.12292434 -0.18828592]
[ 0.67989886  0.5416767  -0.68308455]
[-0.05366307  0.51931483  0.15197174]
[-0.93176591  0.17373168  0.48977363]
[ 0.20900126  0.19784866 -0.53634983]
[-0.34274313  0.39993045  0.05879816]
[-0.28749788  0.3534275   0.23539165]
[ 0.10682749 -0.16921034  0.16450302]
[ 0.14264642 -0.11429294 -0.07809223]
[ 0.01970875  0.02625379 -0.16178869]
[-0.17928416 -0.18622053  0.03242909]
[ 0.21252051 -0.20473783 -0.01656818]
[ 0.11119658  0.26819775 -0.10131118]
[-0.57613921  0.50995147  0.28456703]
[ 0.35074043 -1.13940859 -0.05729951]
[ 0.19699195 -0.0240817  -0.5381391 ]
[-0.0920518  -0.69607985 -0.35764459]
[-0.2980555   0.18148847 -0.11965455]
[-0.45760357  0.35401171  0.05711798]
[-0.05880928  0.42196706  0.30735058]
[ 0.20930886 -1.90395772 -0.30559221]
[ 0.1875857  -0.8246578  -1.08704519]
[-0.19236664  0.00737994 -0.46943921]
[-0.2682696  -0.40239927  0.11988251]
[ 0.10552712 -0.2987963   0.33670551]
[ 0.09044293 -0.74237669  0.10112717]
[-0.24967802 -0.73554611 -0.15289241]
[-0.30052927  0.21464673 -0.03088255]
[ 0.11637119 -0.19553964  0.22151057]
[-0.50610673 -0.03614815  0.49916884]
[-0.39703086  0.19977754  0.38318324]
[-0.01048631 -0.96355283  0.08987168]
[-0.05053888 -0.31413987  0.05134428]
[-0.08714798  0.21092775  0.01454084]
[ 0.05777024  0.03496871  0.1658176 ]
[-0.68921489 -0.59980845 -0.07993983]
[-0.2479696   0.1379317  -0.14180632]
[-0.03019925 -0.91575986  0.05401731]
[-0.00478325 -0.24165128  0.05147745]
[-0.02641952  0.19448778  0.05921321]
[-0.10466883  0.09308221  0.05932409]
[ 0.0117231  -0.01348501 -0.0249894 ]
[ 0.04331068 -0.06346361 -0.00767683]
[ 0.33999348  0.16957934 -0.22146913]
[-0.36115193  0.01185952  0.23876353]
[-0.09678661 -0.04439759  0.26404101]
[ 0.49539712  0.41765836  0.08188653]
[-0.34573975  0.61937696  0.12977143]
[-0.03119571 -0.43085554 -0.49169943]
[-0.01360154 -0.09526143  0.05635998]
[  1.61525421e-02  -1.40832374e-02   3.14890531e-05]
[ 0.0607365  -0.08175801  0.03604212]
[-0.0327628  -0.6991595  -0.00460628]
[ 0.13027799 -0.22824328  0.00918527]
[ 0.02346033  0.09837173 -0.0377114 ]
[ 0.40225735  0.24635151 -0.23981953]
[-0.29519558  0.01791428  0.2024665 ]
[-0.06135764 -0.05591526  0.2644276 ]
[ 0.00929056  0.4168779   0.23536015]
[-0.80408573 -0.0624682  -0.09823993]
[-0.13739428 -0.29398111 -0.54676676]
[-0.13270015 -0.10251639 -0.37643445]
[-0.45054308 -0.32508501  0.12439375]
[-0.22624137 -0.10609648  0.22414652]
[-0.14745215  0.08946472  0.08872161]
[-0.01839328 -0.10495352 -0.02351809]
[ 0.03527825 -0.07370974 -0.08433188]
[-0.00522702 -0.5011912  -0.1955311 ]
[ 0.61988842  0.26521233 -0.57620192]
[ 0.17637534  0.00370372 -0.47942066]
[-0.18046373 -0.35046074 -0.03306498]
[ 0.35872522  0.09142083 -0.48416713]
[ 0.12396408  0.07800671 -0.38358298]
[ 0.14073153  0.15105946  0.07118026]
[-0.11742324  0.16492064  0.14101194]
[ 0.09051435  0.12414307  0.11813682]
[-0.53661692 -0.56031752 -0.35569957]
[ 0.80691785 -0.44147038 -0.46740046]
[ 0.25102034  0.08768503 -0.39810112]
[-0.20309186 -0.23823014 -0.16263555]
[ 0.3785457   0.01350727 -0.62567282]
[ 0.114395   -0.13321836 -0.56824422]
[-0.07349061  0.06498075  0.03315192]
[-0.03956967 -0.02511424  0.01483179]
[ 0.06931462 -0.00195038  0.03824766]
[-0.3863394  -0.36823285 -0.05490308]
[-0.3011511  -0.53753096 -0.10164306]
[ 0.1069     -0.11247244 -0.02731856]
[-0.70280111 -0.44204327 -0.50666153]
[ 0.12490847 -0.4527728  -0.27361608]
[ 0.174872   -0.22168858 -0.05923177]
[ 0.95297045  0.47879717 -0.1155942 ]
[ 0.3312574   0.81036311  0.05638067]
[-0.3548899  -0.13423939 -0.19791619]
[ 0.28459728  0.48384413  0.15829855]
[-0.47948146  0.26324058 -0.15469849]
[ 0.09574899 -0.26640806 -0.45633948]
[ 0.06989177 -1.32647765 -0.19009522]
[ 0.14516333  0.16253369 -0.26001951]
[-0.17641169  0.15092178 -0.51427782]
[-0.14375764 -0.58743566 -0.16058786]
[ 0.48881799  0.22856575 -0.41020608]
[ 0.13284244  0.05225524 -0.38432443]
[-0.06848269  0.17800567  0.1619643 ]
[-0.14350004 -0.0407642   0.03105072]
[-0.01031149 -0.12605448 -0.04357276]
[-0.08472126  0.31689835  0.14665821]
[-0.32161394  0.13691483  0.13111223]
[-0.11204609 -0.30571306 -0.12046445]
[ 0.49824342  0.4533152  -0.19842847]
[-0.34169713  0.21963578  0.19257714]
[-0.08019922 -0.27224523  0.16034198]
[-0.58765531 -0.13781267 -0.45730841]
[ 0.48116788 -0.39584222 -0.55979341]
[ 0.14188446 -0.14210175 -0.43357545]
[ 0.01781035  0.20784838 -0.37268487]
[-0.16326764 -0.22017826  0.20251368]
[ 0.24655972 -0.29424667  0.28324825]
[-0.13454744  0.29165253  0.24171588]
[ 0.08747587  0.2215109  -0.03895544]
[-0.26339135  0.03490436  0.3424134 ]
[ 0.13548562 -0.00612035 -0.10821316]
[-0.53572363 -0.37653238  0.04833074]
[-0.26222119 -0.40733156  0.00080817]
[ 0.31643936  0.35286176  0.19861482]
[ 0.08445711  0.15453753  0.11930424]
[-0.24564151 -0.00062048  0.40057781]
[-0.03287953 -0.1445411  -0.01598396]
[-0.31890503 -0.14928064  0.09575158]
[ 0.02094171 -0.18064551  0.0314504 ]
[ 0.53241372 -0.30169329 -0.25962725]
[-0.83459651 -0.75173676  0.13606036]
[-0.5565365  -0.31241509  0.08519117]
[-0.07872339 -0.32636201 -0.00239777]
[-0.19950117 -0.11291903  0.09715303]
[ 0.0962171  -0.19182207  0.07423763]
[-0.12049988  0.04888093  0.05878757]
[-0.05744732  0.0630991   0.03752758]
[ 0.14466998  0.07268764  0.0711771 ]
[-0.16439375  0.22592963  0.37875673]
[ 0.14528283  0.22384806 -0.02814177]
[ 0.04179204  0.21588482  0.18806595]
[ 0.12079034 -0.84466195 -0.50995559]
[-0.76108849  0.08504637 -0.12554941]
[-0.52057749  0.2790218  -0.09343952]
[-0.02910258  0.07262006  0.0183769 ]
[-0.04655171 -0.08477929  0.00069987]
[ 0.00999507  0.06568892 -0.07010859]
[-0.11943521 -0.31802952 -0.04233667]
[-0.04174333 -0.09461996  0.12206024]
[ 0.21784827 -0.08609699 -0.17350204]
[-0.14735807  0.19329761  0.36873013]
[ 0.09198047  0.18990962 -0.01555615]
[-0.06525815  0.12968938  0.14164731]
[ 0.59009731 -0.83947682 -0.52147889]
[-1.30461717 -0.61604685 -0.01904252]
[-0.831406   -0.03011204  0.0405179 ]
[ 0.14385974  0.36335877  0.32444882]
[ 0.31311023  0.27487212 -0.0487669 ]
[-0.35642293  0.07543346  0.25075591]
[-0.14463004 -0.14465913  0.03533226]
[-0.17722096  0.05394217 -0.00828938]
[ 0.11454111  0.0300667  -0.0190829 ]
[-0.94881201  0.21051143 -0.05024138]
[ 0.09564383 -0.74736667 -0.48964658]
[ 0.27468386 -0.18321918 -0.21032295]
[-0.66349959  0.06451365 -0.01605938]
[ 0.17492823 -0.34417301 -0.03648387]
[ 0.30801973 -0.28383669 -0.00784306]
[ 0.20247564 -0.08629245 -0.28318664]
[-0.16419145 -0.0465651  -0.15054411]
[-0.19393997 -0.01629502 -0.05249659]
[ 0.56853443  0.34710535 -0.79029202]
[-0.39804363 -0.51691413 -0.24024563]
[-0.30005169 -0.3330051   0.0073956 ]
[-0.5964573   0.1706419  -0.09867374]
[ 0.02801431 -0.45781979 -0.18370833]
[ 0.15305409 -0.34204093 -0.01902739]
[-0.12544474  0.14321885  0.11582457]
[-0.05715218 -0.00276402  0.04294684]
[  8.19860585e-03  -6.50827860e-05   1.16975635e-01]
[-0.28210288 -0.30856636 -0.05833577]
[-0.42067981 -0.07140466  0.02978309]
[-0.29637516 -0.22373271  0.04984981]
[-0.41219348  0.31473526  0.09474166]
[-0.1049609   0.10177635 -0.00257439]
[-0.36494642 -0.06503053  0.286975  ]
[-0.66143739 -0.74924159 -0.14872557]
[ 0.06927408 -0.06901427 -0.23517445]
[ 0.28217128  0.26307082 -0.26577947]
[ 0.20603558 -1.18552792 -0.52399302]
[-1.44982743 -0.36261168 -0.05280913]
[-0.66854995  0.08498527 -0.13159643]
[-0.62723392 -0.4343428   0.07180238]
[ 0.1389816  -0.45199215  0.1413739 ]
[ 0.48204666  0.12419624 -0.21369763]
[-0.61935681  0.19515721 -0.09924789]
[ 0.30524477 -0.43209118 -0.15062343]
[ 0.16258024 -0.11463741 -0.01565605]
[ 0.16297701 -0.1940586   0.04178423]
[-0.28426516  0.09850752  0.09901319]
[ 0.00153185  0.04691786  0.0048518 ]
[-0.38110954 -0.33659068  0.09338408]
[-0.41635326  0.10945807  0.02586144]
[-0.16073874  0.03788798  0.10175118]
[-0.127959   -0.08510833  0.03543568]
[-0.20354564  0.2124531  -0.06103143]
[ -3.30971181e-01   3.06952983e-01  -1.80663628e-05]
[-0.09931878  0.43204716 -0.28882277]
[-0.22774467 -0.05416012 -0.09282187]
[-0.29561743 -0.25681296  0.30845588]
[-0.19731344  0.20878029  0.25795737]
[ 0.11468215  0.23018457 -0.05613891]
[-0.00493147  0.1077049   0.06109112]
[-0.04017827 -0.38403508 -0.06309456]
[ 0.05691343  0.04163745  0.04770165]
[-0.2861847   0.16794498  0.11575561]
[-0.12758476 -0.59478414 -0.34293115]
[-0.12999398  0.03073664  0.00333793]
[-0.02960265  0.00393777  0.09169421]
[-0.00933035 -0.21622629  0.1433775 ]
[ 0.14739099  0.14780533  0.3081601 ]
[-0.14209852  0.15124154  0.26123023]
[-0.07858437 -0.30818877 -0.21797128]
[-0.11385967  0.02767622  0.1063075 ]
[ 0.12472543 -0.07267651  0.15910496]
[-0.29637554 -1.11384475 -0.4100852 ]
[-0.13926785  0.09882386 -0.54987115]
[-0.39659691  0.1209032   0.0131828 ]
[-0.09144268 -0.24171819 -0.18065956]
[-0.04647914  0.08073929  0.02083052]
[ 0.04972935 -0.08084522  0.12849812]
[ 0.09181108  0.02860499 -0.05484401]
[ 0.04860286  0.13527392  0.02291977]
[ 0.07687566  0.06109564  0.05405647]
[-0.29155546 -0.1669073   0.1205768 ]
[ 0.21523064 -0.03380853  0.08235415]
[-0.25694528  0.11296482  0.08416277]
[-0.62155253  0.04020021  0.30735049]
[ 0.06322525 -0.41023222 -0.84584439]
[-0.43025449  0.0120237  -0.6470167 ]
[-0.03600603  0.02117864 -0.04591106]
[-0.0559855   0.08144686 -0.02348935]
[-0.02322469  0.03300177  0.00180372]
[ 0.08591809 -0.14009872 -0.12139142]
[-0.05461161  0.16836976  0.04500791]
[ 0.09007837 -0.0554652   0.1470913 ]
[-0.3087844  -0.18501587  0.04280945]
[ 0.13800129  0.04892094  0.08850303]
[-0.21930765  0.12193573  0.03298727]
[-0.63283736 -1.06772232 -0.12594956]
[-0.13566178 -0.24473138 -1.02318442]
[-0.36218056  0.13937657 -0.43925095]
[-0.12176277 -0.25034133 -0.00442848]
[ 0.02882809 -0.01223774  0.09074   ]
[-0.28651059  0.178564    0.1371576 ]
[ 0.08013725 -0.09731163 -0.02723867]
[ 0.01208148  0.12885723 -0.03660714]
[ 0.11559146 -0.01464637  0.04550368]
[ 0.70947379  0.90122175 -0.22082762]
[-0.23677912  0.22414136 -0.18563037]
[ 0.10244172  0.04843803  0.06218566]
[ 0.50037396  0.59693056 -0.26045379]
[-0.11735576  0.30294448  0.0200192 ]
[ 0.04527128 -0.08956679 -0.09837779]
[ 0.08339867 -0.01655371  0.15472339]
[ 0.09301645 -0.02064622 -0.24779172]
[-0.23764968  0.05234339 -0.12595966]
[ 1.16157532 -0.02021424 -0.33411804]
[ 0.07446464  0.53912801 -0.07810743]
[ 0.08398797  0.37810159  0.30200583]
[ 0.71200794  0.48813477 -0.28809389]
[-0.11397679  0.10265024 -0.24001062]
[ 0.02792069 -0.027472   -0.13152967]
[-0.00666651 -0.0317297  -0.01786351]
[ 0.05627376  0.08415116  0.0247044 ]
[ 0.01335948  0.08234233  0.04444592]
[-0.25273752 -0.38293591 -0.17632879]
[-0.01955203  0.03137931 -0.14724362]
[ 0.01183585  0.15868051  0.1142121 ]
[ 0.32683739  0.00931693 -0.37797242]
[-0.18823268  0.09659266 -0.1524055 ]
[-0.12489808  0.07231676  0.04036292]
[-0.83065575  0.51521707  0.45694888]
[ 0.34886819 -0.50455433 -0.12134606]
[ 0.10045257 -0.16017641 -0.63220406]
[-0.4487479  -0.4364872   0.01167843]
[-0.00653491 -0.20421068 -1.04873073]
[-0.33218119  0.02822048 -0.51697004]
[ 0.40152508  0.35140738 -0.02883962]
[-0.1160797   0.22091249  0.14318046]
[ 0.30483857 -0.2569783  -0.08748715]
[ 0.65577853  0.70983273 -0.18931121]
[-0.1443737   0.18629964 -0.09847929]
[ 0.14811091 -0.00472385 -0.07146152]
[-0.06284215 -0.22723147  0.05045051]
[ 0.06096692  0.09166913 -0.08491996]
[-0.05001491  0.09611741  0.02949136]
[-0.16265258 -0.13722497  0.0460066 ]
[-0.00992088 -0.06585706 -0.10911277]
[-0.22469977 -0.0551644  -0.09831706]
[-0.48344433 -0.27852622  0.179419  ]
[ 0.09768382 -0.14603645 -0.03525435]
[-0.49202937 -0.06864925 -0.17585845]
[ 0.65748405  0.15185982 -0.53750813]
[-0.06569499  0.19296061 -0.31920567]
[ 0.00185262  0.09790941  0.08032618]
[ 0.00913919 -0.27033401  0.01945706]
[ 0.18432812  0.05884929  0.01560217]
[-0.26520398  0.21627034  0.04472735]
[-0.01556519  0.21655768  0.16879678]
[ 0.25238737  0.14319569 -0.06529407]
[ 0.13423249  0.10577904 -0.09998069]
[ 0.26230252  0.23478794  0.10221504]
[ 0.16966195 -0.00866654  0.29343954]
[ 0.34724736 -0.18363027  0.14118181]
[ 0.33355799  0.44076023  0.36286408]
[ 0.46862292  0.36531261  0.38855949]
[ 0.61642563  0.20282978  0.35874999]
[ 0.02031744  0.11226781 -0.06204571]
[ 0.12015864  0.04600213  0.2467562 ]
[ 0.27107957  0.13833684  0.10685284]
[ 0.23336534  0.02892656  0.00915573]
[-0.09555398 -0.57301837  0.1636029 ]
[ 0.22421066 -0.78574139  0.11854347]
[ 0.07443687  0.03550382 -0.06195081]
[ 0.15113786  0.14872342  0.13914964]
[ 0.23686543  0.31533495  0.0327393 ]
[ 0.0028892   0.01205163  0.02044718]
[ 0.04288203  0.00374119  0.05442413]
[ 0.03989597  0.05344629 -0.00393099]
[-0.31216031 -0.01803806  0.08947567]
[-0.0063072   0.21260849 -0.02249024]
[ 0.02681677  0.23287423 -0.10909431]
[-0.13934268 -0.46051842  0.00183941]
[-1.20668626 -0.66271782 -0.15403756]
[-0.4636271  -0.53381532 -0.12991108]
[-0.03558791 -0.06893443  0.03108029]
[ 0.08153135  0.08344199  0.03811698]
[-0.09361972  0.0515568  -0.05948574]
[ 0.21691635  0.00650142 -0.13222709]
[ 0.31333157  0.12719092  0.09590289]
[ 0.27721742  0.24885583 -0.04350139]
[-0.35593975 -0.02507276  0.07982584]
[-0.07973065  0.21401592 -0.00663892]
[ 0.02508641  0.2207718  -0.0858032 ]
[ 0.34978545 -0.14328262 -0.16976583]
[-0.54718876 -1.04260123 -0.02471423]
[-0.13755497 -1.06324744  0.02203374]
[-0.12077616  0.19214413  0.10478048]
[-0.0100992   0.17234886 -0.18284181]
[ 0.04057936  0.00255258 -0.11687413]
[-0.01541696 -0.10051214 -0.0815874 ]
[-0.0419929  -0.11193504 -0.02401576]
[-0.03699879  0.06941326 -0.07070068]
[-0.25147295 -0.49276894  0.14309758]
[-0.23352481 -0.8331576  -0.23473406]
[-0.26521578  0.0055171   0.13542135]
[-0.06655444 -0.32745743  0.07858679]
[  1.50491893e-01  -4.28987712e-01  -1.61619857e-04]
[-0.02232935 -0.08111282 -0.01090875]
[-0.01219266 -0.11872646 -0.05903684]
[-0.24023463 -0.20500664 -0.13798772]
[-0.10375705 -0.26224953 -0.06738085]
[-0.56643999  0.49732077 -0.03909591]
[-0.82972819 -0.28660429  0.10479229]
[ 0.0847118  -0.01549311  0.38723159]
[-0.26921451 -0.27946594  0.06481465]
[-0.21528623 -0.59174365 -0.11962468]
[-0.27979326 -0.20048732  0.03603263]
[ 0.02482575  0.01179073  0.08640749]
[-0.00273996  0.03918403  0.02719256]
[ 0.03486579  0.06116742  0.03424066]
[ 0.01735601  0.15157826 -0.1806494 ]
[ 0.0784919   0.0127346  -0.10015294]
[-0.03970193 -0.05763867 -0.17102326]
[ 0.00644317  0.25628924  0.12609938]
[-0.11656433  0.09566782  0.01278293]
[-0.05215442  0.01781668  0.00724376]
[-0.27346766 -0.46211582  0.64555132]
[-0.6983909  -0.0548979   0.23969117]
[-0.55021304  0.10298703  0.3283132 ]
[ 0.10924609 -0.41570893 -0.06597243]
[-1.05429983 -0.9066118   0.01058079]
[-0.21830001 -0.86600095  0.11826608]
[ 0.03680095 -0.3500106   0.10326833]
[ 0.41980615 -0.19277561  0.25596842]
[ 0.1373429   0.23971662  0.0573809 ]
[-0.14686349 -0.37255341  0.14930831]
[-0.06941745 -0.54556578 -0.19537403]
[-0.24517074 -0.07721097  0.04971273]
[ 0.2367387   0.06666578 -0.02502731]
[ 0.08192722 -0.00806738 -0.02461182]
[ 0.1399834  -0.03376543  0.02170758]
[-0.01053756 -0.18917373  0.05039175]
[-0.2256933  -0.13709252 -0.10726038]
[-0.1696941  -0.10152828 -0.16382796]
[-0.05914463 -0.05980517  0.06601367]
[-0.2464238   0.10970969 -0.04118182]
[-0.04942669  0.18625216 -0.12169156]
[-0.63445652  0.13963234  0.09571833]
[-0.61110151 -0.28540084  0.01793522]
[-0.34488285 -0.1406623   0.22197556]
[-0.25128099  0.11401886  0.13332768]
[ 0.14875227  0.29478386  0.01636965]
[ 0.11061671  0.32471815 -0.1520267 ]
[ 0.12958044 -0.89357907 -0.16075216]
[-0.02332692  0.08515861 -0.20246351]
[ 0.08897474 -0.10718785  0.02693759]
[ 0.20703186  0.17881024 -0.0561702 ]
[ 0.44045091 -0.34940171 -0.25699273]
[-0.04677702  0.1107725   0.18499771]
[-0.52655828 -0.51115632  0.15839958]
[ 0.26255342 -0.03122963  0.00334001]
[ 0.11749564 -0.08044914  0.46664542]
[ 0.19346665  0.03293296 -0.07776543]
[ 0.30069569 -0.15779233 -0.0356614 ]
[ 0.07211667 -0.00237956  0.10002302]
[ 0.05700352  0.48157102  0.14308362]
[ 0.36381152 -0.23683205 -0.67727774]
[-0.42924133  0.20164847  0.20262229]
[ 0.149905    0.0510805  -0.13602635]
[ 0.17911062 -0.22156876  0.00308909]
[ 0.086602   -0.00223634  0.09925243]
[ 0.12492064  0.04089216 -0.00449017]
[-0.0255944   0.07524497 -0.05278525]
[ 0.02624392  0.06220496 -0.01897415]
[-0.14745939 -0.61890036  0.00684434]
[-0.12784272 -0.23065692 -0.00207013]
[ 0.1609716  -0.06976806  0.0905918 ]
[ 0.10126046  0.55077821 -0.18561217]
[-0.44424102 -0.51105261 -0.47499558]
[-0.27171859  0.36566749 -0.46111068]
[ 0.11108312  0.06458965 -0.02544208]
[-0.01857003 -0.02139293  0.01763826]
[-0.09040953 -0.02948943  0.0570267 ]
[ 0.13411237  0.00862071 -0.05709361]
[ 0.06846695 -0.15980612 -0.00723682]
[ 0.03141727 -0.04513066  0.03596486]
[ 0.04348077 -0.61537266 -0.04560613]
[-0.18802932 -0.25797796 -0.01875846]
[ 0.14087597 -0.10188071  0.05318647]
[ 0.19827944  0.6225335  -0.1507362 ]
[ 0.39847758 -0.30964378 -1.05567944]
[-0.53280258  0.39110458 -0.17198606]
[-0.16604792 -0.82872629 -0.04085641]
[ 0.06741941  0.0022396  -0.1587082 ]
[ 0.08604138 -0.30312678  0.02293134]
[ 0.11044232 -0.00894983 -0.10148288]
[ 0.0151089  -0.0064536  -0.07079048]
[-0.03562592  0.02643497 -0.05340754]
[-0.408171   -0.12635528 -0.25077212]
[-0.2122916   0.76863122  0.18434028]
[-0.22199324  0.01577586 -0.29017264]
[-0.10317969 -0.34664461 -0.25839224]
[-0.38158301  0.51326913  0.10614933]
[-0.08314752  0.07068483 -0.2014972 ]
[-0.06076376  0.25474969  0.12237947]
[ 0.09763391  0.12043288  0.03809557]
[-0.10453575  0.21199656  0.11214821]
[-0.17202413  0.20921755  0.1694535 ]
[ 1.05167067  0.93127626 -1.00921464]
[ 0.31410271 -0.55174661  0.51349479]
[-0.15941106 -0.26805532 -0.37327048]
[-0.12712793  0.55247474 -0.03421793]
[-0.05686989 -0.11170989 -0.3804785 ]
[ 0.08289312 -0.01458593 -0.00056344]
[-0.04465605  0.06702059  0.0006557 ]
[ 0.00210168  0.02402483 -0.02752867]
[ 0.35819998  0.07060167 -0.33428359]
[ 0.10145836 -0.17926747 -0.0364859 ]
[-0.01914714  0.24214892 -0.09967231]
[ 0.06490941 -0.60480058 -0.16422592]
[-0.11741789  0.51478899 -0.21962141]
[-0.03241632 -0.12215172 -0.25884685]
[ 0.43553922  0.32175374 -0.24798274]
[-0.40866217 -0.88554227  0.27634835]
[ 0.29165104  0.54617232 -0.69953781]
[ 0.21963954  0.53131306 -0.25055447]
[-0.01184316 -0.38357815 -0.71433288]
[-0.32625383  0.45228374 -0.34609738]
[-0.08133098 -0.49786597 -0.22997141]
[-0.24467146 -0.0873208   0.23071258]
[ 0.14808705 -0.13540633  0.03951189]
[-0.26942468 -0.25742218 -0.08819364]
[-0.2935333   0.55158758  0.22435971]
[-0.16097443 -0.08431614 -0.35161436]
[ 0.10441568  0.29621375 -0.00876051]
[ 0.14503172 -0.01844032 -0.12332667]
[-0.06259059  0.12707917 -0.01784648]
[-0.02182406  0.05061354 -0.10246468]
[-0.06415536 -0.15828115 -0.05618548]
[-0.02057904  0.11400826 -0.06582088]
[-0.19094458 -0.19394796 -0.16947475]
[-0.31360227 -0.56473249 -0.16239226]
[ 0.04204074  0.02007651 -0.02687302]
[-0.31389019 -0.37305227 -0.29166505]
[ 0.39723426  0.78199184 -0.6168139 ]
[ 0.13780631 -0.22545677 -0.3634913 ]
[ 0.03764004 -0.71356404 -0.1890346 ]
[-0.03500889 -0.01172319 -0.09739932]
[ 0.06989509  0.03710365  0.09734263]
[ 0.26355442  0.17080967  0.38904768]
[-0.01134835  0.0364447   0.11333658]
[ 0.02179972 -0.59464097  0.15546617]
[ 0.34184062  0.48686752 -0.27783173]
[-0.05713611  0.28480077 -0.22170548]
[-0.559304   -0.08136226 -0.26154256]
[ 0.29635677  0.79134893  0.11029881]
[ 0.07691772  0.36809525  0.1377808 ]
[-0.06357192 -0.24479389  0.19948553]
[ 0.07216529  0.39108437 -0.23927373]
[-0.02802355  0.17216131 -0.05552392]
[-0.25339374  0.10047632  0.20838161]
[ 0.03167381  0.09162024 -0.45958531]
[-0.1715019  -0.00372038 -0.35678956]
[-0.71077681 -0.64535046 -0.5772239 ]
[ 0.14946513  0.33654001  0.02527197]
[-0.03734638  0.11042122  0.11317731]
[-0.24706075  0.12405086  0.28656471]
[ 0.06847692 -0.0826529   0.09550232]
[ 0.06159718  0.02538245  0.05979719]
[ 0.12368812  0.06094157  0.11002971]
[ 0.06828655  0.15046731  0.3177067 ]
[ 0.05574958  0.22781914  0.03813309]
[-0.08611559 -0.20112857  0.25242817]
[-0.37680086 -0.34635347  0.22885615]
[-0.08486196 -0.37669361  0.01364699]
[-0.44620365 -0.60352892  0.13736053]
[ 0.034028    0.04125369  0.08500073]
[-0.00550968  0.08617894 -0.10662731]
[ 0.00461738 -0.09650545  0.02703743]
[ 0.27948579  0.21002457  0.09608201]
[ 0.16456856  0.1380634   0.13564561]
[ 0.12409101  0.1477807   0.04699466]
[ 0.03021827  0.14167908  0.29550904]
[ 0.01246468  0.21858948  0.11972255]
[-0.02739931 -0.31071356  0.13551082]
[-0.12714575 -0.30153719 -0.21524253]
[-0.26678976 -0.53578901 -0.18851741]
[-1.20524859 -1.15237832 -0.64791936]
[ 0.22805503  0.31658274  0.23288263]
[-0.10329739  0.15083437  0.04208986]
[-0.15249105 -0.2213477   0.09424019]
[ 0.05794282 -0.10100893  0.10257264]
[-0.02432493 -0.10505074  0.02858204]
[ 0.05058206  0.06879386 -0.02038723]
[-0.77128297 -1.41940832 -0.67420888]
[-0.51408571 -0.72945976 -1.357867  ]
[ 0.21035348  0.39420718 -0.08320259]
[-0.0765656  -0.56570131 -0.02659973]
[-0.12483103 -0.39988068 -0.73699993]
[ 0.17426705  0.25254875 -0.09768035]
[-0.11576875 -0.06577228 -0.13346128]
[-0.02538896 -0.00208867 -0.0381635 ]
[-0.24916856 -0.06252411 -0.00177832]
[-0.88188469 -0.63506341 -0.5211184 ]
[-0.87288159 -0.72129565 -0.95260072]
[ 0.04146727 -0.10243464 -0.07314045]
[-0.63090312 -0.89219379 -0.29393536]
[-0.64796072 -0.72414583 -1.14646888]
[ 0.1189907   0.28655529 -0.10384571]
[ 0.05524435 -0.09507973  0.10879125]
[ 0.03538002 -0.05463439  0.05695536]
[ 0.09593198  0.01431618  0.09541663]
[ 0.18275851 -0.06679915  0.09469169]
[-0.13853598 -0.24230519 -0.08807453]
[-0.32904437 -0.260508   -0.19101608]
[ 0.16262566 -0.56319684  0.23366034]
[-0.12488992 -0.67693245 -0.10316249]
[ 0.08319343 -0.20447779  0.01582292]
[-0.07541666  0.48835424  0.00733149]
[ 0.37371904  0.10228565  0.06085649]
[ 0.01784648  0.19125265  0.18332957]
[-0.4041256  -0.54580724 -0.1881427 ]
[-0.24169406 -0.56929725 -0.12004399]
[-1.00334346 -1.31714976 -0.60202301]
[-0.30900705  0.31440839 -0.30511719]
[-0.13843845  0.14431664 -0.08598908]
[ 0.09243038  0.34636337  0.29701453]
[-0.40241072 -0.63389897 -0.33020508]
[-0.31879809 -0.2778402  -0.82042581]
[ 0.21277449  0.30574009 -0.05642258]
[ 0.17517397 -0.02600929  0.14314908]
[ 0.09430347 -0.01407347  0.1019191 ]
[ 0.01015357 -0.0518697   0.08620314]
[-0.02623084 -0.40326464  0.06891634]
[-0.07561216 -0.41470399 -0.0122984 ]
[-0.16329348 -0.25965619  0.03718264]
[-0.01535021 -0.0814658   0.31573081]
[ 0.07596578  0.06608475  0.0457677 ]
[-0.16773205 -0.13823093  0.16535924]
[-0.49902716 -1.12667263 -0.32000169]
[-0.81575143 -1.33927214 -1.07529342]
[ 0.09314842 -0.11263439 -0.16214064]
[ 0.36838296  0.16710277  0.25983405]
[ 0.18857832  0.3181138   0.11445139]
[ 0.07524518 -0.3489334   0.21796837]
[ 0.33665073 -0.45263806  0.07134548]
[-0.48154497  0.06454957 -0.16781853]
[ 0.27049911  0.15588468 -0.52186704]
[ 0.09220705  0.58508903 -0.14161521]
[ 0.37260109  0.13682269 -0.07645975]
[ 0.40142936 -1.01429498  0.37181517]
[-0.98494238  0.12150187  0.04013421]
[ 0.47632983  0.42758131 -0.10781343]
[ 1.03154135  0.08805405  0.55895197]
[ 0.08326534  0.26530933 -0.24837336]
[ 0.22875954 -0.20972571 -0.00795356]
[ 0.24463823 -0.71876985  0.22859982]
[ 0.08182243  0.50134432  0.02046166]
[ 0.42329657  0.31350687 -0.4333128 ]
[ 0.31804666 -0.46662787  0.28234392]
[ 0.08473682  0.09288879 -0.30154091]
[ 0.211142   -0.3632547  -0.00177466]
[ 0.21931678 -0.45593545  0.15278694]
[ 0.12048822 -0.06356888  0.01994602]
[ 0.01086614  0.03774668 -0.00087488]
[-0.01969318  0.13573588  0.00497284]
[-0.66851085 -0.43924323  0.14066371]
[-0.60582769 -0.09766169  0.04384673]
[ 0.2312302  0.1762068 -0.2498925]
[-0.53807086 -0.20698935  0.02491613]
[-0.54204041 -1.34237695 -0.11415143]
[-0.89383203 -0.47896627 -0.64629763]
[ 0.06753878 -0.03513404  0.05648516]
[-0.08161007  0.06906775 -0.01481748]
[ 0.07487474  0.01623733  0.01821852]
[ 0.20265266 -0.0724571  -0.17142281]
[ 0.21970055 -0.26208767  0.09782119]
[ 0.07464561 -0.06945473  0.16706041]
[-0.3031269  -0.43163955  0.18706292]
[-0.59615976 -0.13797164  0.01681687]
[ 0.0568688   0.14684634 -0.28457743]
[ 0.19310917  0.4811424  -0.02430262]
[ 0.5998137  -0.04875234 -0.60256296]
[-0.01962708 -0.07555304 -0.27396023]
[-0.35298684 -0.20868774  0.0615471 ]
[-0.36374384  0.02278475 -0.24779734]
[ 0.4500626   0.11761645 -0.29536596]
[ 0.14148854 -0.0289036  -0.10951348]
[ 0.10608058 -0.06078172 -0.05252806]
[-0.01895962  0.08662965 -0.02287263]
[-0.4915213  -0.39601037  0.19437891]
[-1.61259007  0.53965533  0.15218796]
[-0.20316215  0.29694772 -0.10431219]
[-0.19002832 -0.55954212  0.12553985]
[-1.18085063  0.17114106  0.16418374]
[-0.34537348  0.22005206 -0.09269223]
[ 0.00040405  0.10970553  0.10825887]
[ 0.14782424 -0.04523395  0.0580057 ]
[ 0.18005925  0.00070371  0.06925359]
[-0.45724836  0.99738544 -0.2204897 ]
[ 0.73150259  1.10880542 -1.01653826]
[ 0.70970082  0.25455204  0.13603637]
[-0.4166927  -0.33438313  0.0098362 ]
[-1.46011233  0.19634101 -0.00751424]
[-0.34356055  0.06726332 -0.12348335]
[ 0.21933843 -0.02020331  0.06788372]
[-0.00276603  0.08641253  0.05030246]
[ 0.0417938   0.04466457  0.06177384]
[ 0.45251042  0.02468846 -0.3914651 ]
[ 0.37621224 -0.30775484 -0.09128034]
[-0.09128249  0.07534769 -0.20270093]
[ 0.15819104 -0.15150923  0.10726531]
[-0.84267914  0.35040393 -0.16885632]
[ 0.00287749  0.20919546 -0.37961334]
[-0.51131153 -0.13392122 -0.14048044]
[-0.69917721 -1.29651833  0.5952608 ]
[-0.39366928 -0.50247777 -0.06000628]
[ 0.10259397  0.08001603 -0.12944329]
[ 0.23864302 -0.87550563 -0.45063713]
[-0.43913335 -0.05162325 -0.28386861]
[-0.16000824 -0.56325448 -0.31342793]
[-0.2086512  -0.80415016  0.26557592]
[-0.04035703 -0.60722518  0.24869685]
[-0.31480509 -0.36599451  0.20322797]
[-1.39151692  0.22016388  0.10049282]
[-0.16894294  0.13411264 -0.14700074]
[ 0.25242749  0.07008889 -0.01182557]
[ 0.20447697 -0.07757197 -0.11594808]
[ 0.06760181  0.05130686  0.02830778]
[ 0.13658191 -0.33710048 -0.02084534]
[-0.12093561 -0.42006931  0.01823754]
[-0.28201914 -0.07739329 -0.11321191]
[-0.65413475 -0.54508883  0.1133858 ]
[-0.95915389 -0.45358792 -0.01334562]
[ -4.50299203e-01  -1.91285566e-04  -5.53290069e-01]
[-0.57334656  0.43910286 -0.06350246]
[-0.49572068  0.66350245 -0.64544654]
[ 0.27264869  0.22706981 -0.37189704]
[ 0.06521502 -0.52013659  0.12013915]
[-0.36292738  0.08923334 -0.05462006]
[ 0.04640974  0.26578879 -0.53697127]
[ 0.0904537  -0.35797495  0.25975502]
[ 0.07794105  0.14092596  0.1960683 ]
[-0.34153035  0.23059453  0.07451535]
[-0.44005671  0.51820993 -0.24882333]
[-0.26532805  0.48264822 -0.34610134]
[ 0.16851354  0.0264737   0.1825721 ]
[ 0.22322996  0.46951529  0.24035975]
[ 0.11040363  0.63196516  0.06111735]
[-0.33791304  0.73409849 -0.60323012]
[-0.22202054  0.36998191 -0.1134326 ]
[-0.02058397  0.31838211  0.15137112]
[ 0.19381391 -0.10371378  0.25232992]
[-0.53089654  0.35271916 -0.47932377]
[-0.26082826  0.37534907 -0.79863882]
[ 0.22285572  0.35888487  0.08816244]
[-0.02451585  0.25814429 -0.06768853]
[ 0.17110106  0.18152209  0.33574581]
[ 0.11422995 -0.28945357  0.3384071 ]
[ 0.0389729  -0.02747606  0.01064121]
[ 0.05675029 -0.02289686  0.12121657]
[ 0.0527434   0.06329318  0.05643673]
[ 0.16155636 -0.14605813  0.04323308]
[ 0.14731294  0.12145248  0.03449218]
[-0.45119053  0.18413973 -0.17849037]
[-0.29774731 -0.92701608 -0.87902004]
[-0.34626189 -1.41828859 -1.77134967]
[-0.00809215 -0.74082714 -0.79719341]
[-0.04963789 -0.04128257 -0.03476817]
[ 0.01123438 -0.04877655 -0.02835966]
[-0.00618457 -0.06934223 -0.06137358]
[ 0.16040708  0.20954765 -0.02116437]
[ 0.22090745  0.00207666  0.3348802 ]
[ 0.1900903  -0.48250136  0.25708479]
[ 0.14388877 -0.29901466  0.16574562]
[ 0.28862914  0.15404901  0.12872374]
[-0.37938145  0.15157363 -0.23810814]
[-0.37636921 -0.11171422 -0.81650758]
[-0.25579497 -0.34158215 -1.5530076 ]
[ 0.38164663 -0.40376374 -0.15584444]
[-0.01151915 -0.15271764  0.12674242]
[-0.02534904  0.35719886  0.03787827]
[-0.49404833  0.19506791 -0.11792364]
[ 0.01977415 -0.04162528 -0.16950791]
[-0.00115116 -0.1657096   0.07577681]
[-0.0189398  -0.10255448  0.11208522]
[-0.15605938 -0.85791045  0.38990125]
[-0.42036837 -0.3541581   0.12272763]
[-0.02355353  0.26075733  0.09592932]
[-0.06128673 -0.53710586  0.22424489]
[-0.25198656 -0.67388827  0.30004609]
[ 0.04155298 -0.03748375  0.15970626]
[-0.10115517  0.09076351 -0.21634036]
[-0.06583795  0.12427239 -0.33831388]
[ 0.17265846  0.026073   -0.19494911]
[-0.4184148   0.50182289  0.48935193]
[-0.82410961  0.79599899 -0.1617341 ]
[-0.12325786  1.12296999 -0.59216696]
[-0.23950185 -0.63808489  0.14847487]
[-0.58666205 -0.29805198  0.08187096]
[-0.14415477  0.11064608 -0.03927772]
[ 0.04387786 -0.16229433  0.01626115]
[ 0.05431318  0.00775086  0.0909095 ]
[-0.04468817  0.11749019  0.05714904]
[ 0.03863243 -0.05134987 -0.16697019]
[ 0.18076575 -0.20754597  0.33100095]
[ 0.14155607 -0.58914506  0.35392821]
[ 0.01248915 -0.59252495  0.36176953]
[-0.18797351  0.14290193  0.26525503]
[-0.08915598  0.37156028  0.21862771]
[-0.05552584 -0.59576046 -0.5789997 ]
[-0.43840033 -1.024001   -1.32151353]
[-0.30119616 -0.69670278 -1.10564876]
[-0.4121632  -0.54936832 -1.11652803]
[-0.16363391 -0.96533877 -1.58867621]
[ 0.35915625 -0.60624051 -0.28518862]
[-0.20604962  0.13151121 -0.25945985]
[ 0.08103137 -0.10522332 -0.07238805]
[ 0.23158206 -0.46012807  0.03822751]
[-0.25961462 -0.51595443  0.22984982]
[-0.49655852 -0.41335425  0.10103706]
[-0.05336433  0.14042826  0.07480189]
[ 0.09173118  0.12832634 -0.13973956]
[ 0.07499805 -0.11428136 -0.02821564]
[ 0.1308004  -0.09615406  0.10005834]
[-0.0961614  -0.50723046 -0.30586901]
[-0.15060784 -0.4662883  -0.2910035 ]
[-0.20688659 -0.0955038  -0.21703839]
[ 0.29760644 -0.52687508  0.0505823 ]
[ 0.22857809 -0.32194275 -0.08490488]
[-0.26678073 -0.07394311 -0.3824271 ]
[-0.23661387 -0.32737973  0.39471734]
[-0.64480317  0.33930093  0.10905158]
[-0.24816774  0.59904122 -0.22137566]
[ 0.14535247 -0.33895716  0.21502377]
[ 0.25554445 -0.06575996  0.27568033]
[-0.35345343  0.02344817  0.10246718]
[-0.11058404  0.17363624 -0.0610075 ]
[ 0.0013109   0.13609968  0.06603587]
[-0.13853501  0.09218307  0.20950925]
[ 0.30485144 -0.17740253  0.20250697]
[ 0.21092466 -0.04372049  0.09497745]
[-0.04281108  0.14011791  0.16666979]
[ 0.29980394  0.30857247  0.25868621]
[ 0.29164109  0.33563974  0.13278155]
[-0.03122442  0.26522988  0.13995408]
[ 0.17007232  0.00353829  0.11320247]
[ 0.11139914  0.15587702  0.07362109]
[-0.09583785  0.10833812  0.09222406]
[ 0.08549741 -0.76112324 -0.21510826]
[ 0.17625859 -0.70677423 -0.22532289]
[ 0.25802854  0.03349562  0.28203228]
[ 0.25379369  0.21150051 -0.06808387]
[ 0.07412142  0.14548804  0.04337635]
[-0.05101784  0.16077334 -0.0066907 ]
[ 0.059921    0.04123727  0.02944355]
[ 0.07025845  0.01037427  0.08357749]
[ 0.11532277  0.07721078  0.14681332]
[-0.21966593  0.24243231 -0.00934446]
[-0.10183244  0.17956401 -0.01368814]
[-0.16191843  0.15903793 -0.03750223]
[-0.44195095 -0.07757537 -0.58764303]
[-0.4025065  -0.59242326 -0.96973968]
[ 0.16988142  0.04433906 -0.02588521]
[ 0.07386732  0.0688017   0.02840874]
[ 0.08409859 -0.08792031  0.00158274]
[-0.02558008  0.0533061  -0.09388127]
[ 0.30928355  0.23288007 -0.01276662]
[ 0.17177041  0.12498904  0.0438774 ]
[ 0.06855929  0.10648194  0.15060072]
[-0.20160647  0.27858037  0.00231566]
[-0.13669957  0.05373326  0.03711688]
[-0.24008639  0.1451582   0.02452801]
[-0.268038   -1.13091862 -0.82265639]
[-0.21298596 -1.81957817 -0.83657509]
[ 0.34793082 -0.1744041   0.15637352]
[-0.07888603  0.15832697  0.01272075]
[-0.11623618  0.25639302  0.03832043]
[-0.05821479  0.19015898  0.25917661]
[-0.0431003   0.06580168  0.02559055]
[-0.02989723 -0.01559678  0.04949889]
[-0.03607382  0.02682565  0.17140126]
[-0.43424869 -2.11269283 -1.4192971 ]
[-1.15634656 -2.4948709  -1.47403061]
[ 0.12452985 -0.66947424  0.00568589]
[ 0.43898705 -0.68728971 -0.5626024 ]
[-0.1173263  -1.04109776 -0.49042702]
[ 0.45945686 -0.34506491 -0.07744622]
[-0.13707376 -0.17707576 -0.09743675]
[-0.02392957 -0.17053196 -0.10319737]
[ 0.09509671  0.05715816  0.02952865]
[-1.31658912 -1.73466492 -0.72541147]
[-1.2527343  -1.99682665 -0.70798767]
[-0.4646062  -0.80743098  0.47171846]
[-0.08429296 -1.58298218 -0.90381187]
[-0.91436034 -2.17536354 -1.02564859]
[ 0.35030136 -0.60935813  0.09808248]
[-0.0069632   0.08762305  0.00130717]
[ 0.04287823  0.04428627  0.04950539]
[ 0.09264717  0.10156702  0.08278225]
[ 0.04770813 -0.07404561 -0.24906622]
[ 0.00785797 -0.16036789 -0.08659118]
[-0.10672175 -0.0711128   0.01701846]
[-0.04754457 -0.08467697 -0.22635984]
[-0.26148552  0.05488865 -0.08041166]
[ 0.30953285  0.05534172  0.31851736]
[ 0.23790886  0.14393473  0.18794671]
[-0.2924245  -0.07430914 -0.12145102]
[-0.14300592  0.39152509 -0.2393921 ]
[-0.60038745 -1.03860641 -0.92842042]
[-0.46985292 -1.59153259 -1.02812338]
[ 0.2469952  -0.02184046  0.18243206]
[ 0.28278092  0.08240633  0.20068221]
[ 0.085143   -0.03152065  0.30289066]
[ 0.10828488  0.03449997 -0.00403427]
[ 0.05040257 -1.26122296 -0.71760821]
[-0.46300513 -1.509799   -0.75979531]
[ 0.4298521  -0.46143204 -0.00589152]
[ 0.07693546  0.06167147  0.00684731]
[ 0.12937802 -0.01483031  0.01415545]
[ 0.12622285  0.09121511  0.05157167]
[-0.04717221  0.06236123 -0.07370067]
[-0.0762933  -0.00165284 -0.08852027]
[-0.09506294  0.02895923  0.01979108]
[-0.24294439  0.22701754 -0.1401882 ]
[-0.178434    0.07422502 -0.16339093]
[-0.32627285  0.04270196 -0.05128188]
[-0.94858134 -1.428671   -0.73837888]
[-1.64655101 -1.76353383 -0.81219721]
[-0.32494906 -0.74105746  0.39121374]
[-0.10526343  0.24306023  0.01406865]
[ 0.16237055  0.18647131  0.06828775]
[-0.15039048  0.04828515  0.25265259]
[ 0.0893604   0.40176421  0.32756928]
[ 0.11504169  0.13245456 -0.01622163]
[ 0.26143685  0.21229109 -0.16092768]
[ 0.54056251  0.13972098 -0.22779347]
[ 0.33344758 -0.20506357 -0.30413812]
[ 0.01096462 -0.42915237  0.03321889]
[ 0.20048687  0.52469224  0.10364602]
[ 0.19524683  0.19987878 -0.11813939]
[ 0.37610331  0.09461305 -0.11590885]
[  4.09877390e-01   1.91669539e-01  -3.01661785e-04]
[ 0.09398846  0.0061402  -0.25553906]
[-0.0872493  -0.10427018 -0.11932038]
[ 0.52217418 -0.25688794 -0.49326736]
[ 0.52907151 -0.96941519 -0.48289257]
[ 0.2026304  -0.41444388  0.25984299]
[ 0.3387675   0.03478848  0.03267404]
[ 0.04281019 -0.01445655 -0.31707361]
[-0.11240333 -0.08974443 -0.11730813]
[ 0.03884016  0.07245058  0.08700551]
[-0.04321167  0.01060385  0.09569138]
[-0.06486436  0.07587726  0.02330219]
[ 0.16865242  0.31586722  0.18381944]
[ 0.08905377  0.14610358  0.10563887]
[ 0.35954311  0.16847619 -0.17587467]
[-0.19704305 -0.51508367 -0.7693758 ]
[-0.34602338 -0.88859516 -0.57620722]
[-0.4363043  -0.14866984  0.3263045 ]
[ 0.04341993  0.01329227  0.10889927]
[-0.04551256  0.02796121  0.05603107]
[ 0.10049532 -0.08299646 -0.02788155]
[ 0.21041808  0.00525076 -0.00805259]
[-0.01625805 -0.15585612 -0.15637827]
[-0.1364962  -0.03646164 -0.04648518]
[ 0.04422158  0.37439343  0.27022079]
[ 0.10836926  0.17297682  0.00529269]
[ 0.3688654   0.22440964 -0.06595408]
[ 0.26362544 -1.13084424 -0.79315001]
[ 0.13477021 -2.08473516 -0.5361222 ]
[-0.32752204 -0.3259905   0.38190353]
[ 0.18382581  0.34910995  0.27478632]
[ 0.08596451  0.0838437   0.18845885]
[ 0.34318992  0.32744336 -0.29912087]
[-0.01634038  0.10413935  0.12521286]
[-0.17525731  0.01616315  0.09463263]
[-0.1573558   0.08726286  0.17667738]
[-0.79069167 -0.50545031 -0.31365913]
[-0.72915941 -0.83391118 -0.68808717]
[-0.33553329 -0.87971044 -0.62705946]
[-0.29744634 -0.32865059 -0.00916158]
[-0.63340175 -0.67029065 -0.40157491]
[-0.23827741 -0.53924769 -0.22119106]
[ 0.23034883 -0.1835143  -0.19405042]
[ 0.25765243 -0.24854766 -0.16803482]
[ 0.26349172 -0.08411424 -0.02329564]
[-0.19937208  0.11521132 -0.27047879]
[-0.00755371 -0.5014565  -0.22585219]
[-0.1405163  -1.0960871  -0.61176246]
[-0.61206132 -0.39610994 -0.11512397]
[-0.76312685 -0.90026522 -0.49584043]
[-0.39269978 -0.80798233 -0.26031163]
[-0.00142987  0.05046773  0.0327756 ]
[-0.05049002  0.05951852  0.07312554]
[-0.02478778  0.13071795  0.1131272 ]
[ 0.09133918 -0.19612266  0.06687168]
[-0.03714154 -0.12973645 -0.09449077]
[-0.25286344  0.03314829  0.02088494]
[-0.21012318  0.26815054 -0.0151468 ]
[-0.15016751  0.15227181  0.04110039]
[-0.00389399  0.26686141 -0.22498468]
[-0.32308894 -0.50006002 -0.44946605]
[-0.63707691 -0.75995803 -0.59720969]
[-0.24958645 -0.23272176  0.56496888]
[ 0.01193688 -1.26492393 -0.87583029]
[-0.27166212 -1.86710775 -0.57865781]
[-0.46165866 -0.06233907  0.40680832]
[ 0.12794727 -0.18720485 -0.021305  ]
[-0.27829295 -0.76441044 -0.29771438]
[-0.13423543 -0.69998306  0.0633258 ]
[-0.30685982 -0.36884499 -0.0976652 ]
[-0.42542121 -0.64187485 -0.3702929 ]
[-0.09010749 -0.70684642 -0.33640891]
[ 0.11267377 -0.08152046  0.02655531]
[ 0.04816673 -0.03659796  0.00944467]
[-0.10886914  0.02939988  0.1219859 ]
[-0.09084385  0.09978567  0.05456726]
[-0.23712617 -0.0338757   0.08919894]
[-0.19148313  0.06911615  0.14918151]
[ 0.05328752  0.30541793  0.1560456 ]
[ 0.0069954   0.10493041 -0.13846198]
[ 0.19733563  0.08556201 -0.03045823]
[-0.47675508  0.14797559 -0.22310816]
[-0.60190505 -0.26266122 -0.10863186]
[-0.28011677 -0.21749234 -0.30286926]
[ 0.03345246  0.42876068  0.19476959]
[ 0.08705827  0.10940337 -0.03271956]
[ 0.24906927  0.21981594 -0.22716056]
[-0.00749154  0.26107761  0.13357773]
[ 0.05809671  0.03765161 -0.54090989]
[-0.05995246 -0.46576428  0.24964932]
[-0.92260814 -1.52607501 -0.01934662]
[-1.58069253 -1.10269189 -0.21547548]
[-1.11274445 -0.39629206 -0.27441558]
[ 0.04216423  0.27492681 -0.51145083]
[-0.22188866 -0.30655798 -0.81013471]
[-0.44925058 -0.08881127  0.00079362]
[-0.86820173 -1.15207613  0.11530261]
[-1.35933578 -1.31302977  0.11913388]
[-1.15407026 -0.5181033  -0.0734055 ]
[-0.01806821 -0.037189   -0.10556298]
[-0.46151376  0.1297382  -0.07683834]
[-0.15772901  0.02373006 -0.17658754]
[-0.97378457 -0.79920363  0.2112112 ]
[-1.31731105 -1.10477614  0.09497562]
[-1.11206555 -0.33168781 -0.0031573 ]
[ 0.0310584   0.09758397  0.01117133]
[ 0.00985559  0.05232542  0.01943424]
[ 0.09596911  0.00817902  0.04799997]
[ 0.1698503   0.3851932   0.31544384]
[ 0.02932688  0.03239985 -0.35657877]
[-0.03947809 -0.1899305   0.25010166]
[ 0.42658114  0.31443626 -0.46803153]
[ 0.1180924   0.13777913 -0.14269568]
[ 0.35099101  0.209548    0.04860681]
[-0.0722701  -0.01803255 -0.00714384]
[ 0.03697065 -0.05268594 -0.0719124 ]
[ 0.05497373  0.03173966 -0.03912708]
[-0.57085598 -0.28669134  0.09612587]
[-0.51979572 -0.47870508  0.1006742 ]
[-0.43986198 -0.18727005  0.04111946]
[ 0.15163797  0.352891    0.18760867]
[ 0.02749209  0.07416216 -0.2979933 ]
[-0.05191622 -0.20369852  0.12274114]
[ 0.13044623 -0.07063553 -0.29336646]
[-0.02721426  0.27633116 -0.0462308 ]
[ 0.31331268  0.16609542 -0.12749152]
[ 0.02050061  0.21324642 -0.10396126]
[-0.00454682  0.0415839  -0.65268987]
[-0.05614968 -0.36500558  0.04127397]
[-0.08418325  0.02973254  0.03314987]
[ 0.02101946 -0.03567655  0.03370094]
[ 0.08970437  0.02409914 -0.00577885]
[ 0.27007726  0.08481574 -0.47588813]
[ 0.43055716  0.47245252 -0.58382499]
[ 0.69105262  0.42804632 -0.48115182]
[ 0.10301744  0.15746875 -0.19714177]
[ 0.28067949  0.18259387 -0.21961258]
[ 0.22192441  0.19426446 -0.37423277]
[ 0.3624464   0.09661335 -0.11226482]
[ 0.04620616  0.11096022 -0.03307255]
[ 0.17169368  0.10873581  0.01507864]
[ 0.40459293 -0.07410243 -0.84003049]
[ 0.52031922 -0.2237339  -0.9333595 ]
[ 0.50063527 -0.30061764 -0.29623893]
[ 0.16312249  0.0571288  -0.35419023]
[ 0.31075719  0.19917008 -0.54242933]
[ 0.37672591  0.27225462 -0.4557071 ]
[ 0.00958507  0.08906709  0.05363749]
[ 0.05062053  0.06979803  0.01634545]
[ 0.01021318  0.01024004  0.09250475]
[-0.82845223 -0.49746805 -0.08055566]
[-0.54522616 -0.37419546 -0.18342528]
[-0.36501026 -0.14085825 -0.2177172 ]
[ 0.05844292  0.10157952 -0.1912457 ]
[ 0.17692304  0.21239936 -0.37330174]
[-0.07199926 -0.28616625 -0.27070752]
[ 0.26958579 -0.15621679 -0.81437778]
[-0.07942142 -0.09249204 -0.76864582]
[-0.09595664  0.40447083 -0.40226093]
[ 0.28730723  0.06796908 -0.35882193]
[ 0.20581022  0.27567703 -0.21019742]
[ 0.38252485  0.20120147 -0.12834854]
[-0.40628174 -0.38123417 -0.32051149]
[-0.14984    -0.79070061 -0.24857834]
[-0.30445254 -0.22794966 -0.19835404]
[ 0.17805034  0.11483482 -0.31968874]
[ 0.31511071  0.34324008 -0.40421322]
[ 0.38355264  0.26593891 -0.29639825]
[-0.05155952  0.07762868  0.12735547]
[-0.15522857  0.01836143  0.04814537]
[ 0.03769075 -0.02458791  0.05765368]
[-0.04983461  0.08515577 -0.06096574]
[-0.05557259 -0.10148834 -0.08615149]
[ 0.14071253  0.08935472  0.05473355]
[ 0.19087076  0.41559234 -0.12873337]
[-0.02432459 -0.09777886 -0.27627894]
[ 0.06161549 -0.13578582  0.19136445]
[ 0.31290597  0.0694778  -0.65761065]
[ 0.38499081  0.11170979 -0.88617057]
[ 0.5196768  -0.18881014 -0.51427639]
[-0.00208811  0.27467313  0.20187339]
[ 0.01783097  0.03308443 -0.30583164]
[-0.09357515 -0.32524133  0.27464721]
[ 0.23071669 -0.2157539  -1.09065938]
[ 0.10967936 -1.10500538 -1.42268443]
[-0.17910583 -1.23642552 -0.4526791 ]
[-0.38428056  0.02216044  0.2113995 ]
[-0.73816693 -0.30134973  0.07677546]
[-0.01571462  0.04614245 -0.04835358]
[-0.02986205 -0.94144595 -1.11254251]
[-0.48576692 -1.50240958 -0.84746176]
[-0.74533957 -0.62827569 -0.3977209 ]
[ 0.20297417  0.19018996  0.3279286 ]
[-0.73764461 -0.27860081  0.16568519]
[-0.06386791 -0.21663995 -0.12584136]
[-0.17285612 -0.21522243  0.26782978]
[-0.11745367  0.23032273  0.33493999]
[ 0.21281843  0.18276811  0.11004353]
[ 0.11702281  0.06381433  0.34040284]
[-0.47775978 -0.35793903  0.10944573]
[ 0.03669984 -0.24941851 -0.15846211]
[ 0.04908495  0.09956604  0.13061272]
[-0.02215119 -0.04869241  0.10145317]
[ 0.0786288   0.06601786  0.15627466]
[ 0.1730637  -0.33585525 -1.32053328]
[-0.08171732 -1.35837328 -1.35042048]
[-0.25998911 -0.9382143  -0.9023062 ]
[-0.40709141 -0.15573467 -0.22974546]
[-0.38651732 -0.05649249 -0.15779093]
[-0.12238652  0.10491312 -0.03395051]
[ 0.08491454 -0.00050011 -0.00363613]
[-0.04021502 -0.04963973 -0.09851968]
[ 0.06679234  0.01470038  0.0934241 ]
[-0.05110873  0.01112175  0.29293829]
[-0.19681789 -0.24226047  0.26233739]
[ 0.16996938 -0.18168572 -0.0599277 ]
[ 0.32950935 -0.09769259 -1.06321597]
[ 0.01126746 -1.13758123 -1.47427917]
[-0.31914678 -0.85161829 -0.83231425]
[-0.71335977 -0.11887533  0.32392037]
[-0.29863986  0.18677382  0.24737681]
[ 0.13837808  0.15362927  0.21082228]
[ 0.04159736 -0.5836426  -0.94723296]
[ 0.01955851 -1.16868925 -0.52051389]
[-0.31387985 -1.27796876 -0.27378789]
[ 0.0885254   0.0611253   0.02326598]
[ 0.06816756  0.01147149  0.08473287]
[-0.00494976 -0.05815553  0.05265891]
[-0.413454    0.08729208  0.43938193]
[-0.11638527 -0.33677328 -0.00283426]
[ 0.02209978  0.09351301  0.38665551]
[-0.24966569 -0.04872059  0.40400848]
[-0.05413026 -0.28617471  0.19873795]
[ 0.02093465 -0.21539783  0.1814394 ]
[ 0.23349071  0.17883429  0.19020401]
[ 0.07283399  0.20346428  0.27212885]
[ 0.26325279  0.31243014  0.28506336]
[-0.04764981  0.49169096  0.1885677 ]
[-0.51107669  0.02034229  0.14824013]
[-0.53714454  0.64520711  0.44742298]
[-0.20197394  0.05364036  0.27066949]
[-0.27114975 -0.089486    0.37669519]
[-0.22157599  0.01014924  0.24669489]
[ 0.00157268  0.03750422  0.0547369 ]
[ 0.01378035 -0.01887165  0.08613461]
[ 0.01962773  0.01675402  0.09152661]
[-0.34101734 -0.31893304 -0.10920653]
[-0.20608477 -0.21983436 -0.07130393]
[-0.05735784 -0.35846505 -0.31711665]
[-0.16699542  0.00406     0.14554378]
[ 0.02171135 -0.17751727  0.08935865]
[-0.08152458  0.01857633  0.28077489]
[-0.75831199 -0.2735272  -0.44722205]
[-1.05523527  0.09008122 -0.74677259]
[-0.40686002  0.11492646 -0.45464888]
[-0.4612748   0.12411936 -0.15062819]
[-0.20016763  0.38386786  0.22779523]
[ 0.085727    0.13867132  0.03502896]
[-0.44818759  0.03905975  0.37645289]
[-0.79869872 -0.62460631  0.15758829]
[-0.59490794 -0.36342806 -0.15482448]
[-0.29015267  0.06472408  0.4900614 ]
[-0.07713442 -0.37949947  0.29326761]
[-0.08081228 -0.03780302  0.41944212]
[-0.00791719  0.10838594  0.097183  ]
[ 0.01044259 -0.03882594  0.26991513]
[ 0.05668326 -0.01264104  0.05607551]
[-0.09500674 -0.05037919 -0.26713318]
[-0.16247937  0.00997256  0.09641499]
[-0.18938509 -0.04098972 -0.10380615]
[ 0.181024   -0.13331293 -0.62153304]
[-0.06575078 -0.83765817 -0.97183812]
[-0.22289641 -0.32522765 -0.57030201]
[-0.23100132  0.13797697  0.26007825]
[-0.13492417  0.04106461  0.1703991 ]
[-0.34915617  0.44050345  0.27252084]
[ 0.16454479 -0.15146995 -1.46749687]
[ 0.04271632 -1.09733021 -1.74836981]
[-0.17652598 -0.94702852 -0.82343698]
[-0.26085165  0.30662856  0.04669299]
[ 0.24841249  0.14182557 -0.67710203]
[ 0.11353354 -0.23800604  0.64665294]
[ 0.26975507 -1.39961779  0.19547306]
[ 0.30925307 -0.05474415  0.03836972]
[-0.22394776  0.36429885 -0.07727645]
[ 0.03308469  0.43919477 -0.74855947]
[ 0.52093548 -0.40307048  0.02360437]
[ 0.14731456  0.24629506  0.58495545]
[ 0.21272345 -1.1212548   0.2617974 ]
[ 0.13303347  0.03340211 -0.03062506]
[-0.10389442  0.2689923  -0.0945452 ]
[ 0.32325268 -0.47525737  0.40335667]
[ 0.18841048  0.10903146  0.07963669]
[-0.21509339  0.41984689 -0.01263167]
[ 0.14820276 -0.87860042  0.16880459]
[-0.00461793  0.09432889 -0.05246184]
[-0.15182836  0.16389591 -0.14060195]
[-0.07013752  0.0749936   0.03924647]
[-0.06919844  0.03935261  0.00597026]
[-0.06274951 -0.07689121  0.00514818]
[-0.34528697  0.22568753 -0.55030274]
[ 0.16911522  0.05074316 -0.48175371]
[ 0.21714385 -0.04957023  0.47598851]
[-0.75790215 -1.44092906 -0.90674627]
[-0.31192395 -0.10695149  0.04298433]
[-0.15181506 -0.00668072 -0.08576411]
[ 0.08953746  0.08459911 -0.03455264]
[-0.06794994  0.06527984 -0.09425206]
[-0.00983734  0.04601289  0.00244405]
[ 0.06004281 -0.46480078  0.08060241]
[-0.17171332  0.02443353  0.0520369 ]
[-0.2768594  -0.051192   -0.04499462]
[-0.3673051   0.27739739 -0.38839188]
[ 0.13676731  0.06641243 -0.47121009]
[ 0.25482669 -0.01807737  0.4394998 ]
[ 0.16039728 -0.96891755  0.01864547]
[-0.04360704  0.29713273  0.13828176]
[-0.21003357  0.43212423 -0.08589927]
[-0.04561842  0.43162209 -0.1327952 ]
[ 0.29379779  0.17666252 -0.54412597]
[ 0.07232064 -0.13221627  0.51966065]
[-0.11530092 -0.02813423  0.05515778]
[-0.08058716  0.06484426  0.03028662]
[-0.09777318 -0.05108264 -0.05320937]
[ 0.00416575  0.44044793 -0.07120887]
[-0.40836021 -0.03042885 -0.55128694]
[-0.29435873 -0.9043963  -0.44775835]
[ 0.05654066  0.24360588  0.09258205]
[-0.43099192  0.08229437 -0.28778508]
[-0.62302786 -0.66285157 -0.34024966]
[ 0.11396468 -0.15276578  0.02734451]
[ 0.01909212 -0.03153046  0.15320869]
[ 0.04638111  0.20696504  0.03115325]
[ 0.50207698  0.39050108 -0.23001391]
[ 0.61527443 -0.58583313  0.16361265]
[-0.12306417 -0.04966622  0.12407714]
[ 0.1379448   0.29414237  0.00541845]
[-0.32780325 -0.03253378 -0.27488244]
[-0.44459134 -1.0291146  -0.50533587]
[-0.07044639  0.08239286  0.07191622]
[ 0.00406432  0.03530468 -0.07336755]
[-0.04697857 -0.05489349 -0.00828569]
[-0.08257898 -0.08940536  0.33495837]
[-0.23913272  0.03576751 -0.09197142]
[-0.38293505  0.06208862 -0.27305984]
[ 0.06830877  0.21506484  0.0578685 ]
[ 0.13678509  0.31141531 -0.37824157]
[-0.16733238 -0.49289957  0.13512839]
[-1.10483754 -1.79921448 -0.87384087]
[-0.40297157 -0.37350506 -0.23298125]
[ 0.01978803  0.04176914 -0.4547931 ]
[-0.14307833 -0.66753691  0.02710294]
[-0.11255191  0.18808015  0.07229865]
[-0.08249742  0.21082263 -0.18865409]
[ 0.14669457 -0.25203237  0.04838143]
[-0.4945783  -0.66212708 -0.18840821]
[-0.32690758 -0.39864662 -0.30072868]
[ 0.10993882  0.34593213 -0.03497758]
[-0.31168127  0.01830677 -0.35419029]
[-0.33579525 -0.85653025 -0.3971523 ]
[-0.12163951 -0.18688869  0.04537166]
[-0.11420503  0.02944453  0.03444443]
[-0.14851576  0.08947292  0.01506064]
[-0.32794634 -0.08371738 -0.23293787]
[-0.16522291 -0.08889824 -0.06340804]
[-0.14484693 -0.07796643 -0.01166901]
[-0.61012846 -0.11679255 -1.01596868]
[-0.02592183 -0.08773398 -0.20313157]
[ 0.08034091 -0.09997457  0.27138701]
[ 0.26620531  0.31400383 -0.16455491]
[ 0.24779937  0.22591622 -0.13881411]
[-0.21111627 -0.59016728 -0.01987915]
[-0.39366469  0.16349016 -0.00306799]
[ 0.17079024  0.01800925 -0.63029015]
[ 0.12382893 -0.15897626  0.57135928]
[-0.18396585 -0.24588367 -0.75043666]
[-0.29175231  0.06810056 -0.16935199]
[-0.2717734   0.32653067  0.35776004]
[-0.42768773 -1.03000498  0.33994797]
[-0.22453558 -0.50661814 -0.04306911]
[ 0.20102388  0.17039578  0.01571729]
[-0.18340352 -0.44658133  0.13807462]
[-0.03940944  0.14549115 -0.01866121]
[ 0.1580141   0.37616196  0.2906206 ]
[-0.49871737 -0.26729092  0.50437677]
[-0.29030919 -0.05162838  0.0342792 ]
[ 0.22148697  0.35559276  0.01091012]
[ 0.21936153 -0.13893245  0.04434872]
[ 0.07562595 -0.08830534 -0.21410203]
[-0.10784066  0.05291355  0.18798049]
[-0.38125458 -0.05998619  0.39648983]
[-0.23343438 -0.02113845  0.10551314]
[ 0.3268427   0.2864444   0.10588122]
[ 0.10979268  0.04416171  0.00224851]
[-0.02870436 -0.02612697 -0.05603432]
[ 0.03564536 -0.00633147  0.09072154]
[-0.06490555 -0.20171747 -0.53432661]
[-0.06910996  0.12598792 -0.15897407]
[-0.17198275  0.36575311  0.23328064]
[ 0.4859392   0.15743147 -1.22803283]
[ 0.26246947  0.17452306 -0.8678351 ]
[-0.33908874  0.23275687 -0.21899301]
[ 0.06689738 -0.05163062  0.01359328]
[-0.00793078  0.05154042  0.0643874 ]
[ 0.1098249  -0.04151415 -0.06634873]
[-0.20512141  0.14559816  0.33090681]
[-0.06711521  0.07930707  0.13627233]
[ 0.29157832  0.14127754  0.08851354]
[-0.10403393 -0.18251184 -0.75469673]
[-0.03311215  0.05125607 -0.22132914]
[-0.16990829  0.299422    0.16399211]
[ 0.18787062 -0.11552034 -0.34172279]
[ 0.18493211 -0.04207213 -0.48886034]
[-0.27839142  0.11249422 -0.00914853]
[-0.20113945 -0.32634145 -0.08320981]
[-0.26563028  0.05285161 -0.09055761]
[-0.11493053  0.42958999  0.354673  ]
[ 0.0930398   0.12303521  0.00522926]
[ 0.01277937  0.01281667 -0.03088423]
[-0.02299788  0.00766887 -0.01484407]
[ 0.19498594 -0.35835189 -1.00663674]
[ 0.29253677 -1.63846362 -1.5512017 ]
[ 0.4642081  -1.10652196 -0.82351673]
[ 0.26579404 -0.0314672  -0.39961299]
[ 0.1020914  -0.68550152 -0.57611424]
[ 0.48962721 -0.8604483  -0.70882922]
[ 0.05121395  0.05116848  0.0913977 ]
[ 0.10507414  0.10731187 -0.09911188]
[-0.02554071  0.18647899  0.1290233 ]
[-0.17187794 -1.40681422 -0.21120483]
[-0.92518049 -1.45128036 -0.47126928]
[-0.50701958 -1.31310964  0.21437836]
[ 0.31477109 -0.35398433 -0.6230337 ]
[ 0.07165749 -1.61827147 -1.18352127]
[ 0.21887621 -1.5600282  -0.72749382]
[ 0.05060525 -0.03095917 -0.09413415]
[-0.05021557  0.01340433 -0.00308838]
[ 0.02410491  0.05289366 -0.01609792]
[-0.21348745 -0.07811613  0.01139164]
[-0.18249305 -0.22959697 -0.12693578]
[-0.00239365  0.01137245 -0.17265257]
[-0.0300516  -0.38366684 -0.80341655]
[-0.40369317 -0.4318462  -0.75601923]
[-0.03497337 -0.18631069 -0.00276538]
[ 0.24707472 -0.81836349 -0.75439894]
[ 0.42340636 -0.18198209 -0.65110207]
[-0.00530573  0.45451722 -0.73672515]
[ 0.4872742   0.08350243 -0.6535722 ]
[ 0.12059142 -0.00965756 -0.68142229]
[-0.30213869  0.14752783 -0.03524575]
[-0.28309402 -0.44350195  0.18923661]
[-0.04737703 -0.15043981  0.17857981]
[ 0.43287542 -0.09044144 -0.12605859]
[ 0.25679582 -0.16055596 -0.65340418]
[ 0.29441121 -0.96941245 -0.83918476]
[ 0.52832294 -0.79428166 -0.68333215]
[ 0.18940432  0.10200275  0.02351127]
[ 0.07807321  0.06787319  0.02802001]
[-0.09512808  0.03899271  0.00414261]
[ 0.16381675  0.08512562 -0.3149974 ]
[ 0.04091826 -0.01434888 -0.31635863]
[-0.28864452 -0.00194354 -0.07782253]
[ 0.01481999 -0.10841981 -1.2737335 ]
[ 0.17707182  0.15256639 -0.54763401]
[-0.34411946  0.2248095  -0.05537935]
[ 0.18312107 -0.90665525 -0.66169411]
[-0.52066863 -1.68737495 -0.89685261]
[-0.20032181 -1.20567524 -0.08626672]
[-0.06517909 -0.22843497 -0.8458162 ]
[-0.20275438  0.14813089 -0.19716237]
[-0.20743978  0.39610809  0.41922006]
[ 0.04998001 -0.14655982  0.20902812]
[-0.06547772 -0.22597475 -0.12932742]
[-0.00653324 -0.12546182  0.13059936]
[-0.43659589  0.45696875 -0.41290501]
[-0.44420198 -0.00803555 -0.18144381]
[-0.20902963  0.25896788  0.09789176]
[ 0.07826008  0.75402671 -0.05034695]
[ 0.15463711  0.04129975 -0.10736756]
[ 0.04832207  0.07191707  0.15086567]
[ 0.12674478  0.26624411 -0.41468632]
[-0.05218795 -0.01028497 -0.06000911]
[-0.30140913  0.27733985  0.12771881]
[-0.77529711 -0.01952263 -0.24089724]
[-1.02898312 -0.46654862 -0.22800139]
[ 0.01264029  0.21409193 -0.31780285]
[ 0.28136429  0.16692017 -0.21173131]
[ 0.10889427  0.03349226 -0.1487838 ]
[-0.23389854  0.22062111  0.02100405]
[ 0.05991738  0.0287292   0.08112033]
[ 0.10212713  0.09119304  0.00713382]
[ 0.16174634  0.13609725  0.05937218]
[ 0.04063729  0.18639679  0.09672759]
[-0.0271702   0.20141721  0.05810728]
[ 0.04947811  0.0579885   0.06336171]
[-0.80054832 -1.04286063  0.35972044]
[-0.7070083  -1.44528604  0.41994148]
[ 0.29893678 -0.0716232  -0.04722485]
[ 0.07097581  0.08052114  0.01589775]
[-0.10170396  0.01023834  0.00709253]
[ 0.0284145   0.08944238 -0.03198985]
[ 0.23613204  0.13977373  0.08991016]
[ 0.13383906  0.17346613  0.02948775]
[ 0.11162443  0.28659853  0.02388141]
[ 0.01694616  0.11595036  0.08894625]
[-0.02738242  0.07799808  0.00490248]
[ 0.01981114  0.00098746 -0.01578682]
[-1.35582483 -0.81129062  0.15904464]
[-1.37621951 -1.37583339  0.09271541]
[ 0.13490084 -0.02970413 -0.33434644]
[ 0.06688628  0.42601731  0.19276124]
[-0.00553832 -0.01740057 -0.10083416]
[  5.46563315e-05   5.13935164e-02   1.57895073e-01]
[ 0.07849219 -0.03952507 -0.07311421]
[ 0.05707474  0.01603951 -0.14073211]
[ 0.07711225  0.03967897 -0.15333484]
[-1.15347493 -1.54658151 -0.32176197]
[-1.84404969 -1.22921574 -0.6150676 ]
[-0.71553046 -0.77628344  0.49120891]
[-0.16780379 -0.4250809   0.26171437]
[-0.3732909   0.01909886 -0.234313  ]
[-0.18088162 -0.15884447  0.25194883]
[-0.17891617 -0.04250828  0.16050972]
[-0.2136312  -0.17863534  0.17127761]
[-0.04652797  0.03117679  0.06336951]
[-1.4913373  -0.68515414 -0.07571951]
[-1.94380629 -1.23930371 -0.38356265]
[-1.44313395 -0.08214789  0.76771134]
[-0.82259685 -0.89304513  0.07142825]
[-1.60372448 -0.81297189 -0.21689078]
[-0.71973562 -0.41703498  0.64422727]
[ 0.06109059 -0.02217269  0.08319585]
[ 0.03572419 -0.04958964 -0.00851757]
[ 0.12288523  0.0580424   0.05149859]
[ 0.07661498 -0.06136263 -0.14813992]
[-0.02634851 -0.20489863 -0.34785831]
[-0.078415    0.07691649 -0.35192382]
[-0.07068503 -1.01317275  0.32542974]
[-0.1131513  -0.94952625 -0.24742432]
[-0.1833642  -0.54703462  0.29264662]
[-0.72734404  0.56677634  0.25170314]
[-0.39071447  0.36291769  0.58159745]
[ 0.36973932 -0.18486136 -0.01844273]
[-1.49785268 -1.08142674  0.35179645]
[-1.21624649 -1.60146332  0.18668167]
[ 0.29116884 -0.02432596 -0.23418981]
[-0.1331085   0.26240796 -0.25637901]
[-0.23375058  0.45944905  0.06751066]
[-0.14929122  0.42097151  0.23210642]
[-0.66258085 -0.67330337  0.11025751]
[-1.0814656  -0.30920103 -0.18392925]
[-0.31837443 -0.32469934  0.45249039]
[ 0.16005635 -0.00886447  0.05910063]
[ 0.09561738  0.01414971  0.02161009]
[ 0.14463976  0.14993478 -0.19200964]
[-0.03808681 -0.31233695 -0.1338947 ]
[-0.09085906 -0.26175365 -0.21954989]
[ 0.02658581 -0.00504052 -0.19785151]
[-0.06714247 -0.39911339  0.09698863]
[-0.13227153 -0.07490362  0.10030713]
[ 0.13991307  0.01132067 -0.03766154]
[-0.97271156 -1.26477349  0.13548598]
[-1.30493009 -1.44904041 -0.34925067]
[-0.79852617 -0.43118551  0.48852557]
[ 0.08444355 -0.13466999  0.23487711]
[-0.09455088 -0.08254549 -0.03998318]
[-0.00320674  0.04157425  0.02366699]
[-0.66045791 -0.03178284  0.08662909]
[ 0.22792859  0.17425056 -0.18271616]
[ 0.19967818 -0.171774    0.17957093]
[ 0.20437996  0.08212368 -0.40467763]
[ 0.14773393 -0.41225025  0.28455618]
[-0.23894539  0.20516571  0.09774084]
[-0.12754163  0.27626732  0.06809816]
[ 0.51193976 -0.05201422  0.13466761]
[ 0.02604084 -0.24684432  0.49200925]
[ 0.19984557 -0.11916546 -0.18825164]
[ 0.07507244 -0.2038935   0.25152892]
[-0.0792084   0.11391886  0.0535011 ]
[ 0.10391659  0.25977486 -0.45012635]
[ 0.11946203 -0.51632977  0.05598318]
[-0.69881934  0.30177161  0.02077847]
[ 0.15408637 -0.27640396 -0.16392776]
[ 0.05840455 -0.07570136  0.22294347]
[-0.07913975  0.09640156 -0.02616793]
[-0.05255677 -0.05154431  0.00353227]
[-0.04782828  0.06451791 -0.00882224]
[ 0.08508752  0.04921514 -0.03425976]
[-0.46168458 -0.10543972  0.14439741]
[ 0.22699185  0.03697844 -0.03000022]
[ 0.03634555 -0.24103813  0.05341046]
[-0.0598475   0.10310405  0.13671355]
[-0.89966404 -0.65855992 -0.20116192]
[-0.577654    0.10996832 -0.38164616]
[ 0.01265386 -0.03289019 -0.07565343]
[ 0.03727249 -0.08511923  0.07337171]
[ 0.0946201   0.06130029 -0.06887666]
[ 0.07402389 -0.43009582 -0.15802196]
[-0.04877187 -0.04424639  0.17713602]
[-0.03750655  0.0447464  -0.06491045]
[-0.46898329 -0.15067138  0.15331395]
[ 0.09906469  0.05928515 -0.01789442]
[ 0.10721703 -0.22671847  0.07058899]
[ 0.26390493  0.27381039 -0.3393867 ]
[-0.34561458 -0.53588957 -0.40240139]
[-0.73426694  0.38539058 -0.22198871]
[-0.59017277  0.00938458  0.09852526]
[ 0.42938137  0.15327974 -0.1735566 ]
[ 0.13141851 -0.30725107  0.18822548]
[ 0.0083416  -0.10526428 -0.0205842 ]
[-0.06020325  0.06497701  0.00313465]
[ 0.00282711  0.0461276  -0.03054309]
[-0.83360338  0.82941896  0.3776243 ]
[-0.03752004  0.34406292 -0.38634488]
[ 0.4679167  -0.16265468 -0.23055172]
[-0.74688971  0.0518312   0.14861299]
[-0.26195434  0.27813032 -0.08014745]
[ 0.24072245 -0.10426786 -0.35707456]
[ 0.05580624  0.1234512  -0.02737642]
[ 0.07958999 -0.04294297  0.02499499]
[-0.30143008  0.15011148 -0.04483474]
[ 0.3259576   1.39079225 -0.63784349]
[ 0.64239073  0.36222264 -0.85479957]
[ 0.22128239 -0.08222199  0.51200026]
[-0.64241916  0.32051468  0.07623072]
[-0.03839786  0.34362403 -0.27973258]
[ 0.29363269 -0.28705126 -0.33412018]
[-0.13313581 -0.03580511  0.04191732]
[ 0.02877575  0.07939798 -0.02042883]
[ 0.08443185 -0.0184749  -0.00670969]
[ 0.22489496 -0.46320644 -0.1584322 ]
[-0.04569226  0.31710356  0.0909233 ]
[ 0.08611472  0.37970614 -0.01383715]
[-0.83998418  0.16706966  0.03049225]
[ 0.03539477  0.41519129 -0.42775047]
[ 0.26237696 -0.18861263  0.1343201 ]
[ 0.02966952 -0.07216499  0.31296253]
[-0.93426514 -0.35920078  0.00399189]
[-0.02153963  0.03331379 -0.58824825]
[ 0.11486551 -0.01797334 -0.27556458]
[-0.60442597 -0.04653214 -0.27845576]
[-0.39962393  0.14648882 -0.35065141]
[-0.11204216 -0.44676626 -0.05550883]
[-0.1832774  -0.13638207  0.16168217]
[ 0.14066127 -0.11845023 -0.26489431]
[-0.76666737  0.41521993  0.29726633]
[-0.15119995  0.37910819 -0.19621123]
[ 0.24611728 -0.18729234 -0.26764998]
[ 0.10142659  0.00175881 -0.08700016]
[-0.04108888 -0.04492113  0.07438832]
[-0.11276029  0.19003256 -0.03135561]
[-0.09177968 -0.23919587 -0.00491214]
[-0.23498106 -0.13395633  0.02107739]
[-0.0835237  -0.00562742 -0.07641293]
[-0.42051819 -0.19935448  0.18433814]
[-0.35443744 -0.21492004 -0.07632928]
[-0.30158764 -0.2303395  -0.14122771]
[-0.50077677  0.7660923  -0.34508666]
[ 0.34033573  0.46234587 -0.89924049]
[ 0.31591168 -0.38431886  0.17555077]
[-0.43562937 -0.08418701  0.09845543]
[ 0.10432858  0.15211618 -0.09444819]
[ 0.10358558 -0.12617666  0.09252667]
[ 0.00324598 -0.07652634 -0.04625084]
[ 0.07448369  0.01557921 -0.0448038 ]
[ 0.12291462  0.03446705 -0.05478982]
[-0.09490388 -0.18365502 -0.05882577]
[-0.19488338 -0.40601599 -0.39078069]
[-0.18557219 -0.30656761 -0.1806853 ]
[-0.15026537 -0.24591365 -0.06059917]
[-0.08083175 -0.0751005  -0.09058601]
[-0.02826304 -0.02025359 -0.11552794]
[-0.08238132 -0.04829501 -0.01294649]
[-0.24962628 -0.26212266 -0.15625139]
[-0.1585609  -0.15562342 -0.11773248]
[ 0.0293955  -0.10137826 -0.14227992]
[-0.11540895 -0.1720235  -0.26048315]
[ 0.09855517 -0.12204573 -0.25464773]
[-0.06362814 -0.04436926 -0.0669239 ]
[-0.16841887 -0.18582064 -0.16552059]
[-0.15625314 -0.19028468 -0.04848059]
[-0.20889817 -0.19604474 -0.25009131]
[-0.07012669  0.09199676 -0.0312266 ]
[ 0.05847728  0.12413164  0.10885262]
[-0.01228521 -0.0250146  -0.09359278]
[-0.28260735 -0.1534355  -0.13857776]
[ 0.04357576 -0.05630158 -0.2072197 ]
[-0.05533251 -0.09299444 -0.15556322]
[-0.07027981 -0.23196922 -0.06742402]
[-0.02773251 -0.03985992 -0.08620815]
[ 0.07821959 -0.06578934 -0.0865166 ]
[ 0.08228121 -0.02008319 -0.0689414 ]
[ 0.01605591  0.09117933 -0.10396   ]
[-0.19046097 -0.03245166 -0.27803564]
[-0.06616008 -0.21973041 -0.07605194]
[-0.11136437 -0.06892013  0.07173997]
[-0.00914651 -0.10399639 -0.02293517]
[-0.1907784  -0.1647906  -0.18686026]
[-0.06926    -0.14167054 -0.22809669]
[ 0.09087948  0.01394608 -0.1247756 ]
[-0.18664272 -0.19075742 -0.16473643]
[ 0.05669364 -0.15061967 -0.11975258]
[-0.06255728 -0.04993911 -0.0707332 ]
[-0.01006865  0.0906947   0.00778994]
[ 0.03119962 -0.01754484  0.10098511]
[-0.26991352 -0.16774344 -0.06963024]
[-0.22291684 -0.01075315 -0.05050897]
[-0.10549355  0.07396079  0.03894985]
[ 0.0657379   0.04219257 -0.02825141]
[ 0.0895148  -0.0201644   0.16513743]
[ 0.32273835  0.0769124   0.2519488 ]
[ 0.17832123  0.03896345 -0.00700867]
[ 0.12061699  0.15153421  0.19770773]
[ 0.11242743  0.07644063  0.24915512]
[ 0.15478048  0.13907447  0.11250987]
[ 0.15214212  0.12616974  0.05495701]
[ 0.16360918  0.09775149  0.07206962]
[ 0.01407818 -0.03582868  0.01143362]
[ 0.07627134  0.05289003  0.12703307]
[ 0.16785498  0.10469314  0.07207204]
[ 0.13869451  0.07154562 -0.01477791]
[ 0.2272258   0.06403753  0.15696126]
[ 0.23178411  0.16203752  0.16214021]
[-0.18768361 -0.28606436 -0.25419697]
[-0.13230427 -0.04238182 -0.02935379]
[ 0.03380321  0.05586621  0.06669648]
[-0.09739948 -0.15742283 -0.10759733]
[-0.20756185 -0.11560155 -0.13622193]
[-0.0573077  -0.04338118 -0.13949379]
[ 0.04214924 -0.05439021  0.07003157]
[ 0.01711713  0.05934629  0.14495106]
[ 0.18231907  0.15929945  0.07013786]
[-0.06420631 -0.1728085   0.04597214]
[-0.23861559 -0.24507678 -0.05790206]
[-0.14030525 -0.12331727 -0.09328558]
[ 0.04055994 -0.06854257 -0.01358323]
[-0.14834398 -0.22363199 -0.17943139]
[ 0.08466823 -0.00323432 -0.16752087]
[ 0.05510228  0.01629297  0.0566449 ]
[ 0.17015636  0.1051705   0.18273379]
[ 0.09253713  0.02054454  0.21925464]
[ 0.08640932  0.10090154  0.0772286 ]
[ 0.24895377  0.10385215  0.118666  ]
[ 0.2154468   0.22511785  0.21496493]
[-0.09703002 -0.25606078 -0.20752691]
[-0.3681443  -0.32679501 -0.32474741]
[-0.13294294 -0.10173354 -0.10345531]
[ 0.00659013 -0.16185506 -0.10320129]
[-0.03991904 -0.17767136 -0.22701527]
[-0.106525   -0.07449841 -0.0011548 ]
[ 0.02916046 -0.08070627 -0.06341015]
[-0.13971429 -0.29866952 -0.11460967]
[-0.15191592 -0.17657652 -0.21053803]
[-0.04682779 -0.06221344 -0.06162573]
[ 0.12494975  0.12515046  0.13138664]
[ 0.24551077  0.08843309  0.28141013]
[ 0.00129423 -0.09675666 -0.04429544]
[-0.02133957 -0.06745558 -0.12273465]
[ 0.04040128 -0.04685656 -0.11491657]
[-0.22469646  0.45799336  0.52005839]
[ 0.13544972  0.14132021 -0.22041656]
[ 0.28416646 -0.07819299 -0.79477656]
[ 0.06785473 -0.03645709  0.17978729]
[ 0.07257706 -0.19652914  0.02793645]
[-0.35208297 -0.48297569 -0.11351034]
[ 0.16739875  0.68085015  0.04480065]
[ 0.34577015  0.09214982 -0.11717871]
[ 0.46787652 -0.92324829 -0.24160363]
[ 0.14867926  0.08023296  0.23409827]
[ 0.18382443  0.10464306  0.06764584]
[-0.12832263  0.08514157 -0.00581055]
[-0.13542536 -0.75823355 -0.33974841]
[-0.18168207 -0.9869566  -0.16594663]
[-0.31325769 -0.64135122 -0.06392366]
[ 0.19844322  0.06235394  0.22417372]
[ 0.21409717  0.20006096  0.03711506]
[-0.13090423  0.12751123  0.01162436]
[-0.09193389 -0.07625735  0.01410813]
[ 0.03704336  0.02529291 -0.04146928]
[ 0.15040837  0.18982355  0.00697757]
