<?xml version="1.0"?>
<opencv_storage>
<cascade>
  <stageType>BOOST</stageType>
  <featureType>LBP</featureType>
  <height>16</height>
  <width>56</width>
  <stageParams>
    <boostType>GAB</boostType>
    <minHitRate>9.9500000476837158e-01</minHitRate>
    <maxFalseAlarm>4.0000000596046448e-01</maxFalseAlarm>
    <weightTrimRate>9.4999999999999996e-01</weightTrimRate>
    <maxDepth>1</maxDepth>
    <maxWeakCount>100</maxWeakCount></stageParams>
  <featureParams>
    <maxCatCount>256</maxCatCount>
    <featSize>1</featSize></featureParams>
  <stageNum>11</stageNum>
  <stages>
    <!-- stage 0 -->
    <_>
      <maxWeakCount>3</maxWeakCount>
      <stageThreshold>-1.2829476594924927e+00</stageThreshold>
      <weakClassifiers>
        <_>
          <internalNodes>
            0 -1 8 -2097414 -41946113 -78382854 -6554886 -1312002
            -4223554 -18874369 -257</internalNodes>
          <leafValues>
            -9.3966865539550781e-01 6.3420319557189941e-01</leafValues></_>
        <_>
          <internalNodes>
            0 -1 24 -269488434 -2109457 -552669713 -1055233 -340013073
            -1316165 -341839953 -2101297</internalNodes>
          <leafValues>
            -8.7408185005187988e-01 5.9256863594055176e-01</leafValues></_>
        <_>
          <internalNodes>
            0 -1 74 -545792256 -671941758 -8565484 -2099433 -85988353
            -4204033 -541065442 -1048693</internalNodes>
          <leafValues>
            -8.3732330799102783e-01 5.3080290555953979e-01</leafValues></_></weakClassifiers></_>
    <!-- stage 1 -->
    <_>
      <maxWeakCount>3</maxWeakCount>
      <stageThreshold>-1.0234757661819458e+00</stageThreshold>
      <weakClassifiers>
        <_>
          <internalNodes>
            0 -1 12 -294654209 -285185 -281020417 -4865 -822871041
            -281857 -1883373569 -805306401</internalNodes>
          <leafValues>
            -8.3056765794754028e-01 6.3246071338653564e-01</leafValues></_>
        <_>
          <internalNodes>
            0 -1 26 -65542 -2099202 -552689736 -1078280774 -17 -293889
            -9217 -4457473</internalNodes>
          <leafValues>
            -8.6082190275192261e-01 4.8370641469955444e-01</leafValues></_>
        <_>
          <internalNodes>
            0 -1 61 -12583149 -6292200 -39846081 -12591299 -4195397
            -67109653 -79970369 -13680885</internalNodes>
          <leafValues>
            -6.5735614299774170e-01 6.6791385412216187e-01</leafValues></_></weakClassifiers></_>
    <!-- stage 2 -->
    <_>
      <maxWeakCount>5</maxWeakCount>
      <stageThreshold>-1.4105889797210693e+00</stageThreshold>
      <weakClassifiers>
        <_>
          <internalNodes>
            0 -1 41 1970601981 -143264801 -268289 -9281 -136193 -939617
            -69206017 -131077</internalNodes>
          <leafValues>
            -8.0872792005538940e-01 4.5789971947669983e-01</leafValues></_>
        <_>
          <internalNodes>
            0 -1 16 -144704518 -2124289 1670958648 -8651718 -106184705
            -17477 -810688773 -12854017</internalNodes>
          <leafValues>
            -8.1716656684875488e-01 4.3805497884750366e-01</leafValues></_>
        <_>
          <internalNodes>
            0 -1 69 -7340798 -9446610 -70256641 -1573073 -107219266
            -3146161 -842011478 -5243094</internalNodes>
          <leafValues>
            -7.6008552312850952e-01 4.6544966101646423e-01</leafValues></_>
        <_>
          <internalNodes>
            0 -1 35 850399737 -44623536 286515199 1530598781 -1298466562
            -1111546411 453687805 187368677</internalNodes>
          <leafValues>
            -6.8405938148498535e-01 5.2305728197097778e-01</leafValues></_>
        <_>
          <internalNodes>
            0 -1 19 -285217042 -45103249 -560129 -9310326 -1355034993
            -889224525 -351540242 -856699324</internalNodes>
          <leafValues>
            -7.2174125909805298e-01 4.3391519784927368e-01</leafValues></_></weakClassifiers></_>
    <!-- stage 3 -->
    <_>
      <maxWeakCount>6</maxWeakCount>
      <stageThreshold>-1.8859847784042358e+00</stageThreshold>
      <weakClassifiers>
        <_>
          <internalNodes>
            0 -1 13 -269488129 -2784771 -472907777 -536891425
            -1342177281 -71582533 -1946157057 -268436485</internalNodes>
          <leafValues>
            -7.4970239400863647e-01 4.4030225276947021e-01</leafValues></_>
        <_>
          <internalNodes>
            0 -1 66 -1075838978 -6573057 -549668 -2098181 -71304964
            -71320642 435095772 -8225</internalNodes>
          <leafValues>
            -7.3008877038955688e-01 4.3406963348388672e-01</leafValues></_>
        <_>
          <internalNodes>
            0 -1 43 928479231 1901428599 -7536641 1944059743 872937215
            1916270079 995622911 2134376447</internalNodes>
          <leafValues>
            -7.5726062059402466e-01 4.1417086124420166e-01</leafValues></_>
        <_>
          <internalNodes>
            0 -1 15 -537403393 -2359809 -551879490 1597176574 -607391809
            -4487105 -4457473 -15991041</internalNodes>
          <leafValues>
            -6.3693398237228394e-01 4.7843867540359497e-01</leafValues></_>
        <_>
          <internalNodes>
            0 -1 82 -1 163047263 -674512033 -36203533 1541363799
            1031488811 1979405269 3372851</internalNodes>
          <leafValues>
            -5.9563094377517700e-01 4.7831323742866516e-01</leafValues></_>
        <_>
          <internalNodes>
            0 -1 60 -2112868164 -11269776 2130826751 1595211924
            -1715032581 -1129557080 -1908433185 732432632</internalNodes>
          <leafValues>
            -7.0701622962951660e-01 4.1220045089721680e-01</leafValues></_></weakClassifiers></_>
    <!-- stage 4 -->
    <_>
      <maxWeakCount>6</maxWeakCount>
      <stageThreshold>-7.9184442758560181e-01</stageThreshold>
      <weakClassifiers>
        <_>
          <internalNodes>
            0 -1 22 -285217537 -8914537 -2621953 -2102849 -308412417
            -3437157 -270533633 -285225729</internalNodes>
          <leafValues>
            -6.9378268718719482e-01 3.9043614268302917e-01</leafValues></_>
        <_>
          <internalNodes>
            0 -1 77 -134744233 -2632841 -639805569 -9307081 -77470089
            -12649869 -491003305 -227281037</internalNodes>
          <leafValues>
            -6.9347554445266724e-01 4.2606124281883240e-01</leafValues></_>
        <_>
          <internalNodes>
            0 -1 17 -10518529 -8421921 -274817025 489857274 -1144289793
            -4488993 -6300673 -282341633</internalNodes>
          <leafValues>
            -5.6045472621917725e-01 5.0640761852264404e-01</leafValues></_>
        <_>
          <internalNodes>
            0 -1 64 270012661 -608692107 -136585217 1608474109
            -1315397953 -288321 -1782924293 465051129</internalNodes>
          <leafValues>
            -6.4408308267593384e-01 4.3311524391174316e-01</leafValues></_>
        <_>
          <internalNodes>
            0 -1 49 -212075264 -210509047 -67961862 -35916033 -212470016
            1953595861 -15738506 -168429063</internalNodes>
          <leafValues>
            -7.0517784357070923e-01 3.7634971737861633e-01</leafValues></_>
        <_>
          <internalNodes>
            0 -1 21 -18 -16844000 -33689105 -16811550 -1146426418
            -7538532 -273948178 -1049660</internalNodes>
          <leafValues>
            -7.1449518203735352e-01 3.6106875538825989e-01</leafValues></_></weakClassifiers></_>
    <!-- stage 5 -->
    <_>
      <maxWeakCount>8</maxWeakCount>
      <stageThreshold>-1.8951253890991211e+00</stageThreshold>
      <weakClassifiers>
        <_>
          <internalNodes>
            0 -1 38 1968699391 -167774209 -272389 -2359373 -1241776705
            -235167351 -1141182533 -1537</internalNodes>
          <leafValues>
            -6.3638782501220703e-01 4.7146010398864746e-01</leafValues></_>
        <_>
          <internalNodes>
            0 -1 1 -43009 -2362529 -578554017 -703071141 -113550753
            1265335847 -74449921 2004320115</internalNodes>
          <leafValues>
            -5.2847087383270264e-01 5.1892578601837158e-01</leafValues></_>
        <_>
          <internalNodes>
            0 -1 50 -203425793 -2120195 -34635785 -2138145 -1 -462339
            -40043011 -1649912355</internalNodes>
          <leafValues>
            -6.2086278200149536e-01 4.3026527762413025e-01</leafValues></_>
        <_>
          <internalNodes>
            0 -1 71 -262398 -1634864284 -975184546 -540279481 -912195857
            -1879388929 -899155217 -5243345</internalNodes>
          <leafValues>
            -6.6033977270126343e-01 3.3138599991798401e-01</leafValues></_>
        <_>
          <internalNodes>
            0 -1 65 -1543769704 1640739733 -78031276 -78019623
            -1433159236 -341202181 187287976 530255896</internalNodes>
          <leafValues>
            -6.6094088554382324e-01 3.3710911870002747e-01</leafValues></_>
        <_>
          <internalNodes>
            0 -1 30 -389617938 -8281663 -372905297 -139187 673180141
            -13605733 -206974993 -2098245</internalNodes>
          <leafValues>
            -6.3006544113159180e-01 3.3577466011047363e-01</leafValues></_>
        <_>
          <internalNodes>
            0 -1 10 -6294149 -547384929 177553978 792692786 474189563
            -1142320975 -1354781697 790826138</internalNodes>
          <leafValues>
            -6.4190405607223511e-01 2.9721632599830627e-01</leafValues></_>
        <_>
          <internalNodes>
            0 -1 81 -2621705 2012715390 -1846830177 -1277428897
            -608019459 -172348894 -470582273 16200743</internalNodes>
          <leafValues>
            -5.2484768629074097e-01 3.6716973781585693e-01</leafValues></_></weakClassifiers></_>
    <!-- stage 6 -->
    <_>
      <maxWeakCount>8</maxWeakCount>
      <stageThreshold>-1.0954637527465820e+00</stageThreshold>
      <weakClassifiers>
        <_>
          <internalNodes>
            0 -1 20 -268964097 -14833705 -244190727 -612392717
            -1409287429 -4654147 -1929641989 -807683589</internalNodes>
          <leafValues>
            -7.1980035305023193e-01 2.2136752307415009e-01</leafValues></_>
        <_>
          <internalNodes>
            0 -1 33 -1413218817 -34472491 -611222177 2139059551
            -1432642820 -1413775112 465242296 522912776</internalNodes>
          <leafValues>
            -6.3157320022583008e-01 3.0956640839576721e-01</leafValues></_>
        <_>
          <internalNodes>
            0 -1 48 -252723198 1627899658 -489561470 -224012185
            -210512122 1195870211 -487606649 -201326753</internalNodes>
          <leafValues>
            -5.0612384080886841e-01 4.0101969242095947e-01</leafValues></_>
        <_>
          <internalNodes>
            0 -1 31 831000817 366149748 -1088561667 488571101
            -1701667077 -1114007399 -1288126465 188351676</internalNodes>
          <leafValues>
            -5.7613605260848999e-01 3.7670460343360901e-01</leafValues></_>
        <_>
          <internalNodes>
            0 -1 78 -67108906 -614494137 870316568 -100999237 1453850368
            -4462027 -1010871232 -17303689</internalNodes>
          <leafValues>
            -6.8548065423965454e-01 2.9702928662300110e-01</leafValues></_>
        <_>
          <internalNodes>
            0 -1 2 -555745281 1962467295 -148910021 852486903 -355736577
            983517603 -677643057 812989941</internalNodes>
          <leafValues>
            -5.9610176086425781e-01 3.3196878433227539e-01</leafValues></_>
        <_>
          <internalNodes>
            0 -1 56 -1286 -795610942 -729490690 -774913305 -146407852
            -200871419 -878460961 -589037857</internalNodes>
          <leafValues>
            -4.6860495209693909e-01 3.9887568354606628e-01</leafValues></_>
        <_>
          <internalNodes>
            0 -1 42 1965380887 -168441387 2140003839 -211628129
            -176822851 -185327481 2106523305 -50988065</internalNodes>
          <leafValues>
            -5.0126588344573975e-01 3.7259322404861450e-01</leafValues></_></weakClassifiers></_>
    <!-- stage 7 -->
    <_>
      <maxWeakCount>10</maxWeakCount>
      <stageThreshold>-1.2893720865249634e+00</stageThreshold>
      <weakClassifiers>
        <_>
          <internalNodes>
            0 -1 23 -211848321 1067070234 -752922145 857347454
            -939267917 -4483025 -1709576961 -5121</internalNodes>
          <leafValues>
            -7.0978897809982300e-01 1.6585166752338409e-01</leafValues></_>
        <_>
          <internalNodes>
            0 -1 63 270536953 -1311763371 1494684127 1599804799
            -1590118149 -1280671573 990444543 1069226747</internalNodes>
          <leafValues>
            -6.4587336778640747e-01 3.0502587556838989e-01</leafValues></_>
        <_>
          <internalNodes>
            0 -1 0 -32801 -208407685 -699706929 -3521277 1965229147
            -631041673 -338183817 1936941907</internalNodes>
          <leafValues>
            -4.7888064384460449e-01 4.3248963356018066e-01</leafValues></_>
        <_>
          <internalNodes>
            0 -1 75 606856085 1979186623 -1073741953 -49161 -1364468231
            -1418772481 549323000 -1073758273</internalNodes>
          <leafValues>
            -4.2827773094177246e-01 4.7305178642272949e-01</leafValues></_>
        <_>
          <internalNodes>
            0 -1 29 -287314226 -141335708 -147631809 2066968666
            -271537686 -7102237 -501749249 -353637150</internalNodes>
          <leafValues>
            -7.1819961071014404e-01 2.8992581367492676e-01</leafValues></_>
        <_>
          <internalNodes>
            0 -1 73 -563423229 -1557213116 -728184353 -818360575
            -1979852609 -91733921 -927078161 -1893050358</internalNodes>
          <leafValues>
            -5.5851960182189941e-01 3.2114517688751221e-01</leafValues></_>
        <_>
          <internalNodes>
            0 -1 32 1901054730 1930908661 -311500978 -10273 -1324469244
            873590864 -1425022993 -105262593</internalNodes>
          <leafValues>
            -5.9619200229644775e-01 2.7363279461860657e-01</leafValues></_>
        <_>
          <internalNodes>
            0 -1 59 -2121206287 -572995124 -552089345 490248285
            -2053115137 -1096238632 261869247 -1895133991</internalNodes>
          <leafValues>
            -4.3518644571304321e-01 4.1923651099205017e-01</leafValues></_>
        <_>
          <internalNodes>
            0 -1 14 2018955450 -553433315 1095778826 -14949871
            -2144352577 -347406328 -929190177 -9467269</internalNodes>
          <leafValues>
            -6.7161107063293457e-01 2.7264377474784851e-01</leafValues></_>
        <_>
          <internalNodes>
            0 -1 55 -163582230 1369825410 1145302212 -990952250
            -144049921 -1809784623 -434971909 -538994437</internalNodes>
          <leafValues>
            -4.4425159692764282e-01 4.0236961841583252e-01</leafValues></_></weakClassifiers></_>
    <!-- stage 8 -->
    <_>
      <maxWeakCount>11</maxWeakCount>
      <stageThreshold>-1.6995013952255249e+00</stageThreshold>
      <weakClassifiers>
        <_>
          <internalNodes>
            0 -1 6 -1093921 -2100225 -239870177 -141625601 1528244063
            1795908875 -7376897 2004318055</internalNodes>
          <leafValues>
            -6.6747742891311646e-01 1.1187677085399628e-01</leafValues></_>
        <_>
          <internalNodes>
            0 -1 47 807403992 -115405712 425475583 521870621 -1339368962
            -1131868936 211474943 196021501</internalNodes>
          <leafValues>
            -6.8649309873580933e-01 2.2130124270915985e-01</leafValues></_>
        <_>
          <internalNodes>
            0 -1 27 2044327807 -2337322 -539108417 -585434882
            -1517579333 -1145102197 -339094785 -8663809</internalNodes>
          <leafValues>
            -4.1193982958793640e-01 3.9557468891143799e-01</leafValues></_>
        <_>
          <internalNodes>
            0 -1 52 -210242046 1375727102 -351968722 -7683 1611875139
            4351746 -957652049 -403177473</internalNodes>
          <leafValues>
            -4.9469166994094849e-01 3.4170016646385193e-01</leafValues></_>
        <_>
          <internalNodes>
            0 -1 84 -1107312641 557723526 -1073872897 1073217535
            -50864641 -1174470785 494399380 -1933574657</internalNodes>
          <leafValues>
            -3.2276526093482971e-01 5.0421422719955444e-01</leafValues></_>
        <_>
          <internalNodes>
            0 -1 18 -364189441 -65566445 -1954300583 -1355635310
            -392508465 -280385489 -1470624581 -1930443688</internalNodes>
          <leafValues>
            -4.7611171007156372e-01 3.4177014231681824e-01</leafValues></_>
        <_>
          <internalNodes>
            0 -1 70 -537199358 -1616151225 -761937793 -723806345
            -2136303185 -369426177 -936576794 -299147997</internalNodes>
          <leafValues>
            -6.5592408180236816e-01 2.1334390342235565e-01</leafValues></_>
        <_>
          <internalNodes>
            0 -1 39 -639866896 1609180273 -171614721 2146924925
            933791164 -101449540 172108271 453509368</internalNodes>
          <leafValues>
            -5.7909321784973145e-01 2.5300434231758118e-01</leafValues></_>
        <_>
          <internalNodes>
            0 -1 36 -621938974 -571500643 -245925920 -680455 -338975520
            -139357068 -137765932 -182420035</internalNodes>
          <leafValues>
            -6.5196770429611206e-01 2.2619982063770294e-01</leafValues></_>
        <_>
          <internalNodes>
            0 -1 54 716049034 -739112826 -1254883027 488318111
            -1366824258 -358674423 734823343 -807408929</internalNodes>
          <leafValues>
            -6.6379916667938232e-01 2.2236113250255585e-01</leafValues></_>
        <_>
          <internalNodes>
            0 -1 5 -268509217 -373964801 -9 -1062039698 1196912242
            -76284585 -277618733 -411897993</internalNodes>
          <leafValues>
            -3.6021408438682556e-01 4.3939960002899170e-01</leafValues></_></weakClassifiers></_>
    <!-- stage 9 -->
    <_>
      <maxWeakCount>13</maxWeakCount>
      <stageThreshold>-1.8383581638336182e+00</stageThreshold>
      <weakClassifiers>
        <_>
          <internalNodes>
            0 -1 3 -1 -73673833 -514599073 -29173938 1934041947
            -266908413 -205029641 -143167641</internalNodes>
          <leafValues>
            -5.6478089094161987e-01 2.6303103566169739e-01</leafValues></_>
        <_>
          <internalNodes>
            0 -1 25 -299372801 -823269128 -431984583 -947797551
            -363725825 -285689808 -254422309 -811601673</internalNodes>
          <leafValues>
            -5.5226641893386841e-01 2.8094109892845154e-01</leafValues></_>
        <_>
          <internalNodes>
            0 -1 46 -3341 1978781813 1904082399 -34095681 -226020107
            -250109852 -1181247489 -571170305</internalNodes>
          <leafValues>
            -3.9238551259040833e-01 3.8942578434944153e-01</leafValues></_>
        <_>
          <internalNodes>
            0 -1 80 -1 -217659821 -1727738409 -1227174529 -6109193
            -30414281 -460988481 83326835</internalNodes>
          <leafValues>
            -4.2925551533699036e-01 3.5898721218109131e-01</leafValues></_>
        <_>
          <internalNodes>
            0 -1 37 -302254341 -1349488608 -782107721 1998280799
            -1399528102 -1438887919 143252461 521296953</internalNodes>
          <leafValues>
            -4.1243988275527954e-01 3.3555325865745544e-01</leafValues></_>
        <_>
          <internalNodes>
            0 -1 11 -1970491401 -15553419 -1451166211 -1450991496
            -1923052559 -1416519535 583395515 -1880684351</internalNodes>
          <leafValues>
            -5.5153405666351318e-01 2.1026659011840820e-01</leafValues></_>
        <_>
          <internalNodes>
            0 -1 67 -85332086 -1477689108 1359585548 166466964 -22238225
            -1682340615 -359954149 -1165132380</internalNodes>
          <leafValues>
            -4.7365549206733704e-01 2.8493225574493408e-01</leafValues></_>
        <_>
          <internalNodes>
            0 -1 53 -26284406 1805895743 -364975372 1389815918
            1075277320 1735621201 853796287 -160170441</internalNodes>
          <leafValues>
            -4.3738004565238953e-01 3.0976894497871399e-01</leafValues></_>
        <_>
          <internalNodes>
            0 -1 76 -1607787529 1458929659 -36931 2113896445 1035934705
            2112872445 348325113 -272642689</internalNodes>
          <leafValues>
            -3.3269238471984863e-01 3.8906189799308777e-01</leafValues></_>
        <_>
          <internalNodes>
            0 -1 58 -104153506 -11031222 -123548663 1561177221
            -2074950001 -280588787 -1836392817 -850408443</internalNodes>
          <leafValues>
            -3.3918526768684387e-01 3.9021751284599304e-01</leafValues></_>
        <_>
          <internalNodes>
            0 -1 44 269956095 287098111 1020354015 1967242463 841037479
            525347433 794819307 2146426843</internalNodes>
          <leafValues>
            -6.2983828783035278e-01 2.2423601150512695e-01</leafValues></_>
        <_>
          <internalNodes>
            0 -1 9 -16832821 -574636241 -268443905 -1528649942
            1165456997 2138554231 -409813773 -815272077</internalNodes>
          <leafValues>
            -3.2325765490531921e-01 4.2135953903198242e-01</leafValues></_>
        <_>
          <internalNodes>
            0 -1 83 -167782915 70139710 -1 -1862533385 -17369090
            1824391164 -319214028 -1529349002</internalNodes>
          <leafValues>
            -3.4362363815307617e-01 4.0408176183700562e-01</leafValues></_></weakClassifiers></_>
    <!-- stage 10 -->
    <_>
      <maxWeakCount>13</maxWeakCount>
      <stageThreshold>-1.3559494018554688e+00</stageThreshold>
      <weakClassifiers>
        <_>
          <internalNodes>
            0 -1 79 -36438185 -170397745 -635400833 -539784157
            -884545313 -628520821 -337663265 -795273</internalNodes>
          <leafValues>
            -5.6892591714859009e-01 1.8035426735877991e-01</leafValues></_>
        <_>
          <internalNodes>
            0 -1 51 -1027358198 541508450 53312 1651462815 1380442692
            1162520589 37999591 1115681403</internalNodes>
          <leafValues>
            -5.9574156999588013e-01 2.3025317490100861e-01</leafValues></_>
        <_>
          <internalNodes>
            0 -1 4 -604289281 -81824933 -215252993 -698959782 1769044063
            457656835 -206876705 1936869139</internalNodes>
          <leafValues>
            -5.1303327083587646e-01 2.7361398935317993e-01</leafValues></_>
        <_>
          <internalNodes>
            0 -1 62 -1432093544 -768336524 1997928957 2098024829
            -1427592277 -1196375848 -1416717633 255331512</internalNodes>
          <leafValues>
            -5.5648618936538696e-01 2.6515519618988037e-01</leafValues></_>
        <_>
          <internalNodes>
            0 -1 40 292255511 1891347359 -1959311181 2039144771
            -1259667521 -189216013 1040962491 444046514</internalNodes>
          <leafValues>
            -5.6274777650833130e-01 2.3884035646915436e-01</leafValues></_>
        <_>
          <internalNodes>
            0 -1 85 -33554433 213183037 -33554497 -2375937 -457181185
            -1115684993 -847266386 -1996491570</internalNodes>
          <leafValues>
            -2.6695182919502258e-01 5.1598238945007324e-01</leafValues></_>
        <_>
          <internalNodes>
            0 -1 45 -1064900470 1151454662 907931658 -754988459
            -224663544 1075666180 -222311798 -171975317</internalNodes>
          <leafValues>
            -4.3509817123413086e-01 2.9095441102981567e-01</leafValues></_>
        <_>
          <internalNodes>
            0 -1 28 -249602182 530104496 -720562984 1066949654
            -1063010125 -1613791077 302701963 -336859409</internalNodes>
          <leafValues>
            -4.5270052552223206e-01 2.7994325757026672e-01</leafValues></_>
        <_>
          <internalNodes>
            0 -1 68 -1283398262 -1694465040 1367985280 -1780889848
            -1732587825 -353313640 -1463493413 -565060705</internalNodes>
          <leafValues>
            -4.2621612548828125e-01 3.0966979265213013e-01</leafValues></_>
        <_>
          <internalNodes>
            0 -1 57 -71379750 1609870926 25429003 421331456 401332478
            -540180545 -1070445617 -540193522</internalNodes>
          <leafValues>
            -3.4434807300567627e-01 3.8031968474388123e-01</leafValues></_>
        <_>
          <internalNodes>
            0 -1 34 -2026868399 -1663088175 -69730913 -1342225000
            -1979666692 -1079979840 672595452 -1891693507</internalNodes>
          <leafValues>
            -4.1771635413169861e-01 3.0547609925270081e-01</leafValues></_>
        <_>
          <internalNodes>
            0 -1 7 -337907969 -142889025 -1118209 -634765638 1148596527
            2130173949 -1573401 -145227913</internalNodes>
          <leafValues>
            -2.6235365867614746e-01 4.8252514004707336e-01</leafValues></_>
        <_>
          <internalNodes>
            0 -1 72 -1937057347 344775088 469778675 2090021211
            -1415594499 510199812 704645288 964931619</internalNodes>
          <leafValues>
            -3.8869905471801758e-01 3.4047269821166992e-01</leafValues></_></weakClassifiers></_></stages>
  <features>
    <_>
      <rect>
        0 0 1 4</rect></_>
    <_>
      <rect>
        0 0 2 5</rect></_>
    <_>
      <rect>
        0 0 4 5</rect></_>
    <_>
      <rect>
        0 1 1 3</rect></_>
    <_>
      <rect>
        0 1 2 5</rect></_>
    <_>
      <rect>
        0 2 1 2</rect></_>
    <_>
      <rect>
        0 4 2 4</rect></_>
    <_>
      <rect>
        0 5 1 2</rect></_>
    <_>
      <rect>
        0 5 18 3</rect></_>
    <_>
      <rect>
        0 7 1 2</rect></_>
    <_>
      <rect>
        0 7 18 3</rect></_>
    <_>
      <rect>
        1 0 10 2</rect></_>
    <_>
      <rect>
        1 1 14 3</rect></_>
    <_>
      <rect>
        1 2 13 2</rect></_>
    <_>
      <rect>
        1 6 18 3</rect></_>
    <_>
      <rect>
        1 8 13 2</rect></_>
    <_>
      <rect>
        1 8 18 2</rect></_>
    <_>
      <rect>
        1 9 14 2</rect></_>
    <_>
      <rect>
        2 0 5 2</rect></_>
    <_>
      <rect>
        2 0 8 3</rect></_>
    <_>
      <rect>
        2 1 15 3</rect></_>
    <_>
      <rect>
        2 2 18 3</rect></_>
    <_>
      <rect>
        3 1 5 2</rect></_>
    <_>
      <rect>
        3 9 6 2</rect></_>
    <_>
      <rect>
        4 3 8 2</rect></_>
    <_>
      <rect>
        4 3 14 2</rect></_>
    <_>
      <rect>
        4 5 8 3</rect></_>
    <_>
      <rect>
        4 8 14 2</rect></_>
    <_>
      <rect>
        5 9 6 2</rect></_>
    <_>
      <rect>
        6 0 6 4</rect></_>
    <_>
      <rect>
        6 5 7 1</rect></_>
    <_>
      <rect>
        10 2 7 1</rect></_>
    <_>
      <rect>
        10 5 6 2</rect></_>
    <_>
      <rect>
        10 10 15 2</rect></_>
    <_>
      <rect>
        11 2 4 1</rect></_>
    <_>
      <rect>
        11 2 9 1</rect></_>
    <_>
      <rect>
        11 7 6 2</rect></_>
    <_>
      <rect>
        11 12 12 1</rect></_>
    <_>
      <rect>
        12 2 7 3</rect></_>
    <_>
      <rect>
        12 12 7 1</rect></_>
    <_>
      <rect>
        13 2 6 3</rect></_>
    <_>
      <rect>
        13 2 7 4</rect></_>
    <_>
      <rect>
        13 3 6 3</rect></_>
    <_>
      <rect>
        13 3 7 2</rect></_>
    <_>
      <rect>
        13 4 7 1</rect></_>
    <_>
      <rect>
        13 6 1 1</rect></_>
    <_>
      <rect>
        13 6 7 2</rect></_>
    <_>
      <rect>
        15 2 8 1</rect></_>
    <_>
      <rect>
        15 6 1 1</rect></_>
    <_>
      <rect>
        15 6 4 2</rect></_>
    <_>
      <rect>
        15 9 6 2</rect></_>
    <_>
      <rect>
        16 5 1 2</rect></_>
    <_>
      <rect>
        17 6 2 1</rect></_>
    <_>
      <rect>
        18 7 1 1</rect></_>
    <_>
      <rect>
        20 4 6 1</rect></_>
    <_>
      <rect>
        21 5 3 2</rect></_>
    <_>
      <rect>
        21 6 2 2</rect></_>
    <_>
      <rect>
        21 6 7 1</rect></_>
    <_>
      <rect>
        22 8 6 1</rect></_>
    <_>
      <rect>
        22 11 7 1</rect></_>
    <_>
      <rect>
        23 12 6 1</rect></_>
    <_>
      <rect>
        25 0 10 3</rect></_>
    <_>
      <rect>
        25 12 7 1</rect></_>
    <_>
      <rect>
        26 3 7 1</rect></_>
    <_>
      <rect>
        28 2 6 1</rect></_>
    <_>
      <rect>
        28 11 8 1</rect></_>
    <_>
      <rect>
        31 6 8 3</rect></_>
    <_>
      <rect>
        34 4 5 3</rect></_>
    <_>
      <rect>
        34 5 5 2</rect></_>
    <_>
      <rect>
        35 0 6 4</rect></_>
    <_>
      <rect>
        35 2 6 2</rect></_>
    <_>
      <rect>
        35 3 6 2</rect></_>
    <_>
      <rect>
        35 13 7 1</rect></_>
    <_>
      <rect>
        36 1 6 2</rect></_>
    <_>
      <rect>
        36 3 5 3</rect></_>
    <_>
      <rect>
        39 10 5 2</rect></_>
    <_>
      <rect>
        42 10 4 2</rect></_>
    <_>
      <rect>
        43 1 4 3</rect></_>
    <_>
      <rect>
        43 6 3 2</rect></_>
    <_>
      <rect>
        46 0 2 3</rect></_>
    <_>
      <rect>
        47 0 3 4</rect></_>
    <_>
      <rect>
        47 0 3 5</rect></_>
    <_>
      <rect>
        47 1 3 5</rect></_>
    <_>
      <rect>
        53 3 1 2</rect></_>
    <_>
      <rect>
        53 3 1 4</rect></_>
    <_>
      <rect>
        53 5 1 2</rect></_></features></cascade>
</opencv_storage>
