layers 11
layer 0 Convolution2D
32 1 3 3 valid
[-0.3453446  -0.33515775 -0.1768797 ]
[-0.23016052 -0.06559725  0.07166614]
[ 0.53151035  0.48151144  0.07146579]
[-0.28927314 -0.26302263  0.31412777]
[-0.36643687  0.00877656  0.4001168 ]
[-0.17353629 -0.15093443  0.47823262]
[ 0.41747734  0.41074583 -0.01315613]
[-0.25990814 -0.11658721  0.03092868]
[-0.24965285 -0.26399818  0.02438725]
[-0.63308203 -0.64738315 -0.57166916]
[ 0.14667328 -0.11759458  0.11417781]
[ 0.48726878  0.4024989   0.5807991 ]
[ 0.27905679 -0.19004589 -0.36414906]
[ 0.48755515 -0.06017607 -0.42401591]
[ 0.46533218  0.08719905 -0.29134715]
[-0.56954503 -0.27517006 -0.04193107]
[ 0.20513521  0.01758824  0.00558607]
[ 0.45695353  0.23759906 -0.04988877]
[-0.03267574 -0.32402897 -0.32338724]
[ 0.44396907  0.1230094  -0.39208734]
[ 0.50906253  0.22317618 -0.22943628]
[ 0.25841033  0.43305901  0.29399556]
[ 0.19077064  0.23131724 -0.13045155]
[-0.11830196 -0.55581266 -0.49910927]
[ 0.26425606  0.32441267  0.34026676]
[ 0.10345905  0.25458559 -0.07237278]
[-0.4107863  -0.49283418 -0.30883259]
[ 0.10743715  0.06126139 -0.14361724]
[ 0.11349596  0.00296402 -0.11585445]
[ 0.07334494  0.08244654  0.04609545]
[-0.00067907  0.00450914 -0.08861226]
[-0.01127794 -0.00669546 -0.05759451]
[-0.03194468 -0.11830109 -0.13427815]
[ 0.52720451  0.01271428  0.04121885]
[ 0.47271964 -0.08925117 -0.32229331]
[ 0.18748051 -0.58414489 -0.24577649]
[-0.09337948  0.15768731 -0.09475998]
[ 0.10097855  0.14129269  0.18934615]
[ 0.03149004  0.14298445  0.05918487]
[-0.0817117  -0.67533326 -0.31126991]
[-0.08162294  0.12946172  0.00025882]
[ 0.07073718  0.60966355  0.33807796]
[ 0.18100509  0.33018684 -0.2810778 ]
[ 0.11725776  0.24112652 -0.29495311]
[ 0.08910611  0.13358755 -0.51871186]
[-0.53771138  0.14835924  0.11157262]
[-0.39692709  0.33214149  0.10040495]
[-0.36028993  0.40193877  0.16331378]
[ 0.62916827  0.21299994 -0.30394387]
[ 0.39161623 -0.15161231 -0.35992277]
[ 0.05782602 -0.44037151 -0.11485299]
[ 0.0388125   0.04624246 -0.03460832]
[ 0.08736003  0.09280192  0.02947569]
[ 0.05870699  0.07236222 -0.01666665]
[-0.37927479 -0.43706477 -0.21207307]
[ 0.07577933  0.11948323 -0.10539738]
[ 0.2843782   0.38112894  0.27381465]
[-0.44114515 -0.10748706  0.36936218]
[-0.41430622  0.07667379  0.27518207]
[-0.37765095  0.1329519   0.45491463]
[ 0.31305537  0.48635322  0.10887969]
[ 0.04694174 -0.02917881 -0.14417267]
[-0.34636825 -0.44566613 -0.05542315]
[-0.42978022 -0.46835178 -0.05333404]
[-0.0409681   0.09379666 -0.09950956]
[ 0.44787657  0.46144554  0.07906427]
[ 0.07034352  0.47684518  0.38797528]
[-0.17052063 -0.0275903   0.27292976]
[-0.23358445 -0.4362196  -0.31216127]
[ 0.39656702 -0.02147618 -0.34479791]
[ 0.51014727 -0.17584971 -0.27358463]
[ 0.43525138 -0.25224471 -0.26656309]
[-0.55870003 -0.27591056  0.14996448]
[-0.38170147  0.27352041  0.22054346]
[-0.09687065  0.43709186  0.25175923]
[-0.48666543 -0.38920218 -0.05467661]
[ 0.03615345  0.10283157 -0.0873613 ]
[ 0.43317401  0.36221272  0.09253798]
[ 0.3913452   0.31736618  0.1343365 ]
[-0.15556742  0.04515123 -0.03109805]
[-0.29752466 -0.28790629 -0.13616517]
[ 0.08924767  0.48921287  0.43146536]
[-0.14220157 -0.05243877  0.06177258]
[-0.11238172 -0.37665319 -0.39497867]
[-0.27164546 -0.08459196  0.49723461]
[-0.22716156 -0.00725737  0.31989771]
[-0.42482242  0.04655654  0.12310306]
[-0.2335521   0.37038058  0.38945705]
[-0.36047587  0.01435239  0.30903339]
[-0.23665449 -0.25025845  0.00703533]
[-0.28987917 -0.41593853 -0.12744243]
[ 0.37387136 -0.18383756 -0.14345561]
[ 0.47809732  0.31894261 -0.01371252]
[ 0.01142401  0.11011907  0.12544392]
[ 0.12835698  0.19244872  0.1447365 ]
[ 0.09630926  0.02198987 -0.1719209 ]
[-0.00464762  0.00510389  0.00871837 -0.09850946 -0.00360554  0.00884594
 -0.01527806 -0.08776436 -0.01616602 -0.03418036 -0.00481009 -0.01712619
 -0.44765154 -0.00232585 -0.00408854  0.00498557 -0.00512156 -0.09536082
 -0.00531821  0.01835853  0.02806614  0.00656248 -0.02970171 -0.00650487
 -0.02775787 -0.00747599  0.00242196 -0.00770497  0.02007236 -0.02035573
 -0.01036597 -0.32761839]
layer 1 Activation
relu
layer 2 MaxPooling2D
2 2
layer 3 Dropout
layer 4 Convolution2D
32 32 3 3 valid
[-0.54487205 -0.02852613  0.45320186]
[-0.43420744  0.19540967  0.50514805]
[-0.07806759 -0.13141119  0.3460879 ]
[-0.18616158 -0.95184058 -0.5726009 ]
[-0.04555095 -1.16568887 -1.0712471 ]
[ 0.14904322 -0.76137775 -0.80765784]
[-0.05587467 -0.19917019 -0.01340417]
[-0.06242655  0.07997379 -0.23287898]
[-0.05822576 -0.13883242  0.21806745]
[-0.75975478 -0.4835225   0.05099455]
[-0.6110248  -0.09452231  0.30710462]
[ 0.00124979  0.18510287  0.26697996]
[-0.01323154  0.15846717  0.1083908 ]
[-0.36092025 -0.23813178  0.15679014]
[-0.10440914 -0.29738498 -0.06956196]
[-0.59398103  0.15146312  0.33791879]
[-0.61896539 -0.08121715  0.51546931]
[-0.21019755 -0.41406515  0.02968852]
[-0.31152487  0.11420786  0.14996712]
[-0.73946893 -0.41440341  0.3101877 ]
[-0.46503234 -0.52061903 -0.16014351]
[-0.17156464 -0.21552397  0.04561137]
[-0.09802426 -0.07462654 -0.01160186]
[-0.24850436  0.11315276  0.18098049]
[-0.10238935 -0.12516542  0.15566823]
[ 0.09642973  0.21503226  0.22239806]
[-0.20582905  0.09016163  0.17301996]
[ 0.17836636  0.21298413  0.18562996]
[ 0.08312394  0.06718811  0.25424385]
[ 0.05557217  0.13798931  0.14493985]
[-0.07540319  0.02639785  0.04532725]
[ 0.02257249 -0.05277881 -0.07737003]
[ 0.09460741  0.00892574  0.02699138]
[-0.49551463  0.1111363   0.04999546]
[-0.56674057 -0.63113862 -0.12820294]
[-0.2959953  -0.00638816  0.04249191]
[-0.096778   -0.1469495  -0.21533446]
[-0.16813569 -0.14931425  0.06014113]
[-0.24573787 -0.15299892 -0.08918325]
[-0.58436137  0.18946528  0.35933039]
[-0.4883166   0.30053619  0.50294685]
[-0.1755842   0.09864018  0.11674961]
[ 0.22767234  0.0687159  -0.00067178]
[-0.12769839 -0.27279338  0.18854012]
[-0.10306633 -0.08257599  0.04269686]
[-0.16947402 -0.8859697  -0.60752964]
[-0.09626587 -0.89607745 -1.38483298]
[ 0.07682028 -0.40913463 -1.23736572]
[-0.39751181  0.17735261  0.04064579]
[-0.7216562  -0.6451515  -0.02346053]
[-0.5151794  -0.29824117  0.07240936]
[ 0.14457856  0.08561131  0.10845332]
[ 0.11374649  0.07867714  0.16644587]
[-0.018085    0.06789526  0.18500115]
[-0.47956458  0.16518889  0.45148063]
[-0.65482813  0.23939139  0.55096638]
[-0.38614506  0.02305216  0.14946894]
[-0.14022629 -0.91126746 -0.44010058]
[-0.00307567 -0.87610775 -1.07450628]
[ 0.08057258 -0.6302101  -0.72995085]
[-0.12626277 -0.05484391  0.34352618]
[ 0.09207946  0.09538101 -0.02594273]
[-0.05713677  0.0553681   0.24586551]
[-0.56176174 -0.01399369  0.48930085]
[-0.65757233  0.11902424  0.61263281]
[-0.252437   -0.18352723  0.23610389]
[-0.27083349 -0.09465259  0.06715224]
[-0.06817351  0.04429022 -0.24114953]
[-0.2756179  -0.04640312  0.05702041]
[-0.0599373   0.20649371  0.00205092]
[-0.71962851 -0.43256399  0.07452452]
[-0.31362996 -0.28493533 -0.0049966 ]
[-0.21651047 -0.54922557 -0.04977361]
[-0.13396612 -0.27985364  0.06544211]
[ 0.08326145 -0.1629256  -0.24305655]
[-0.51080894  0.05615497  0.43096313]
[-0.54721761  0.21811703  0.53951919]
[-0.04219388  0.00348306  0.1223461 ]
[-0.24136618 -0.25070563  0.20170939]
[ 0.11734157  0.00792113  0.00684516]
[-0.23338845 -0.01815782  0.22903   ]
[-0.27789307  0.07419085  0.3680861 ]
[ 0.06529267  0.24214934 -0.11890623]
[-0.19029392  0.20820542  0.19668816]
[-0.05979834 -0.59861881 -0.21468022]
[ 0.06473435 -0.83549839 -1.0660764 ]
[-0.06139884 -0.52236938 -0.53481263]
[-0.12317526 -0.39505211 -0.10280544]
[ 0.0149693  -0.59299147 -0.99625772]
[-0.04978148 -0.457546   -0.34994733]
[-0.3916705   0.19035342  0.30901501]
[-0.68141228 -0.14424008  0.29622802]
[-0.43165168 -0.50508088 -0.22291717]
[ 0.01112424 -0.07279444 -0.09285818]
[-0.04620619  0.00160361  0.10237712]
[-0.10968892 -0.00019151  0.1272984 ]
[-0.19622126 -0.23218082 -0.16573571]
[ 0.06429992  0.05988869 -0.05774848]
[-0.16632822  0.44537121  0.31203568]
[-0.2759518   0.05730105 -0.02798378]
[ 0.08632185 -0.10310367  0.4024249 ]
[ 0.11252035  0.05475293  0.28366217]
[-0.48221013  0.50777221  0.37488353]
[-1.11184573  0.43962255  0.56231338]
[-0.5398522  -0.24243513  0.0717842 ]
[-0.49768171 -0.29370934 -0.31792277]
[-0.76718199 -0.60631913 -0.54701304]
[-0.78439182 -0.39232898 -0.61742264]
[ 0.1075076  -1.03186953  0.09911951]
[ 0.10201643  0.07474842 -0.1676355 ]
[ 0.15683395  0.14181937 -0.22501723]
[ 0.24796684  0.06619701  0.36321023]
[ 0.10643595  0.48822066 -0.04800934]
[-0.11522961  0.38876331  0.31050801]
[ 0.22886871 -0.76990664  0.11179321]
[ 0.09722634  0.1290006  -0.26908416]
[ 0.18728189  0.12562434 -0.22495306]
[-0.55920374 -0.25575012 -0.17530085]
[-0.82013083 -0.58194798 -0.42450473]
[-0.08571703 -0.08973929  0.07483087]
[-0.51972598  0.40973368  0.2314512 ]
[-1.49640357  0.03833048  0.08180694]
[-0.38187492 -0.15439691 -0.02169525]
[ 0.0101284  -0.06976029 -0.00292386]
[ 0.05807375 -0.03218392 -0.02462561]
[ 0.05526368  0.08631147 -0.07639022]
[-0.06425188 -0.01398839  0.07722791]
[-0.00271422  0.06382241 -0.0758549 ]
[-0.10345223  0.03596653  0.03697539]
[-0.05750696 -1.22077274 -0.18092617]
[-0.05754085 -0.43969131 -0.46592316]
[-0.08712847  0.05741991  0.08424307]
[-0.28077537 -0.04067873 -0.03351273]
[ 0.07715295 -0.36782324 -0.07544225]
[ 0.09051118 -0.14725691 -0.03139577]
[ 0.03149575 -0.01471545 -0.21602276]
[ 0.19894704 -0.12048893 -0.09408265]
[-0.06017208  0.42892522  0.09287591]
[-0.07505236 -0.97075331 -0.00721919]
[ 0.06896383 -0.41001052 -0.17772369]
[ 0.25246274 -0.01635091  0.05265717]
[-0.53522712 -0.01864278 -0.17764838]
[ 0.21574692 -0.24249427  0.15582962]
[ 0.29011145 -0.03219244  0.24283098]
[-0.16587608 -1.53140438 -0.05942806]
[-0.04436672 -0.65265322 -0.29829487]
[-0.02873305  0.08409001  0.12468911]
[-0.06279065  0.00062658  0.04980199]
[ 0.04706379 -0.11731011 -0.01024521]
[ 0.05031516 -0.00978111  0.0096056 ]
[-0.05733493 -0.04428899  0.06917913]
[ 0.05271042  0.15393989 -0.23866604]
[-0.05708202  0.32307094  0.07262708]
[-0.16077168  0.01804272 -0.07293782]
[ 0.11675414 -0.07274094  0.22164977]
[ 0.15445523  0.06803179  0.20630293]
[-0.28086126  0.29959604  0.23395525]
[-0.86214036  0.12026082  0.18855424]
[-0.35911217 -0.16719276  0.1651582 ]
[ 0.08695322 -0.02966001  0.0419301 ]
[ 0.15408708  0.20943908 -0.09882615]
[-0.11461892  0.29043943  0.26344919]
[ 0.07154927  0.66377777 -0.00734903]
[-1.17594814  0.43243501  0.03647155]
[-0.10384907 -0.43050453 -0.18275484]
[ 0.04953224 -1.25887787  0.03708009]
[ 0.06616506 -0.12837933 -0.2076555 ]
[ 0.09387995  0.20246644 -0.01068502]
[-0.59147567 -0.18473673 -0.24475811]
[ 0.00670372 -0.32822472  0.12120739]
[-0.05466826  0.10042581  0.33742958]
[-0.08604404 -0.01435827  0.12659776]
[ 0.05891955  0.1437148  -0.0611558 ]
[-0.18938653  0.34381434  0.29262108]
[-0.54588491  0.55299902  0.46093631]
[-1.68011987  0.1438912   0.37391004]
[-0.68759596 -0.3681995  -0.25728816]
[-0.13188146  0.71200657 -0.02633401]
[-1.44324815  0.50947213 -0.02936184]
[-0.26788896 -0.29807785 -0.14366344]
[ 0.01227591  0.15004218 -0.04334971]
[-0.00762867 -0.00803511  0.22859508]
[ 0.16879115 -0.0738341   0.18280396]
[ 0.15344729  0.37979829  0.02202486]
[-0.42025086  0.19127768  0.25191906]
[ 0.17957632 -0.25059095 -0.01923938]
[ 0.28364784 -0.14665803  0.10030574]
[ 0.08042511  0.379336   -0.31265426]
[ 0.01040677  0.22685422 -0.14441282]
[-0.25881645 -0.11288866 -0.01730777]
[-0.02731394 -0.31349316 -0.10236932]
[ 0.06788155 -0.09378298  0.04761786]
[-0.22487831 -1.05800116 -0.16375084]
[-0.24101424 -2.51115537 -1.00988317]
[-0.29434627 -0.4517917   0.40612173]
[ 0.01802166  0.32670248 -0.12231921]
[ 0.08987589  0.22586928 -0.10250866]
[-0.21853884  0.01676354  0.3005943 ]
[ 0.29699996  0.36374754 -0.00209214]
[-0.73648262 -0.21284071 -0.09870852]
[-0.34603405 -0.10331342  0.28334892]
[ 0.21434312  0.19205856  0.38193429]
[-0.54831505 -0.86647916  0.20324503]
[-0.69328445 -0.06768901  0.17539045]
[ 0.13225818 -0.04054924  0.02967258]
[ 0.23211199  0.06434391  0.04482189]
[ 0.2238782   0.18570367 -0.15652826]
[ 0.27845275 -0.82572407 -0.00393087]
[ 0.33252004 -1.26431417 -0.75752878]
[ 0.04817826 -0.23033415 -0.04098459]
[ 0.20496339 -0.033645   -0.09714609]
[ 0.35000965 -0.06744397 -0.07282275]
[ 0.22108731  0.35643512 -0.32963905]
[-0.02252016 -0.07556458  0.18169585]
[-0.65940523 -0.33253807  0.1222339 ]
[-0.22546834 -0.3930698  -0.06500433]
[ 0.05362009  0.01059753 -0.04116339]
[-0.90335798 -0.13837616 -0.00853916]
[-0.22694518 -0.1601003   0.20505697]
[ 0.03758134  0.12774089  0.07356717]
[ 0.12162606  0.12560692  0.06145985]
[ 0.13304931  0.09192421  0.01349859]
[-0.07164518 -0.0700013   0.07609577]
[ 0.04366018  0.07326792  0.05558079]
[-0.06995695  0.00300811  0.03163569]
[ 0.03475501 -0.22642532  0.19506173]
[ 0.04029093 -0.24543923  0.20597941]
[ 0.08812338 -0.07556129 -0.03967168]
[-0.1866677   0.05325538  0.06257325]
[-0.24614346 -0.04783995 -0.03340651]
[-0.19032386 -0.1887563  -0.04202604]
[-0.52708602 -0.41577318  0.11498615]
[-0.38212565 -2.01813388 -0.36454937]
[-0.33431345 -0.35320672  0.50305384]
[ 0.11567268  0.21893643  0.00188098]
[ 0.30303627  0.09707478  0.08073647]
[  3.32523078e-01   2.61573645e-04  -1.55801803e-01]
[ 0.03603384  0.33704785 -0.31891978]
[-0.05292551  0.37113035 -0.16084108]
[-0.07696926  0.05283834  0.17331517]
[ 0.06764341 -0.16756797  0.00792238]
[ 0.03174881 -0.09474657  0.14225425]
[ 0.07319935 -0.15029162  0.0479142 ]
[ 0.0300082   0.10236223  0.08650994]
[ 0.0335282   0.07796656  0.04514027]
[ 0.06785731 -0.01161901  0.01256829]
[-0.35106158 -0.75414956 -0.0428144 ]
[-0.34042105 -2.77456403 -0.86832273]
[-0.12075723 -0.50926507  0.22203329]
[-0.08076149  0.23022997 -0.18744223]
[-0.0244022   0.24761045 -0.09014697]
[-0.17848718  0.01054594  0.18479256]
[-0.01754769 -0.10767099 -0.13945818]
[-0.57101667 -0.10541226 -0.00489053]
[-0.09901351 -0.02237768  0.22424975]
[-0.04355479 -0.87667274 -0.20426601]
[ 0.07265055 -2.46469641 -1.01977336]
[-0.04131306 -0.54503149  0.20377192]
[ 0.24178992  0.19391473 -0.14974794]
[-0.3448872   0.07885054 -0.09196143]
[-0.19969571  0.31952584  0.10815223]
[ 0.17791688  0.07338811  0.00522058]
[ 0.19981639  0.08533739  0.18722945]
[ 0.13556987  0.16274743 -0.17696692]
[-0.14132172  0.16370992  0.06046525]
[-0.06530293  0.15087032 -0.05468759]
[-0.24978088 -0.10263595  0.18625857]
[-0.20077601 -1.07655466 -0.09838571]
[-0.20399307 -2.58588958 -1.29794812]
[-0.30227819 -0.59328383  0.1102359 ]
[ 0.06118765  0.27193904 -0.1715678 ]
[-0.90285993 -0.17808412 -0.09409536]
[-0.21899962 -0.11051773  0.29275957]
[ 0.19428597  0.09407485 -0.04765391]
[ -7.24394619e-01   6.55169487e-02  -6.42961648e-04]
[-0.38679788  0.25949678  0.12556712]
[ 0.05050607  0.28907096 -0.22993666]
[-0.1634564   0.28209519 -0.04662595]
[-0.30891061  0.05690592  0.276609  ]
[ 0.2256009   0.3171632  -0.51094776]
[-0.1329709   0.30481339 -0.23452482]
[-0.08153968  0.29715243  0.06291158]
[ 0.3580099  -0.44964233 -0.018956  ]
[ 0.5291068  -0.29445821 -0.1965141 ]
[ 0.27155712  0.2964471  -0.00213672]
[-0.03961842  0.07715867  0.09607212]
[-0.048398   -0.06836504  0.04509972]
[-0.07890285 -0.20446645 -0.05564001]
[ 0.05586211  0.20033084 -0.91019821]
[ 0.15533057  0.1230267  -1.9127115 ]
[-0.05400816 -0.13661511 -0.89795858]
[-0.19670536 -0.08876152  0.21190172]
[-0.04653786 -0.13714483  0.22146158]
[-0.15241     0.0376556   0.39878356]
[ 0.07078333  0.40036592  0.27745271]
[-0.01358706 -0.1261895  -0.05931652]
[-0.11067255 -0.16467062 -0.21098807]
[-0.02124113  0.04109733  0.50308305]
[-0.38537985 -0.49814293 -0.68199557]
[-0.43946061 -0.42744628 -0.72308248]
[ 0.00681416 -0.05445028 -0.10168453]
[ 0.00710628  0.19169581  0.0525278 ]
[-0.02530324  0.03182073  0.14665867]
[ 0.05787497  0.47955191 -0.43642101]
[ 0.1177925   0.44503105 -1.3171283 ]
[ 0.04800751  0.11099818 -0.95020252]
[-0.01633464 -0.01439842  0.32123917]
[ 0.09109919  0.29977524  0.12154228]
[-0.1396779   0.14464879  0.03145181]
[ 0.21344869 -0.02347879 -0.40749517]
[-0.22436552 -0.71611613 -0.66180664]
[ 0.02174401 -0.01352284 -0.6752848 ]
[ 0.19048333  0.14414854 -0.04598038]
[-0.1822383  -0.67594504 -0.62096262]
[ 0.04132992 -0.10223926 -0.88168025]
[ 0.04643939 -0.07991335  0.13144661]
[ 0.09804103  0.00580853  0.05371537]
[ 0.06497402  0.0178467   0.05597138]
[ 0.04676893 -0.08809274 -0.02878927]
[-0.00852542  0.01173718  0.01939375]
[-0.01596114  0.09930407 -0.00628017]
[ 0.17195374 -0.15281996 -0.94611061]
[-0.13014044 -0.04171727 -0.51895326]
[-0.09092497  0.26292068 -0.15177324]
[ 0.0472517  -0.18155073  0.2529417 ]
[ 0.06840707 -0.14300403  0.17505796]
[ 0.00260325 -0.1164307   0.1886808 ]
[ 0.0470023  -0.08680221 -0.4613108 ]
[ 0.17512956 -0.11158413 -1.48054087]
[-0.0784626  -0.40829223 -0.73674387]
[ 0.12141526 -0.09260744  0.21180917]
[ 0.07502565  0.00639649  0.31095177]
[ 0.08363726  0.18963706  0.20593765]
[ 0.14748135 -0.28713676  0.25821695]
[ 0.07407533 -0.25887042  0.18243535]
[-0.12891306 -0.09361246  0.34099904]
[ 0.21042466 -0.28415349 -0.78993571]
[-0.05106507 -0.11246561 -0.44537452]
[-0.11738342  0.25308853 -0.16352601]
[ 0.05632867 -0.00085005  0.09800372]
[ 0.0210949  -0.03744887  0.08397972]
[ 0.06040879  0.00336274  0.0447579 ]
[ 0.03905916  0.12527533 -0.61795902]
[ 0.09638081  0.16587999 -2.20113873]
[-0.1713022  -0.1559585  -1.20292437]
[-0.13934557 -0.13095103  0.20066565]
[-0.01779942 -0.08582512  0.18411222]
[-0.19689301  0.03572912  0.33596677]
[ 0.1528728   0.14858334 -0.19211437]
[-0.12861298 -0.38302422 -0.43452108]
[ 0.10322055  0.15344055 -0.54806179]
[ 0.06107362  0.26275539 -0.70310426]
[ 0.23557176  0.27673879 -1.89200485]
[ 0.03436573  0.08449725 -0.91429609]
[ 0.06682511  0.35755998  0.27376992]
[ 0.16149008  0.14972162  0.20678371]
[ 0.27058634 -0.4085522   0.01825844]
[ 0.07006804 -0.11119525 -0.61755139]
[ 0.00353143  0.13627197 -0.05054444]
[-0.1354228   0.13683261  0.26200533]
[ 0.06916126 -0.24257325 -0.02316418]
[ 0.12340052 -0.2109808   0.13658856]
[-0.08807602  0.07599901  0.26521444]
[-0.06379976  0.12738538 -0.65181893]
[ 0.11633234  0.19795984 -1.98314953]
[-0.07488216 -0.09550498 -1.10760641]
[ 0.16484869  0.22207403  0.21295598]
[ 0.00586128 -0.3983877  -0.26653802]
[ 0.16070548 -0.12262432 -0.76572758]
[ 0.1650403   0.29891416  0.07248775]
[ 0.04681247 -0.22951441 -0.08627246]
[ 0.23113942 -0.4768191  -0.30300421]
[-0.23840368  0.02386324  0.22227809]
[-0.04503287 -0.03585961  0.19562587]
[-0.19788888 -0.13279769  0.33926862]
[-0.15788521  0.15132178  0.39895827]
[ 0.17930435  0.19448563  0.30473557]
[-0.06387088 -0.31600586  0.36332053]
[ 0.05519836  0.32645601 -0.00275932]
[ 0.1463674   0.42618918 -0.71153718]
[-0.05788627  0.16626908 -0.41599873]
[ 0.04741859 -0.14601833  0.13837877]
[-0.02651851 -0.17377736  0.03177307]
[ 0.00524452 -0.09972402 -0.01792129]
[-0.16240406 -0.15287355 -0.67729551]
[ 0.15778127  0.48807323 -0.14697719]
[-0.1107142   0.22174487 -0.07427787]
[ 0.04856335  0.15434277 -0.0206945 ]
[-0.58996892 -1.06403065  0.16208343]
[-0.41705981 -1.21183407  0.13682848]
[-0.25647205  0.34656495  0.06554454]
[ 0.20293023  0.0296633   0.13739766]
[ 0.21004437  0.30474812 -0.29307851]
[-0.46492133 -0.42577788 -0.40074351]
[-0.47239015 -0.19485146 -0.62623638]
[-0.46204716 -0.32629794 -0.50317663]
[ 0.39827737 -0.03116593 -0.17356123]
[ 0.14728777  0.13873354  0.05619987]
[-0.45895168  0.03158871  0.29041705]
[ 0.20717339  0.16372818 -0.52194172]
[ 0.24098596  0.48574007  0.28213394]
[-0.30084941  0.28145283  0.13462742]
[ 0.43906197 -0.06374861 -0.302771  ]
[ 0.33263627  0.17510371  0.10075984]
[-0.56285876  0.04924772  0.34174073]
[-0.05167944  0.18624841 -0.03992491]
[-0.51130641 -0.4158287  -0.33042425]
[ 0.15848772  0.1510544  -0.28121489]
[-0.17952384  0.36035088  0.0699037 ]
[-0.13780375 -0.28854451 -0.21767285]
[ 0.149703    0.23314157 -0.46083918]
[ 0.10396525  0.01422463 -0.06728026]
[ 0.09644748  0.03889214 -0.062472  ]
[-0.04659625  0.05498713  0.04697733]
[-0.07679529  0.02649377 -0.02905198]
[ 0.07143294  0.07463896  0.08660724]
[ 0.08614397  0.03511347 -0.03492204]
[ 0.16753183  0.05655821 -0.12476984]
[-0.71862274 -0.16456781 -0.09824816]
[-0.39728755  0.07599809  0.21150632]
[-0.06675325 -0.30862609 -0.11080676]
[ 0.11481424 -0.0860981  -0.28567874]
[ 0.04908365  0.04882044 -0.15772745]
[-0.04005406 -0.29892018 -0.74050397]
[ 0.21610536  0.40807366 -0.46683797]
[-0.06407522  0.23792101 -0.2717011 ]
[ 0.39007938 -0.08195622 -0.06368449]
[-0.01237947 -0.04381041  0.00667002]
[-0.08212759  0.0134166   0.06610164]
[ 0.07073429  0.04638723 -0.17454121]
[-0.34643343 -1.56519377 -0.00299434]
[-0.02999218 -1.58199847  0.05456691]
[ 0.18084608  0.02522581 -0.18397458]
[-0.38172409 -0.21835788 -0.18831985]
[-0.53300554  0.08821883  0.23119371]
[ 0.03029939 -0.01580045 -0.02032606]
[ 0.08020891  0.05305771 -0.04575034]
[ 0.02674554  0.04514995 -0.07573245]
[ 0.12406828 -0.02827263 -0.70003897]
[ 0.25977799  0.49966323 -0.26003316]
[ 0.12067078  0.31397158 -0.24315576]
[ 0.08697479  0.18218692 -0.05946772]
[-0.50095886 -1.12627053  0.05484124]
[-0.13665457 -1.14952099  0.09883632]
[-0.21498328  0.2929751   0.11085155]
[-0.35632703 -0.31579432 -0.09157834]
[ 0.00674805  0.00731734 -0.23694812]
[ 0.11336735  0.01026516 -0.61150956]
[ 0.23843272  0.42177835 -0.10530083]
[-0.03229953  0.46281821 -0.16056392]
[ 0.02052013  0.47132048  0.00661929]
[ 0.20014039  0.41305241  0.07621444]
[ 0.17979723 -0.13729256 -0.63119859]
[ 0.37831345  0.00525876 -0.14166212]
[-0.0453554   0.01502537  0.10584494]
[-0.49290428  0.0518169   0.30828542]
[-0.25416091 -0.18257912 -0.24124454]
[-0.25146836 -0.66636652 -0.12356122]
[-0.07393043 -0.76150745  0.0662872 ]
[-0.05934662 -0.09106438 -0.64659005]
[ 0.22502206  0.48781297 -0.07659011]
[ 0.02764925  0.39311054 -0.10194109]
[-0.25431663  0.39060494  0.14784141]
[-0.25496447 -0.17767575 -0.15875906]
[ 0.29068342  0.18337445 -0.56899756]
[ 0.01636654  0.40526691  0.02053955]
[ 0.07554518  0.21076612 -0.09710167]
[ 0.31653228  0.00319776 -0.63775241]
[ 0.06474782  0.3357043  -0.025873  ]
[-0.46730754 -0.80529714  0.09672979]
[-0.1897639  -1.14045823  0.12713329]
[ 0.11002121  0.45086932  0.01534732]
[-0.04985575  0.13080217  0.12684514]
[ 0.01522316 -0.83101171 -0.05832942]
[ 0.41089877  0.14402294 -0.42700997]
[ 0.31102821  0.42093557  0.13685343]
[-0.56914562  0.04188133  0.20227566]
[-0.01372412 -0.07202061 -0.14746737]
[ 0.00171866 -0.04815519 -0.22297981]
[ 0.12102146  0.0796375  -0.1616486 ]
[-0.78658766  0.29212892  0.04862754]
[-0.12406363 -0.00564917 -0.3782073 ]
[ 0.04227528 -0.01422349  0.10025582]
[-0.01962216  0.24898475  0.55323678]
[ 0.42910784  0.31569123  0.07010638]
[ 0.339315    0.11842503 -0.01191812]
[-0.33764642 -0.72687519 -0.40165988]
[-0.75031513 -0.86324048 -0.16107538]
[-0.4041256  -0.18380027  0.05822925]
[-0.44794777 -0.38899827 -0.34994113]
[-0.3636089  -0.71688497 -0.33349213]
[-0.41870153 -0.21859756  0.26883551]
[-0.00684054 -0.28786913  0.04234787]
[ 0.04280513  0.02414287  0.13567534]
[ 0.1801738   0.15129532 -0.11036174]
[-0.63171291  0.00839313  0.31563687]
[ 0.02861706 -0.19849166 -0.15621111]
[ 0.1899399  -0.05623984 -0.13155712]
[-0.0243738  -0.32453787  0.06079876]
[ 0.13999675 -0.18497926  0.12509827]
[ 0.3747015  -0.03294792 -0.29044768]
[ 0.36294162 -0.22906612  0.02861274]
[-0.58516091 -0.10943469  0.12265366]
[-0.46954569  0.10027099  0.15880258]
[ 0.18219346 -1.98038471 -0.7821058 ]
[-1.26806808 -0.90489835 -0.09025333]
[-0.74699605  0.01532275 -0.05508604]
[-0.01395052 -0.0581666   0.01601696]
[-0.0220697   0.02479245  0.10166257]
[ 0.08302723  0.09137847  0.00449958]
[-0.06704828 -0.07683859  0.01932936]
[-0.02084875 -0.09548236  0.09183495]
[-0.09967995  0.0647252  -0.03822151]
[ 0.18602324 -0.01607138  0.04534396]
[-0.0884451  -0.06410759  0.27573484]
[-0.168879   -0.27867356  0.02108051]
[-0.34520325 -0.21398298  0.01959482]
[-0.22254261  0.03048191 -0.02710527]
[-0.02552535  0.06504506  0.10020044]
[-0.63275921  0.52465993 -0.04936585]
[-0.10228571  0.25293049 -0.34583032]
[ 0.04220412 -0.0148715   0.10826827]
[ 0.27030477 -0.17773233  0.06503108]
[ 0.10301457  0.26133636  0.10099566]
[-0.02430672  0.06615683 -0.10933568]
[-0.1222241   0.34149399  0.52638769]
[ 0.2486093   0.3568185  -0.04600834]
[ 0.10979177  0.13519026 -0.17741115]
[ 0.22543705  0.11191098 -0.10165528]
[ 0.02978     0.03734655  0.25736567]
[-0.14318234 -0.20399621  0.05593321]
[-0.0508928  -0.08118526  0.08492242]
[-0.08629823  0.06268997  0.04489704]
[ 0.05230966  0.1309009   0.01049415]
[-0.84420788  0.30676931  0.08829065]
[-0.17557837 -0.10045983 -0.3649939 ]
[ 0.14013977 -0.04683724 -0.00464376]
[-0.03359969  0.21823588  0.54679614]
[ 0.27770698  0.22329065  0.02594052]
[ 0.12144721  0.06859704 -0.12742668]
[ 0.36198926 -0.7176823  -0.57034528]
[-0.45783556 -0.55483514 -0.0460844 ]
[-0.43933824  0.00255451  0.05993376]
[-0.83546799  0.3653717   0.1833263 ]
[-0.09152952 -0.06643984 -0.27580807]
[ 0.14221962 -0.03942297  0.05768618]
[-1.02463317 -1.53084612 -0.18763702]
[-1.21894002 -0.28496501 -0.2101887 ]
[-0.29479262  0.15381557 -0.16865677]
[ 0.06426092 -0.12999918  0.0710113 ]
[ 0.11642548  0.03914586  0.13579333]
[ 0.09473432 -0.15516648 -0.09243783]
[-0.18365824  0.44535241  0.24405691]
[ 0.02403164  0.42985415  0.03395079]
[-0.07258292  0.09422828  0.10860463]
[-0.82666361  0.40621755  0.19853896]
[-0.17435014  0.05528437 -0.26778582]
[ 0.11877467  0.00892546 -0.00900066]
[ 0.11199427 -1.88478112 -1.23354805]
[-1.22736776 -1.26321614 -0.4459025 ]
[-0.94298899 -0.08560621 -0.11075382]
[-0.46934634 -2.20104456 -0.51496232]
[-1.62146831 -0.6406579  -0.28186247]
[-0.66828233  0.1044627  -0.28385982]
[-0.2807923   0.17078185  0.51341242]
[ 0.19605242  0.43711349 -0.14555405]
[ 0.28787872  0.12244298 -0.10249527]
[-0.6380657  -0.19803314  0.40484685]
[-0.15566067  0.29722282 -0.10889996]
[ 0.17575012  0.32203943 -0.39836329]
[-0.41831315 -0.3449764   0.02482875]
[ 0.17896786 -0.506823    0.04062301]
[ 0.36113247 -0.06502961 -0.01474451]
[-0.09909748 -0.09117731  0.08689697]
[-0.30607215 -0.01023587  0.05879962]
[-0.03426547  0.01739588  0.11179105]
[ 0.39517987 -0.49618652 -1.02636862]
[-0.24022621  0.00766139 -0.09018477]
[ 0.00029948  0.14925016 -0.11927502]
[-0.71401352  0.03135302  0.12700309]
[-0.41964749 -0.08683068  0.22452429]
[ 0.02796424 -0.1161712   0.31096399]
[-0.4879092   0.05465867  0.09127248]
[ 0.07621118 -0.4106566   0.27756462]
[-0.13323911 -0.39731088  0.38690442]
[ 0.04720237 -0.19792365  0.10863749]
[-0.39904389  0.0175296   0.12784122]
[-0.27044138  0.10609633 -0.21733412]
[ 0.21651918 -0.30826986 -0.00211273]
[ 0.24520043  0.01709234 -0.31382841]
[ 0.06351059 -0.03556194 -0.07450953]
[ 0.51097375 -0.13736297 -0.88605994]
[-0.10810269  0.1440344  -0.12203135]
[ 0.01933109  0.23095229  0.03623023]
[ 0.38762358 -0.30532473  0.05788382]
[ 0.09457513 -0.06880227 -0.14010946]
[ 0.02838807  0.05252776 -0.19022934]
[-0.03400264 -0.20262846 -0.21168873]
[ 0.28615662 -0.51247329 -1.04126799]
[-0.1205667  -0.46651825 -0.34676158]
[-0.19126788  0.12115727  0.03399766]
[ 0.18211803 -0.44150805 -0.47942987]
[-0.2826438  -0.44975266 -0.19261128]
[ 0.14209767 -0.03985609  0.11788566]
[ 0.14767107 -0.08434384 -0.14440057]
[ 0.11003409  0.00468697 -0.01014426]
[ 0.00734512  0.0990818  -0.05665096]
[-0.03754175 -0.01702812 -0.09257367]
[-0.08705582  0.00489394 -0.05524364]
[ 0.20006227 -0.1707693  -0.29874718]
[ 0.31898785 -0.03657228 -0.92239505]
[ 0.17668884 -0.31365949 -0.27365208]
[ 0.04212488 -0.09910402  0.14226981]
[ 0.07639349 -0.20429555  0.09974481]
[-0.05750303  0.0143956   0.25772566]
[ 0.23723437 -0.92361528 -0.63018668]
[-0.23544556 -0.0770726  -0.20347536]
[ 0.01831023  0.1412904  -0.302048  ]
[ 0.1076144  -0.33412513 -0.01105621]
[ 0.20379494 -0.25068769 -0.43785644]
[ 0.06430495 -0.07521519 -0.32376006]
[-0.52541053 -0.09078242 -0.0879403 ]
[-0.04393093 -0.19066885  0.09699328]
[ 0.17979836 -0.17277418  0.14824386]
[ 0.19039984 -0.27745861 -0.08537611]
[ 0.34286776 -0.08130663 -0.74279946]
[ 0.20677358 -0.30947706 -0.22391334]
[ 0.05615105 -0.09871025  0.07226835]
[ 0.08082607 -0.12643754  0.03558656]
[ 0.00699169 -0.03697889  0.01817799]
[ 0.3788017  -0.55757475 -0.90356672]
[-0.25031397  0.06687475 -0.22875398]
[-0.02645716  0.14241475 -0.13758737]
[-0.62033391 -0.0409467   0.0744023 ]
[-0.38930446 -0.20508575  0.08106291]
[ 0.00191144 -0.11303604  0.33559358]
[-0.16170602  0.0198965   0.00793826]
[ 0.18894334 -0.14566131 -0.18133983]
[ 0.02994286 -0.23693024 -0.12908265]
[ 0.4289524  -0.46141443 -0.84496421]
[-0.18587214  0.04475195 -0.13944452]
[ 0.0133449   0.17988287 -0.08865061]
[-0.15436304  0.32543278  0.00780928]
[-0.32803127 -0.06596644  0.12102479]
[-0.46898222 -0.12694415  0.41057381]
[ 0.23963539 -0.19328502 -0.07684935]
[ 0.19548008 -0.06127617 -0.30533537]
[ 0.0781782  -0.1184374  -0.03861472]
[-0.34963706 -0.16433278 -0.01747176]
[-0.16630302 -0.10843442  0.1267927 ]
[ 0.16954331 -0.03174496  0.18775158]
[ 0.51448339 -0.49288651 -0.93523294]
[-0.29645535 -0.03282047 -0.09465479]
[ 0.00474276  0.19842023 -0.07293763]
[-0.28004664  0.12282031  0.11049972]
[ 0.1481853  -0.55641657 -0.13225223]
[-0.25566319 -0.52100736 -0.12647189]
[-0.28928432  0.30447701 -0.03424074]
[-0.22451749 -0.2096861  -0.03051711]
[-0.40620959 -0.2821483   0.11370855]
[-0.59913129  0.08094023  0.08968335]
[-0.56455207 -0.22547826  0.20746495]
[-0.10551831 -0.26683679  0.29849255]
[-0.31479427  0.23793124  0.07422945]
[-0.54288721 -0.09550273  0.22601521]
[-0.30243632 -0.31319666  0.37354928]
[ 0.47194523 -0.07016914 -0.36794218]
[ 0.10942779  0.14211705 -0.08053429]
[ 0.05823562  0.25153509 -0.03274261]
[-0.02188032 -0.1723256   0.02545169]
[ 0.04283188 -0.21811476 -0.01087748]
[-0.01387066 -0.17184816  0.04440299]
[ 0.14237204  0.29596376 -0.45295715]
[ 0.30830458 -0.0530023  -1.01177502]
[ 0.14762963 -0.54814452 -0.8031947 ]
[-0.40458179 -0.32864919  0.32208562]
[-0.63154554 -0.65823549  0.40559873]
[-0.8343631  -0.79633802  0.28791285]
[ 0.09200785 -0.07102018  0.17176859]
[-0.13630627 -0.50107801 -0.4781757 ]
[ 0.06235001 -0.00773799 -0.31009415]
[ 0.03557227 -0.01140371 -0.37851697]
[ 0.26860335  0.12208588 -0.41717768]
[ 0.16757327 -0.08923501  0.09056242]
[ 0.04875568  0.08326856  0.2208275 ]
[-0.12922275  0.01989136  0.33395055]
[ 0.0030619   0.14924179  0.3009086 ]
[ 0.24008135  0.2514092   0.03784525]
[ 0.27864602  0.04285251 -0.28050265]
[-0.03612456 -0.31294599 -0.51167679]
[ 0.08232161  0.09470361  0.17202866]
[-0.17330486  0.10080563  0.3079527 ]
[-0.3418729   0.111343    0.29165152]
[-0.05858072 -0.06188422 -0.12371771]
[-0.07029028 -0.06109608 -0.24601972]
[ 0.29390842  0.11841215 -0.34115985]
[ 0.0364654  -0.11111975 -0.16348898]
[ 0.01059832 -0.3401618  -0.68783009]
[ 0.18873551  0.19092208 -0.36934692]
[ 0.05250469 -0.01438044 -0.0456178 ]
[ 0.01462098 -0.05854772 -0.07469431]
[-0.04816626 -0.01251198 -0.03511323]
[ 0.03294734 -0.09435     0.00513403]
[-0.05259657 -0.05956594  0.01717617]
[-0.00172901 -0.0888487   0.01281481]
[-0.31119791  0.03775623  0.33049914]
[-0.61258632 -0.01298475  0.49359497]
[ 0.34487981  0.24607988  0.44933417]
[ 0.01474158  0.06946345 -0.23488021]
[ 0.03102462  0.11966837 -0.16790761]
[ 0.04821172 -0.05210534 -0.3441214 ]
[ 0.18358622  0.18216538 -0.67898649]
[ 0.12285736 -0.27970463 -1.11354125]
[ 0.10527737 -0.9253912  -0.83953214]
[-0.14439374  0.00831596  0.07593416]
[-0.19513965  0.00421801  0.23539512]
[ 0.13033363  0.05438176  0.03014674]
[-0.42413911 -0.23214914  0.00945816]
[-0.61931401 -0.73347956  0.09781927]
[-0.61265844 -0.86151677  0.07276028]
[-0.18140481  0.03262421  0.27935889]
[-0.70111984  0.06785762  0.47164071]
[ 0.15302712  0.16982427  0.41312829]
[ 0.00587815 -0.01954256 -0.12169853]
[-0.0155809  -0.00075181 -0.16810642]
[-0.03638211 -0.04672449 -0.20504232]
[ 0.23329979  0.25138116 -0.41473362]
[ 0.15956306 -0.24739881 -0.97940975]
[ 0.13767894 -0.87206763 -0.82836324]
[-0.34219837 -0.22809541  0.17762038]
[-0.52602208 -0.53776318  0.25422326]
[-0.71835572 -0.67318046  0.38004074]
[ 0.06242771  0.10474753  0.10010233]
[-0.00425583 -0.04845932  0.01388683]
[ 0.14617705  0.15561621 -0.02551145]
[ 0.16627818  0.28063938 -0.48782143]
[ 0.17907479  0.00834401 -1.01252723]
[ 0.09443136 -0.55045623 -0.95660728]
[ 0.14996707 -0.22367877  0.06348734]
[-0.46362904 -1.08058882 -0.13116488]
[-0.07503119 -0.1913828  -0.35072333]
[-0.1033824   0.09813923  0.32603389]
[-0.50543499  0.06172902  0.62405479]
[ 0.01956332  0.17284738  0.47955641]
[-0.11344291  0.11652534 -0.07277489]
[-0.07193651  0.04349189 -0.10825316]
[-0.1335101  -0.32851562 -0.03767878]
[ 0.18133865  0.29827046 -0.42593753]
[ 0.28670985 -0.03068003 -1.04079795]
[ 0.13165793 -0.74018639 -1.14393854]
[ 0.04416619  0.01308201 -0.19003516]
[ 0.01523768 -0.463449   -0.85006845]
[ 0.03257501  0.12588003 -0.55775225]
[ 0.08579054 -0.15719102 -0.02495998]
[-0.23794246 -0.85615939 -0.5833776 ]
[ 0.06315888 -0.02200936 -0.60353804]
[-0.25169486 -0.28011304  0.28316179]
[-0.76884037 -0.73070574  0.31264737]
[-0.72955632 -0.70600933  0.24861902]
[-0.10352399 -0.27640253  0.22668533]
[-0.93568856 -0.99163926  0.28616279]
[-0.58607167 -0.69007701  0.02579594]
[ 0.25523081  0.15347673  0.18046556]
[ 0.05166208  0.0849572   0.1846859 ]
[-0.34731078 -0.15092613  0.16359143]
[ 0.01789623  0.0955708  -0.0574034 ]
[ 0.06423492  0.09910757 -0.13410445]
[ 0.13419306  0.07812054 -0.21203534]
[-0.15517083 -0.01628918 -0.47645244]
[-0.65451068  0.05373254  0.02085132]
[-0.66860443 -0.14953379  0.45108593]
[-0.16965905  0.52308446  0.13187605]
[-0.1433264  -1.36690116 -0.07184031]
[-0.04821689 -1.35282779 -0.3034457 ]
[-0.42452613 -0.80538535  0.19075759]
[-0.01598087 -1.36052489  0.13866116]
[ 0.15264066 -0.16854385 -0.33204246]
[-0.35990143 -0.61801916 -0.31150699]
[-0.91733605 -0.37355781  0.1080841 ]
[-0.22114061 -0.37757322  0.3060939 ]
[ 0.44109881  0.41410986 -0.22382538]
[ 0.05382239  0.19440025  0.02323404]
[-0.24015017  0.05852584  0.28200009]
[-0.07759856  0.48923016 -0.30267039]
[-0.67183286  0.25415748  0.30142948]
[-0.67649341  0.0037249   0.61139148]
[ 0.51825273  0.43817046 -0.36505598]
[-0.01318576  0.2435531   0.05521721]
[-0.38880092  0.13557212  0.34901085]
[-0.58316416 -0.61147296 -0.10469915]
[-0.20322707 -0.80364889 -0.22709467]
[ 0.09311821 -0.22497508 -0.01120875]
[-1.09634686 -0.89239967  0.26447359]
[-0.36448112 -1.32955241  0.26272368]
[ 0.12948106 -0.1205579   0.11200319]
[ 0.20551795  0.11481267  0.08056332]
[ 0.08704751  0.14600693 -0.04020577]
[ 0.0965472   0.05148077  0.04657148]
[ 0.09248242 -0.07908949  0.02115173]
[ 0.00953162  0.02730377 -0.1026683 ]
[-0.04229726  0.08105419 -0.07765119]
[-0.02009078  0.26106295 -0.09394716]
[-0.62099934  0.04983339 -0.01467127]
[-0.30131194 -0.12739675  0.11387505]
[ 0.11660617 -0.33357137 -0.40191713]
[ 0.05145175 -0.08473034 -0.4581773 ]
[-0.01410611 -0.02144333 -0.2239807 ]
[-0.05629754 -0.24361691 -0.39894962]
[-0.50940633  0.1379056  -0.08959669]
[-0.63013256  0.1045555   0.41262594]
[ 0.47935614  0.16367693  0.0119191 ]
[ 0.24059673  0.00692316 -0.22353259]
[ 0.03502936 -0.01891616 -0.06513897]
[-0.02714897 -0.29596454  0.14069881]
[-0.06784659 -1.9994446  -0.30043179]
[-0.02303405 -1.38788402 -0.45016113]
[ 0.22662446  0.22829351 -0.11951166]
[-0.22495319  0.09446626 -0.13252804]
[-0.43814346 -0.01908161  0.1152717 ]
[ 0.15206151 -0.01667904 -0.07560744]
[ 0.09193809  0.02229392 -0.13745561]
[-0.0055623   0.09357735 -0.00224403]
[-0.03962359  0.12386373 -0.47625411]
[-0.58187097  0.23249426  0.00710722]
[-0.73200232  0.18985945  0.4988271 ]
[-0.16657801  0.33482227  0.1918986 ]
[-0.05120464 -1.32549655 -0.07793403]
[-0.04041987 -1.20470679 -0.28795785]
[-0.65054756 -0.61576056  0.33727118]
[-0.28266412 -0.8476752   0.21154715]
[-0.09201726 -0.10725044  0.10612535]
[-0.08187196  0.12675911 -0.45512152]
[-0.6105842   0.26699233 -0.05799732]
[-0.73327368  0.08688661  0.43457651]
[-0.77014744  0.17312063  0.34583929]
[ 0.00901565 -0.85902238  0.43381879]
[ 0.14935172 -0.22720572 -0.03286659]
[ 0.52526927  0.28893337 -0.12952104]
[-0.09322013  0.13302843 -0.03632349]
[-0.46663961  0.06179271  0.29858398]
[ 0.00540281 -0.28059724 -0.01664829]
[-0.08472577 -0.97568917 -0.19203636]
[ 0.02510352 -0.61514574 -0.08857958]
[-0.15188989  0.09776936 -0.68381733]
[-0.74612635  0.10812932  0.03309299]
[-0.68211406 -0.09232629  0.39407337]
[-0.98116404 -1.17546475  0.34106877]
[-0.36941534 -1.77078712  0.19714636]
[ 0.04962568 -0.2706224  -0.29571682]
[-1.36793673 -0.2233984   0.41299611]
[-0.38024449 -1.28283393  0.55576545]
[ 0.06987086 -0.32375908  0.01367844]
[-0.31038475  0.59753788  0.29114294]
[ 0.02098144 -0.81867546 -0.03627488]
[ 0.0202673  -0.90926999 -0.44098324]
[-0.3365216   0.69556814  0.42820969]
[ 0.01433722 -0.72890508  0.15909946]
[-0.01256314 -0.5494141  -0.47655839]
[ 0.21503204  0.69973236 -0.22155322]
[-0.34800577  0.44838792  0.33043325]
[-0.60445172  0.24150789  0.51346081]
[ 0.07456501 -0.1115219  -0.22149208]
[ 0.07664444 -0.09686378 -0.27118284]
[ 0.06042475 -0.00227422 -0.11910888]
[-0.27066624  0.18598047  0.18022388]
[ 0.27090374  0.24772193  0.08714083]
[ 0.32941636  0.50392425  0.08803148]
[-0.14961894  0.19920641  0.39627641]
[ 0.03882654  0.30864137 -0.06096369]
[ 0.07230406 -0.18948546  0.13423303]
[ 0.29293585  0.32429215 -0.0518458 ]
[-0.11705669  0.04412812  0.03141198]
[-0.26123136  0.37168077  0.34494418]
[-0.29982635 -0.10873104 -0.37815729]
[-0.01096457 -0.34582016 -0.52529055]
[ 0.36987048  0.09715147  0.04029686]
[-0.74584818 -0.49426574 -0.18529618]
[-0.84421688 -0.86507726 -0.0228432 ]
[-0.91272581 -0.51406288 -0.09657391]
[-0.43603992  0.17351036  0.10032629]
[-0.04553638  0.29039127  0.12897882]
[-0.00981411  0.35596555  0.01742167]
[-0.97762412 -0.50820798 -0.33114511]
[-0.7037726  -0.63388926 -0.05057143]
[-0.77658415 -0.49616593 -0.16515531]
[ 0.11860043 -0.18768607 -0.14093685]
[-0.01949395  0.19325234  0.17365746]
[ 0.00903968  0.13655929  0.03077349]
[ 0.26757479  0.08594865 -0.10868469]
[ 0.00200944  0.18023673  0.15284385]
[-0.02443995  0.22018681  0.19099508]
[-0.09296447 -0.0484345   0.0174326 ]
[-0.15899038 -0.07922267  0.04646256]
[-0.04302413 -0.08401117  0.05128963]
[ 0.03200701 -0.04325632 -0.09146814]
[ 0.0953355   0.06843136  0.01324155]
[-0.09123992 -0.09840488 -0.01205576]
[-0.25812683 -0.5518117  -0.08081119]
[-1.09004498 -1.36161923 -0.01339763]
[-0.9670099  -0.35012889 -0.11237618]
[-0.12366353 -0.16547774  0.03743203]
[-0.03745604  0.01995983  0.07875866]
[ 0.15289725  0.0529023   0.10960709]
[ 0.01582488  0.4326517   0.11132236]
[ 0.24517164  0.30207172  0.10618963]
[ 0.47282976  0.35600239 -0.09739228]
[-0.41751856 -0.46407914 -0.10017204]
[-1.09880078 -0.54468101  0.03699835]
[-0.81374371 -0.21493138 -0.03780439]
[-0.11618491  0.0136177   0.46269637]
[ 0.04040935  0.17132387  0.03816096]
[ 0.15971519 -0.19826107  0.01528898]
[-0.1708129  -0.44563586 -0.10615847]
[-0.83890206 -1.28339839 -0.00342279]
[-1.22177088 -0.48665491 -0.06540857]
[-0.16292736 -0.04584009  0.05475076]
[-0.12538935  0.08165732 -0.00232654]
[ 0.03527886  0.00595492  0.07512581]
[-0.10170589  0.24948084  0.09821561]
[ 0.30066004  0.25273913  0.09569775]
[ 0.25428316  0.33109307 -0.09497087]
[-0.01923451  0.23887797  0.47317198]
[ 0.06309579  0.19235614 -0.08471859]
[ 0.09736839 -0.19805638  0.22769414]
[ 0.41334373  0.14518863 -0.06676358]
[ 0.19204052  0.11509547  0.04321693]
[-0.08957393  0.10101569  0.06291956]
[-0.19243303  0.20267764  0.1481149 ]
[ 0.20612688  0.17752677  0.12175038]
[ 0.17346556  0.25511009  0.07087765]
[ 0.24795733  0.22647469  0.02001345]
[-0.11040222 -0.26186806 -0.22225733]
[-0.02762088  0.22674747  0.13969322]
[-0.63623613 -0.60008526 -0.19383061]
[-1.12493908 -1.28186023 -0.07958377]
[-1.34092665 -0.56853199 -0.13985826]
[-0.14912412  0.02523819  0.42680055]
[ 0.08695155  0.24006014  0.2459401 ]
[ 0.17964718  0.07926994  0.14159402]
[-0.23429856  0.24200487  0.14838743]
[ 0.20312935  0.33642682  0.24873531]
[ 0.33526695  0.63081324  0.05169367]
[ 0.34370857  0.21083662  0.07616156]
[-0.1336253  -0.10973784 -0.06609029]
[-0.12873876  0.27565819  0.29800695]
[ 0.35369188  0.16451043  0.02848782]
[ 0.00415098 -0.1007294  -0.1790373 ]
[ 0.04703745  0.4019925   0.0903418 ]
[ 0.04127449  0.22463514  0.38789177]
[-0.0268665   0.13672575 -0.10538338]
[-0.00407223 -0.1938047   0.06094851]
[-0.00515222  0.25228131  0.24671517]
[-0.06089757 -0.06558787 -0.32591152]
[-0.00319122 -0.09687475 -0.05951086]
[-0.81350344 -0.09020986 -0.23777623]
[-0.28909913 -0.16758177 -0.1083838 ]
[-0.32981223 -0.17567183 -0.20544186]
[-0.01791027 -0.16369784  0.08035453]
[-0.04182345  0.07274193  0.15724391]
[ 0.16454934  0.03684298  0.01559747]
[-0.60357106 -1.54332411 -1.49355602]
[-0.25099796 -1.65760612 -1.38072789]
[ 0.21072356 -0.52907079 -0.26158997]
[ 0.06828968  0.28880459  0.25600919]
[-0.10781094  0.17951255  0.14001526]
[-0.00118124  0.24940698  0.15315025]
[-0.14918305 -0.15672961 -0.51828957]
[-0.19421694 -0.46263281 -0.79413247]
[-0.36103535 -0.09101242  0.32818425]
[-0.25770679 -0.50347447 -0.25208509]
[-0.29507101 -0.42851207 -0.3172524 ]
[-0.02605004  0.01562202  0.04666168]
[ 0.06657165  0.13848707  0.07368583]
[ 0.11189461  0.27527118  0.03450949]
[ 0.15536197  0.2168732  -0.01650015]
[ 0.12165375 -1.48173785 -0.81060743]
[ 0.18545921 -1.55368733 -0.73084557]
[ 0.48966247 -0.43245775 -0.50968367]
[-0.02246278  0.02451075  0.03105739]
[ 0.07318757 -0.17582469  0.13421662]
[ 0.17606056  0.09642266 -0.12974384]
[ 0.01626107 -0.46711081 -0.12191104]
[-0.25220495 -0.59664273 -0.30105257]
[-0.26918212  0.20802577  0.25028217]
[-0.09924427 -0.74435371 -0.88221729]
[-0.58496571 -0.93372685 -0.8322432 ]
[-0.25323519  0.2710374   0.39336282]
[ 0.17044567  0.03826947  0.17292537]
[ 0.05009043 -0.00791973  0.05344731]
[ 0.20736979  0.12754525  0.17386623]
[ 0.08386367  0.05129816 -0.08942196]
[-0.01704456  0.1053955   0.0147601 ]
[-0.0766809  -0.07993346  0.02638309]
[ 0.09470078 -0.41136715  0.07153475]
[ 0.00820682 -0.14832157 -0.10074639]
[ 0.10089254  0.27762112  0.21473978]
[-0.20544997 -0.08293959 -0.06956708]
[-0.14634645 -0.04065882 -0.0283092 ]
[-0.16301499 -0.03001694 -0.04421842]
[-0.95363206 -1.16069031 -1.26970947]
[-0.70251173 -1.23731828 -1.29429889]
[ 0.03734458 -0.68165803 -0.03494661]
[ 0.19635199  0.1438905   0.12207375]
[ 0.08675276  0.05026977  0.04498436]
[ 0.01687663  0.23916048  0.09500707]
[-0.07312422  0.16423079  0.08544125]
[-0.011944    0.13058726 -0.0438566 ]
[ 0.05201184  0.2347672   0.02287296]
[ 0.11107194 -0.43337479  0.10938489]
[-0.06586458 -0.1589746  -0.03655575]
[ 0.02741732  0.05178904  0.12278552]
[ 0.07176201  0.09073102  0.13156073]
[-0.00983065  0.0358799   0.08019437]
[ 0.05740091  0.1413551   0.08317273]
[-0.60594004 -1.94390559 -1.44038749]
[-0.4008905  -2.24916244 -1.7331847 ]
[ 0.13753119 -1.00033319 -0.49329033]
[-0.04260206  0.20642345  0.22051623]
[-0.01853992  0.12852778  0.11063252]
[ 0.01090757  0.1726779   0.27062738]
[ 0.08926038 -0.38845289 -0.35693651]
[-0.00052626 -0.43135193 -0.3630991 ]
[-0.06255539  0.14994156  0.43928942]
[-0.50672615 -1.52047372 -1.35036826]
[-0.20772633 -1.91778302 -1.20922256]
[ 0.15093154 -0.81894422 -0.42074826]
[-0.13425238  0.10548698 -0.53733176]
[-0.19749053 -0.10339938 -0.59598309]
[-0.27861512  0.23143776  0.12949769]
[ 0.05060888 -0.26849684  0.11637117]
[ 0.06086267  0.03660871 -0.05555337]
[ 0.14318566  0.24896452  0.014823  ]
[-0.18596148  0.10163561 -0.0932937 ]
[-0.13172956  0.10598912 -0.00849123]
[-0.02336011  0.18303524  0.13645123]
[-0.60690951 -1.77775753 -1.54474068]
[-0.33494091 -2.07716799 -1.7592994 ]
[ 0.22259989 -0.6920709  -0.66730344]
[-0.06059621 -0.67570055 -1.10862195]
[-0.43344873 -0.81278062 -1.08072138]
[-0.40168867  0.14532258  0.43781683]
[-0.30246523 -0.4449437  -0.86058009]
[-0.51238918 -0.49735844 -0.84588051]
[-0.41174734  0.45373407  0.18160936]
[-0.02280006  0.25805435  0.16236252]
[ 0.01839677  0.11548868  0.01075375]
[ 0.0347923   0.21110058  0.08165137]
[ -1.18740924e-01   2.80042797e-01  -1.10715133e-04]
[ 0.08301309  0.15345809 -0.15067124]
[-0.03794496  0.16334207  0.02271148]
[ 0.14660478 -0.60240614 -0.07857508]
[ 0.15135756 -0.5921579  -0.0234197 ]
[ 0.32300967 -0.09383716 -0.16729532]
[-0.0774083  0.0712401  0.0628149]
[-0.04260371 -0.03256551  0.02010647]
[-0.07796533  0.04455177  0.08743712]
[-0.65012759  0.49852422  0.33540097]
[-0.30275321 -0.06819394 -0.34560305]
[-0.22831891 -0.01629004  0.04260284]
[ 0.08101138 -0.0994958  -0.0509319 ]
[ 0.05627492 -0.08140847 -0.08919048]
[ 0.0016934  -0.06107353  0.13309826]
[-0.11753279 -0.14820904 -0.01112692]
[-0.10851935  0.63884497  0.23953141]
[-0.33739302  0.04483406  0.20669059]
[-1.10588205 -0.49480265 -0.76960373]
[-0.33890158  0.0275433  -0.21076559]
[-0.75763005 -0.60122639 -0.35499802]
[ 0.04885073 -0.14062648  0.02246128]
[ 0.10481031 -0.3422111   0.0717867 ]
[ 0.07263035  0.10885059 -0.26749286]
[-0.68318003  0.63548738  0.68931705]
[-0.26715353 -0.1156082  -0.14975938]
[-0.12053981  0.20070599  0.03148862]
[-0.13765974 -0.0003239   0.11974557]
[ 0.12909701 -0.45339257 -0.00291598]
[ 0.08353824  0.09676001 -0.33110362]
[ 0.0662298   0.09453379 -0.16479392]
[-0.24245575  0.14807504 -0.08003972]
[-0.15155779 -0.06237674 -0.16736557]
[-0.07442875  0.05637157 -0.40348968]
[-0.05277341  0.23324876  0.17733164]
[-0.23011053  0.01904453  0.0164645 ]
[ 0.0684041   0.05091516 -0.00895054]
[ 0.03205058 -0.00854665  0.04393767]
[ 0.03866927 -0.01982547 -0.04291274]
[-0.0442382   0.06110378  0.00617743]
[-0.06149168  0.03102633 -0.06600896]
[-0.03358133 -0.05888177 -0.07368205]
[ 0.08123558 -0.29136354 -0.14629872]
[-0.02686069 -0.04428624  0.02771754]
[-0.08485971  0.05829205 -0.39062575]
[-0.02967292  0.01765016  0.02092357]
[-0.08677658 -0.05696182  0.02982236]
[ 0.09280016 -0.13822767  0.02496588]
[-0.24106026  0.72449452  0.0966761 ]
[-0.14742768 -0.26721433 -0.43467131]
[-0.12799203  0.05973181 -0.19087414]
[ 0.047366   -0.38042241 -0.01988734]
[ 0.02335833 -0.25182509 -0.01131448]
[ 0.14480759 -0.04022591 -0.2024774 ]
[-0.00214488 -0.1450282  -0.1033541 ]
[ 0.09163789 -0.14995098 -0.11178705]
[ 0.10641353 -0.3069492   0.09863115]
[ 0.08399922 -0.11538881 -0.23032537]
[-0.02816331 -0.25330701  0.17037767]
[-0.02918809 -0.00221539 -0.29440671]
[ 0.03800819 -0.05698645 -0.01101174]
[  6.34076423e-06  -5.25313132e-02  -7.39150913e-03]
[ 0.03542453 -0.07055148 -0.0554877 ]
[-0.48342639  0.67238557  0.32844031]
[-0.19216511  0.11982832 -0.21412934]
[-0.14299798  0.09846165 -0.10082828]
[ 0.0507117  -0.10478845 -0.04633076]
[ 0.11493569 -0.04816919 -0.04945296]
[ 0.01488994 -0.1497383   0.10759583]
[ 0.05898386  0.17258522 -0.03495784]
[-0.03303376  0.35407695  0.25336015]
[-0.18136913  0.11151281  0.12178897]
[-0.69656068  0.62019247  0.4161146 ]
[-0.18351643 -0.15868889 -0.09555908]
[-0.05630814  0.15821683 -0.060698  ]
[-0.18281096 -0.47749749 -0.2691752 ]
[ 0.08183965  0.64110321 -0.22498518]
[-0.15804161  0.09130695  0.09434604]
[ 0.10825197 -0.13636363 -0.00768329]
[ 0.08861534 -0.3262668   0.05115512]
[ 0.03855113  0.09466243 -0.26617572]
[-0.05369367  0.16332105  0.01193393]
[ 0.00825462 -0.24927486 -0.20177673]
[-0.08144164 -0.39570534 -0.01655091]
[-0.67020589  0.63699174  0.48437962]
[-0.48863438  0.02966765 -0.16025665]
[-0.18125039  0.11453933 -0.09655338]
[-0.11382632  0.02490878 -0.11202611]
[-0.17173985  0.60397017  0.55315804]
[-0.32397243  0.12437405  0.23019347]
[-0.06016999 -0.28276065 -0.21973707]
[ 0.09785867  0.57004243 -0.12986051]
[-0.15891914  0.15148677  0.09667693]
[ 0.06093237 -0.30322194 -0.08034629]
[ 0.15606841  0.04956817 -0.06480045]
[-0.05617243 -0.14069338  0.09913368]
[-0.00794838 -0.5842278  -0.09409793]
[ 0.13845363  0.46052089 -0.07467811]
[-0.08194649 -0.03528156  0.10503203]
[-0.41907275  0.37611493  0.34771857]
[ 0.05984015 -0.30070871 -0.189661  ]
[-0.02975378  0.16594224 -0.15089743]
[ 0.00582028  0.01534986  0.01982283]
[-0.07760443  0.00119198 -0.02045498]
[ 0.02892722 -0.11245528 -0.00200274]
[-0.04056915  0.11323612 -0.33454487]
[-0.04631833  0.20742324 -0.94390327]
[ 0.49843311  0.25116628 -0.68198329]
[-0.24983242  0.52720618  0.17881501]
[-0.05505221  0.18377282 -0.19736226]
[ 0.23947902  0.01824454 -0.38380051]
[ 0.06328866 -0.48910689 -0.91568238]
[ 0.23478147 -0.98210263 -1.0078429 ]
[ 0.03391274 -0.39310205 -0.02978017]
[-0.12149645 -0.20086972 -0.65211535]
[-0.12358856 -0.4960447  -0.67020261]
[ 0.0191548  -0.4754754  -0.35063013]
[ 0.26637167 -0.21444197  0.09795766]
[-0.08146624 -0.3140294   0.07742135]
[-0.42455867  0.0074403   0.00273983]
[ 0.22942942  0.07378449 -0.17353788]
[-0.15366371 -0.0649708  -0.47114584]
[ 0.12527718  0.07322801 -0.48487672]
[ 0.39320105 -0.25242054 -0.11097879]
[-0.30708188 -0.53311008 -0.04893944]
[-0.64081019 -0.20616323  0.11923984]
[ 0.11881803 -0.95322764  0.24889244]
[ 0.25053611 -0.34861779 -0.0498696 ]
[-0.04254981  0.42643514  0.10386251]
[ 0.17902257 -1.68186903 -0.54141593]
[ 0.14061616 -1.63630664 -0.75252068]
[-0.08397783  0.15361372  0.26216373]
[ 0.10069311  0.10575969  0.17571253]
[ 0.02833501  0.02693573  0.09428618]
[ 0.04735556  0.13687393  0.06398052]
[ 0.02843281  0.04904182  0.07144696]
[ 0.01215471 -0.00094647 -0.04202886]
[ 0.02329246  0.10379286  0.04019687]
[ 0.10846213 -0.35275295  0.38849515]
[-0.07163195 -0.44965836  0.10452656]
[-0.4164547   0.25484598  0.05086543]
[-0.23117591 -0.14948995 -0.09196348]
[-0.27112049 -0.00833953 -0.18957464]
[-0.10151131  0.00811943 -0.13145775]
[-0.13320877  0.26097879 -0.5213176 ]
[-0.03840654  0.15147819 -0.9247666 ]
[ 0.59714013  0.1143212  -0.51644266]
[ 0.14034535 -0.1082149   0.28435418]
[-0.05177017  0.06474645  0.16674808]
[-0.24857509  0.38322559 -0.00594342]
[-0.5368951   0.57463568  0.62720716]
[-0.23043786  0.14276734 -0.31167841]
[ 0.17125417  0.00185979 -0.86304873]
[ 0.3173964  -0.05555377  0.34908575]
[ 0.06775573 -0.39981812  0.07272254]
[-0.29691792  0.2273376   0.01827902]
[ 0.04425079  0.04724039  0.17478228]
[ 0.00556345  0.09706532  0.01962264]
[-0.01312873  0.14280117  0.12535201]
[ 0.06971892  0.0766921  -0.37854704]
[-0.07175793  0.00757422 -0.85395116]
[ 0.30543527  0.1020351  -0.56738842]
[-0.27419466  0.47565633  0.43541279]
[-0.0452051   0.24498719 -0.17124246]
[ 0.14507124 -0.03883534 -0.37189689]
[ 0.27101868 -0.72246838 -0.16023526]
[ 0.39474031 -0.94720405 -0.22142991]
[ 0.05588835 -0.03619842  0.20993036]
[ 0.04823404  0.06892412 -0.22652754]
[-0.16601427  0.12240914 -0.70541048]
[ 0.29902124  0.19210932 -0.60807216]
[-0.33118841 -0.54044628 -0.47033229]
[-0.75913465 -1.08162951 -1.58333278]
[-0.53891999 -0.27333313 -0.09882549]
[ 0.3132644  -0.07496286  0.19415343]
[-0.06195772 -0.46484977  0.0215083 ]
[-0.60537094 -0.08218366 -0.02558439]
[-0.31590754  0.38439015  0.17976089]
[ 0.03589523  0.26901507 -0.17769657]
[ 0.28087357  0.30453822 -0.3832815 ]
[ 0.08594581  0.23329215 -0.28684562]
[-0.05593429  0.06317035 -0.7457394 ]
[ 0.45892495  0.29221699 -0.74459863]
[ 0.32994223 -1.32443798 -0.84235609]
[ 0.21573485 -1.9350493  -1.07275605]
[-0.06886075 -0.15018547  0.04804211]
[-0.17541058 -1.3645165  -0.35123393]
[-0.57347554 -1.58068705 -1.03637159]
[-0.52988243 -0.01010938 -0.08142693]
[-0.27818495  0.68807489  0.54375082]
[-0.02833955  0.16931035 -0.45837286]
[ 0.18568309 -0.11208671 -0.36477944]
[-0.41751036  0.52986789  0.38189825]
[-0.28757736  0.06203056 -0.76708508]
[-0.0789777  -0.17479302 -0.61430281]
[ 0.34210309 -0.25570187 -0.29289311]
[-0.30884287 -0.75762928 -0.12313627]
[-0.43884718 -0.4704954  -0.05179479]
[-0.11552368 -0.04037716  0.08781833]
[-0.10876867 -0.02979309 -0.11455241]
[ 0.00482166  0.11670636  0.01236319]
[-0.02581884 -1.03448939  0.60857958]
[-0.98940843  0.38896823  0.40693077]
[-0.21072543  0.32838541 -0.15659741]
[ 0.33349785 -0.88323367 -0.02836515]
[-0.36842218  0.31506243  0.08162121]
[-0.23821759  0.43346918 -0.1363679 ]
[-0.73705083  0.0859078   0.18338527]
[-0.14658956  0.24864723 -0.55784655]
[-0.17826252 -0.31748256  0.15709475]
[-0.12495045 -0.28118655 -0.15734538]
[-0.6249637  -0.72764719 -0.75901616]
[-0.39808044 -0.39532524 -0.63163084]
[-0.19682205  0.13880721 -0.31875527]
[ 0.18461043 -0.07425214  0.05954155]
[ 0.31368938 -0.37559628  0.23156449]
[-0.45329574 -1.40933418 -0.12648387]
[-0.74099779 -0.32925811  0.72983986]
[-0.11649512  0.22219869  0.07406897]
[-0.37366211 -0.09833932 -0.54780024]
[ 0.11232595 -0.43472198  0.29356819]
[ 0.31560838 -0.51453894  0.19122551]
[-0.04032657  0.48228395 -0.2697596 ]
[ 0.3981477   0.23091811 -0.43338025]
[-0.07256349 -0.22801813  0.06638434]
[-0.06286742  0.49758062 -0.04292734]
[ 0.44176123 -0.10916545 -0.7254107 ]
[-0.14285684 -0.12067015  0.18165022]
[-0.02574948  0.07917734 -0.05979507]
[ 0.09072445  0.02172542  0.09459215]
[ 0.18315837 -0.02241848  0.09260405]
[ 0.08977843  0.01947488  0.00673205]
[ 0.02337027  0.03561984  0.06594113]
[-0.0891808  -0.04058636  0.00705663]
[-0.32450986  0.49366042 -0.26129067]
[ 0.21998426  0.26892287 -0.47564733]
[ 0.09551363 -0.41798776  0.21239151]
[ 0.2106605  -0.0415412  -0.06659894]
[ 0.07744823 -0.241595    0.02629804]
[-0.08452286 -0.05846316 -0.07328158]
[-0.08435242 -0.92510831  0.43590155]
[-1.00623834  0.53492242  0.23435117]
[-0.16362849  0.44529122 -0.39844579]
[ 0.12880246  0.35151008 -0.22045255]
[ 0.41874677 -0.03989122  0.0606075 ]
[ 0.35253233 -0.40364584  0.12602416]
[ 0.67203873 -1.2881037  -0.00223964]
[ 0.00815461  0.1182905   0.1676594 ]
[-0.21259084  0.42105895 -0.11440524]
[-0.48757675  0.51279217 -0.14677283]
[ 0.27816385  0.38885036 -0.53239071]
[ 0.25203323 -0.38459858  0.29626301]
[ 0.08128132  0.08592791 -0.07998717]
[ 0.04722122 -0.05153422  0.06246027]
[ 0.00688455 -0.00823583  0.02182272]
[-0.46520343 -1.21215165  0.20046875]
[-0.95703149  0.09651974  0.31620106]
[-0.19700493  0.2593374  -0.10982191]
[ 0.36936992 -0.88135701  0.01020384]
[-0.14836411  0.10387308  0.04406555]
[-0.28370526  0.3036817  -0.12605047]
[-0.22502618  0.54923344  0.11630134]
[ 0.44132793  0.34273016 -0.60266227]
[ 0.17151378 -0.03933008  0.2182834 ]
[-0.2397327  -1.4441762   0.48664281]
[-0.80535334  0.21824276  0.5676676 ]
[-0.16974184  0.35900185 -0.00800475]
[-0.39742821 -0.18636957 -0.20730102]
[-0.46096092 -1.26069283 -0.55310321]
[-0.7556625  -0.05494758 -0.13938878]
[-0.29418266  0.32478485 -0.32472071]
[ 0.2089279   0.09009554 -0.08603404]
[ 0.27186817 -0.47463477  0.26138532]
[ 0.563375   -0.89635533  0.03990814]
[-0.15977259  0.24061207  0.14049619]
[-0.22633104  0.36838669 -0.06827953]
[-0.12294456 -1.43751073  0.37715122]
[-0.92869306  0.1857115   0.47550064]
[-0.30765361  0.2907289  -0.09800571]
[-0.31460235  0.4069925   0.21032964]
[ 0.35244483 -0.03090518 -0.83556056]
[-0.14761817 -0.33075085  0.20190996]
[-0.01973748  0.33280325 -0.06177333]
[ 0.2597456  -0.86356056 -0.65626287]
[-0.515544    0.03523939 -0.01138136]
[ 0.30965501 -0.92771715 -0.07538156]
[-0.14008181  0.03511048  0.01549803]
[-0.36889067  0.39168769 -0.19565903]
[-0.13543676 -0.89317876 -0.13003328]
[-0.330046   -0.75481755 -0.03750705]
[-0.50839853  0.1941548  -0.12491079]
[-0.95767748 -0.89896536 -0.52745515]
[-0.61438066 -0.64918244  0.36726022]
[ 0.12708123 -0.30358478  0.13729402]
[ 0.12905219  0.07715781 -0.15502727]
[ 0.09712355 -0.1566961   0.03174316]
[-0.07193087 -0.08522164 -0.05969001]
[-0.52368045 -0.12847023 -0.17904226]
[ 0.22896898 -0.46554741 -1.02260029]
[ 0.3693009  -0.18779296 -0.53168601]
[ 0.15353681 -0.03620293 -0.30129796]
[-0.37298131  0.02845369  0.11221023]
[-0.44045204 -0.10895881  0.42442673]
[-0.00836026  0.31130755  0.25028172]
[-0.21843028  0.60636926  0.419054  ]
[-0.63987154 -0.13421665  0.24436168]
[-0.06366213  0.41631886 -0.01489567]
[-0.42952207 -0.19869483 -0.32515287]
[-0.55797213 -0.80311167 -0.75891966]
[-0.2206881 -0.9784171  0.0505401]
[-0.04183175 -0.62759572 -0.00658974]
[-0.02152323  0.37462026 -0.20386408]
[-0.59647089 -0.43847913 -0.16063839]
[ 0.31651378  0.10294107 -1.34840906]
[ 0.38611653  0.19641121 -0.67992538]
[-0.32222393 -1.15786326 -0.18607457]
[ 0.06425548 -0.4423641  -0.30774659]
[ 0.08470379  0.3027575  -0.51585084]
[-0.07098138  0.2024983   0.25094911]
[-0.50958055 -0.09367397 -0.00304104]
[-0.61057502 -0.43165442 -0.11686771]
[ 0.11432938  0.41155478  0.37460864]
[-0.09309389  0.33744207  0.20791557]
[-0.71207565 -0.26971266  0.00912242]
[-0.04505502  0.05920411  0.06585111]
[-0.08194292 -0.09477538  0.01488265]
[ 0.07743125 -0.07888012 -0.04530726]
[-0.0122848   0.05448758 -0.06711564]
[ 0.00831123 -0.08755389  0.02313679]
[-0.07705448  0.01402675 -0.06898993]
[-0.11150154 -0.77852732  0.27242833]
[-0.1828775  -0.52028161  0.13631651]
[-0.21186608  0.08992773 -0.05777465]
[-0.09095526  0.18117151  0.15167743]
[-0.16492516 -0.10660945 -0.02038493]
[ 0.13487197 -0.26155648 -0.15550676]
[-0.44893256  0.12657283 -0.3968291 ]
[ 0.25957164 -1.03168726 -0.75198632]
[ 0.34847215 -0.50419998 -0.23785627]
[-0.26579103 -0.28710097  0.23203886]
[-0.29745939 -0.38345751  0.11262788]
[ 0.00053613  0.06117042  0.02387265]
[ 0.07820655  0.01448543 -0.44275117]
[-0.28012642 -0.01832929  0.05752715]
[-0.12910517 -0.29914454  0.43077382]
[-0.20933315 -0.78682625  0.25923678]
[-0.28028178 -0.77274734  0.1493056 ]
[-0.2569873   0.03298552  0.01365929]
[-0.03262105  0.13739407  0.02656176]
[-0.09287889 -0.01043695 -0.01299457]
[ 0.02926339 -0.15561436 -0.05070832]
[-0.47533408  0.16793238 -0.31726363]
[ 0.36547703 -0.61940056 -1.07845509]
[ 0.31811559 -0.15764442 -0.61481279]
[ 0.15437762 -0.01680885 -0.34016362]
[-0.18847527  0.02648841  0.1160202 ]
[-0.30068856 -0.10283653  0.3756887 ]
[-0.05182011  0.33047649  0.22254193]
[-0.07458795  0.30757675  0.25476083]
[-0.42374346  0.13460597  0.2851367 ]
[-0.64791548 -0.19283748 -0.28632799]
[ 0.4419069  -0.46499133 -1.26677799]
[ 0.46074605 -0.08838835 -0.61448133]
[ 0.36690688  0.50862372 -0.1569223 ]
[ 0.19972394  0.4943817   0.06792267]
[-0.78980649 -0.15874724  0.07406106]
[-0.20224507 -1.25493324  0.05262012]
[-0.12679587 -0.75213867  0.08580974]
[-0.11132349  0.31812274 -0.12181957]
[-0.08562537 -0.05176146 -0.00011844]
[-0.35583147 -0.22968955 -0.12830436]
[-0.00071813 -0.33618835  0.19887379]
[-0.57953173  0.14443542 -0.21624257]
[ 0.29544938 -0.29860273 -1.11227572]
[ 0.38090366 -0.02965809 -0.65612161]
[-0.04248687  0.43364349  0.31698406]
[-0.12324772  0.62267613  0.40699324]
[-0.83256966 -0.18556985  0.18516369]
[ 0.32151443  0.53707105  0.04227832]
[ 0.2885702   0.4272452   0.09511604]
[-0.70488346  0.08995192  0.04911539]
[ 0.5752148   0.09547466 -0.37083372]
[-0.00586874  0.14090256  0.22805496]
[ -4.43463981e-01  -1.61980541e-04   4.07590479e-01]
[ 0.55074018  0.20334512 -0.52850848]
[ 0.02965643  0.408068    0.07086615]
[-0.72818387 -0.00552656  0.31826675]
[-0.35514316 -0.65802038 -0.42615405]
[ 0.25611022 -0.24220352 -1.02608109]
[ 0.17855938  0.27514175 -0.85791069]
[ 0.03265348  0.27041504  0.15578824]
[-0.16570078 -0.08572002  0.01104372]
[ 0.00785428 -0.09015117 -0.04366138]
[-0.14151557 -0.25224984 -0.11342651]
[ 0.19461098  0.25159642 -0.55753446]
[ 0.13872923  0.24831553 -0.06973702]
[ 0.29808441  0.09626994 -0.26100636]
[ 0.31020436  0.12922478 -0.86576527]
[ 0.25534922 -0.22716862 -0.55408996]
[ 0.098368    0.13892534 -0.13874106]
[-0.05753247  0.09929892 -0.07290936]
[-0.19623356  0.15957397  0.29855266]
[ 0.02608224  0.05123301  0.05559352]
[ 0.15156823  0.07139391 -0.10459041]
[ 0.24129057  0.21869355 -0.02049112]
[-0.26234621 -0.31934997 -0.23333307]
[-0.30614758 -0.54232603 -0.24717796]
[-0.47425318 -0.43670186 -0.22101893]
[-0.42056015 -0.42384115 -0.11320253]
[-0.132947    0.00666778 -0.62484109]
[ 0.04335775  0.17783707 -0.46406949]
[-0.62091726 -0.39382952 -0.28882107]
[-0.70493907 -1.03601742 -0.40147844]
[-0.93370521 -0.81645101 -0.53236258]
[-0.17599605 -0.0205537  -0.12103782]
[-0.16534698 -0.04535454  0.00336096]
[ 0.01090258  0.21792516  0.13415739]
[ 0.02408784  0.17162772 -0.26704767]
[-0.12906438 -0.03610904 -0.0840468 ]
[ 0.13181886  0.39805946  0.28368384]
[-0.03519883  0.04095401  0.06091462]
[-0.07089557  0.01864135  0.04288676]
[-0.01989047  0.03920936  0.13034698]
[-0.1054445   0.04756815 -0.07871321]
[-0.04946802  0.0792653   0.02972629]
[ 0.02814872  0.02483379  0.04344222]
[-0.56071264 -0.99926591 -0.36506745]
[-0.43376663 -0.59653544 -0.27871525]
[-0.11113333  0.0002776  -0.21606308]
[-0.05816941 -0.04738332  0.04288572]
[-0.196696   -0.10472302 -0.0394332 ]
[-0.06143881 -0.11796945 -0.18039505]
[ 0.03208172 -0.1079585  -0.09880573]
[  4.61849749e-01  -2.72051344e-04  -6.48172557e-01]
[ 0.4543575  -0.08664844 -0.33063933]
[-0.50293916 -0.10831454  0.01098927]
[-0.52052695 -0.17022918  0.03604845]
[-0.31531391  0.01821192 -0.09187998]
[ 0.42815277  0.13544756 -0.26193812]
[ 0.18113512  0.10440075 -0.83617997]
[ 0.23766083 -0.21054327 -0.5408805 ]
[-0.57999253 -0.93276858 -0.25957519]
[-0.53066599 -0.75725091 -0.28628558]
[-0.33990991 -0.01695375 -0.33750984]
[ 0.05016756  0.08310333  0.11143672]
[-0.0700542  -0.01133107  0.01122685]
[ 0.06925891  0.06533764  0.08733549]
[-0.393071   -0.24142407 -0.14032173]
[ 0.03420315 -0.0933897  -0.743635  ]
[ 0.13357082 -0.10117689 -0.34653521]
[ 0.53744644  0.10424172 -0.14196017]
[ 0.27852452  0.23679535 -0.6161105 ]
[ 0.33662173 -0.11765718 -0.34110722]
[ 0.12724547  0.09960897 -0.26030344]
[ 0.0317483   0.02711533 -0.06390592]
[ 0.12604319  0.19230279  0.11515809]
[-0.35921341 -0.17825916 -0.24359559]
[ 0.01347678 -0.03095274 -0.61140299]
[-0.06933141  0.05143547 -0.47579098]
[ 0.48302183  0.09010718 -0.82474804]
[ 0.18360789 -0.20414211 -0.36596909]
[ 0.18856744  0.17606379  0.15396741]
[-0.5813337  -0.78322011 -0.2957294 ]
[-0.70734787 -1.03261948 -0.31491753]
[-0.70466173 -0.35794196 -0.31765696]
[ 0.19403668 -0.08485671  0.1217871 ]
[ 0.13064507  0.21491365 -0.16293767]
[ 0.24643004 -0.01387236 -0.24597059]
[-0.34423429 -0.15938869 -0.10783845]
[ 0.10792826  0.10109406 -0.72922045]
[ 0.1798625   0.10644738 -0.27701235]
[ 0.01429195  0.02053456 -0.57866448]
[-0.22557542 -0.03228829 -0.21128576]
[ 0.05176104  0.30494592  0.22110918]
[ 0.30107558  0.12459171 -0.52796793]
[ 0.17512628 -0.00130455 -0.12337057]
[ 0.19727749  0.32195556  0.30909225]
[ 0.5498426   0.13790788 -0.33785394]
[ 0.22719063  0.06116861 -0.47104272]
[ 0.28481308 -0.09074348 -0.18440279]
[ 0.66968656  0.29573879 -0.85275805]
[ 0.25320604  0.11228264 -0.70803833]
[ 0.29425809 -0.1381865  -0.24462098]
[-0.68048328 -0.39015102 -0.24604008]
[-0.46055287 -0.62774748 -0.62703782]
[-0.3979007  -0.56763256 -0.49110413]
[-0.0588913   0.00779146  0.07267565]
[-0.10049016 -0.04261354  0.00724562]
[-0.05246345  0.00934509 -0.03701204]
[ 0.1182956   0.1252466  -0.38679588]
[ 0.28725541  0.14766575 -0.54610294]
[ 0.20641573 -0.00376626 -0.47475159]
[-0.05460625  0.07656444 -0.46154353]
[ 0.08272295  0.02355567 -0.30381101]
[-0.10355887  0.22262806  0.00507193]
[ 0.49137783  0.4057506  -0.8536514 ]
[ 0.03628211  0.17314517 -0.50159627]
[ 0.38312241  0.28742459 -0.36541948]
[ 0.16217136 -0.13295136 -0.56644505]
[ 0.18879832 -0.33915409 -0.51856619]
[ 0.30263376 -0.14531256 -0.18027042]
[-0.26931286 -0.13105883  0.39183187]
[-0.41505009 -0.20483559  0.25665593]
[-0.29273042 -0.10285866  0.45281485]
[-0.03260849 -0.00475514 -0.03788557]
[ 0.27741566  0.1215212  -0.24178395]
[ 0.17154646 -0.07842235 -0.19467123]
[-0.31242093 -0.23684707  0.38639271]
[-0.16796176 -0.24972978  0.3426404 ]
[-0.31155899 -0.13847105  0.47150576]
[ 0.04848869 -0.15573268 -0.1622182 ]
[-0.04851215 -0.01849588 -0.09767478]
[ 0.07400361 -0.03848446 -0.19103454]
[ 0.41697696 -0.04117432 -0.66726029]
[  1.07104644e-01  -3.13696044e-04  -5.10435700e-01]
[ 0.21393275 -0.01267631 -0.31458503]
[ 0.00572041  0.04156587  0.08826398]
[-0.00253679  0.00387955  0.12093145]
[-0.09506425 -0.05169502  0.0765724 ]
[-0.02814379 -0.09586292 -0.03763124]
[-0.08375613 -0.06320376  0.09870268]
[ 0.01723488 -0.07234733 -0.07330509]
[-0.17785566 -0.46580401  0.45907027]
[-0.37775686 -0.14938807  0.13380712]
[-0.05142931 -0.11996037  0.0108172 ]
[-0.17335659 -0.08500879 -0.09150045]
[-0.11880973 -0.02891669 -0.05983529]
[-0.22075751 -0.07164998 -0.0928892 ]
[ 0.20247898  0.00706845 -0.46448532]
[ 0.3695595  -0.01952679 -0.61220682]
[ 0.06662656 -0.12705691 -0.23853481]
[-0.39287934  0.00296201  0.42772552]
[-0.46259794 -0.01098469  0.32265258]
[-0.25242582  0.00687766  0.20697372]
[-0.14665817  0.03868117  0.05764506]
[ 0.01365694  0.02873362 -0.19813018]
[-0.22145511  0.242357    0.29725185]
[-0.25094339 -0.45413381  0.58404702]
[-0.38663489 -0.14173204  0.3806738 ]
[-0.15221025 -0.05471288  0.19314939]
[-0.00311829  0.03659675  0.00386803]
[ 0.04422778  0.06458271  0.03333911]
[-0.06643972 -0.00069493  0.0193872 ]
[ 0.19913721  0.00591732 -0.31527671]
[ 0.2732358   0.02821618 -0.48939866]
[ 0.23558812 -0.17504805 -0.39709008]
[-0.05734308  0.09647708 -0.108785  ]
[-0.02053377 -0.028074   -0.25500366]
[-0.14761171  0.15349354  0.03543931]
[ 0.19554332 -0.06208545 -0.40602347]
[-0.05897753 -0.12049156 -0.24783421]
[ 0.16993813 -0.00325663 -0.2841613 ]
[ 0.18461572  0.1228416  -0.18883133]
[ 0.35966751  0.04637902 -0.3105624 ]
[ 0.14348225 -0.1602952  -0.29621813]
[ 0.39131376  0.0740222  -1.01330566]
[ 0.07806951  0.01978558 -0.75864482]
[ 0.22425954  0.17954138 -0.48845455]
[-0.35464939 -0.27292454  0.61971128]
[-0.3951937  -0.31888431  0.32219031]
[-0.27806324 -0.07736295  0.20736159]
[-0.10760262  0.03241407 -0.03739702]
[ 0.08470652  0.13909388 -0.27909797]
[-0.12130114  0.10203212  0.0105339 ]
[ 0.14461656  0.0454457  -0.3462365 ]
[ 0.33140391  0.11055742 -0.50098479]
[ 0.07623655 -0.06270362 -0.45480743]
[ 0.52910697  0.10670894 -0.74499524]
[ 0.16487819  0.06130416 -0.45438573]
[ 0.36763224  0.19297515 -0.36875623]
[ 0.43549398 -0.16345833 -0.89817035]
[ 0.13574585 -0.03831888 -0.72416204]
[ 0.28067327  0.06608149 -0.58485109]
[ 0.01018414  0.07441108 -0.34130213]
[ 0.00552764 -0.03526421 -0.22754958]
[-0.02558418  0.06805417 -0.22419551]
[ 0.19964407  0.11741932 -0.7867865 ]
[-0.17712633 -0.12540446 -0.4767158 ]
[ 0.1242762   0.14676882 -0.42454576]
[-0.11878785 -0.1570984   0.13443089]
[ 0.15041405 -0.16731781  0.12070892]
[-0.10495391 -0.25673804  0.02548403]
[-0.04842709  0.09410287  0.06430192]
[-0.00887468 -0.01995819  0.02051262]
[-0.05481765 -0.0897086   0.00436773]
[ 0.18196817  0.5171088  -0.5916124 ]
[ 0.12511674 -0.01186715  0.0100224 ]
[-0.03020352  0.20003895  0.10977563]
[-1.75513244 -0.21696229  0.14217737]
[-1.21586764 -0.03500411  0.13924217]
[-0.58896625  0.39429852  0.13313589]
[ 0.20874254  0.10227659 -0.1803733 ]
[ 0.30270258  0.22772767 -0.73391867]
[-0.10647549  0.30376136 -0.44545943]
[-0.40680522 -0.37085545 -1.16782737]
[ 0.00454159 -0.33642036 -0.77328098]
[-0.07557158 -0.34048015 -0.44859952]
[ 0.14918132  0.04804473 -0.0333133 ]
[-0.05159539  0.10188219  0.01274616]
[ 0.13985878 -0.19333807  0.16839714]
[ 0.2898998   0.71017444 -0.54559451]
[-0.04406777  0.14852446  0.14307916]
[-0.15862928 -0.24368706  0.16990179]
[ 0.21772319  0.18171477 -0.31503078]
[-0.08478276  0.0647747   0.06177453]
[ 0.03896612 -0.48345146  0.04350815]
[-0.1857432  -0.06282425 -0.44502068]
[ 0.4456754   0.42914036 -0.80684215]
[ 0.20038441  0.17838109 -0.17342159]
[ 0.09729544  0.01245364 -0.36106944]
[ 0.44397148  0.36236396 -0.96071047]
[ 0.13220498 -0.00652444 -0.63460785]
[ 0.0781901  -0.06970757 -0.07957446]
[-0.02392312  0.00482806 -0.05768492]
[-0.03192268 -0.03391613  0.04431143]
[-0.03182669 -0.04452212 -0.01094802]
[ 0.06611403  0.07486877 -0.08035926]
[ 0.05167558  0.02058483 -0.05619286]
[-0.23234379 -0.19885366  0.01222937]
[ 0.15859656  0.3972618  -0.3715317 ]
[  2.78037697e-01   1.14497989e-01  -2.23664261e-04]
[ 0.08994265 -0.03553551 -0.22816567]
[ 0.09818942 -0.07113084 -0.03081787]
[-0.11892887 -0.10488145  0.0093551 ]
[ 0.47382757  0.11238132 -0.6671136 ]
[ 0.35237241  0.10232831 -0.18057388]
[  1.43174286e-04   2.29348093e-01   6.52533621e-02]
[-0.10694922 -0.18414266  0.01802114]
[ 0.09938785  0.05613523 -0.03769497]
[ 0.16150402 -0.15568908  0.14116058]
[-1.4968853  -0.66132694  0.07259945]
[-0.96870291 -0.28530023  0.15000623]
[-0.33788154  0.30728677  0.2018007 ]
[-0.14699507 -0.27580965  0.19023299]
[ 0.08159433  0.35155985 -0.22798602]
[ 0.31114715  0.14499928  0.10863721]
[ 0.04875755 -0.13405021 -0.10297044]
[ 0.03478551 -0.00118899 -0.04337386]
[-0.04053601 -0.11079325  0.02237085]
[ 0.37788886  0.51335704 -0.68603092]
[ 0.24599425  0.0837341  -0.17908593]
[-0.0795086   0.03561644 -0.03439945]
[-1.47551382 -0.24164344  0.15799439]
[-1.04967308 -0.06008031  0.1249606 ]
[-0.44416645  0.34102941  0.05490272]
[ 0.05053141  0.26111451 -0.10272814]
[ 0.20565747  0.31403771 -0.48972121]
[ 0.12403176  0.19916932 -0.32111821]
[ 0.38423905  0.55392545 -0.53628892]
[ 0.04678586  0.03694271 -0.06837174]
[-0.12257402  0.03523798  0.19172749]
[ 0.05954446 -0.23230401 -0.38719252]
[ 0.09831346 -0.58074915 -0.82610255]
[-0.29111949 -0.58986282 -0.80241901]
[-0.0172956  -0.07406432  0.12485054]
[-0.04612338  0.22562985 -0.00586898]
[ 0.22370356 -0.06850175  0.20521493]
[-0.75315696 -0.4470467   0.01756897]
[-0.19245085 -0.14243636  0.00714212]
[-0.05268709  0.31425977  0.2364448 ]
[ 0.34845999  0.54575533 -0.55856228]
[ 0.19185294  0.16955288 -0.11198486]
[-0.07568911  0.11563877  0.12204141]
[ 0.24856164  0.24094206 -0.19524086]
[ 0.41910762  0.11823183 -0.86781883]
[ 0.07750907  0.07700029 -0.64943451]
[ 0.37606069  0.03646423 -0.44899386]
[ 0.38609454 -0.18827218 -0.95702553]
[ 0.13123539 -0.30111185 -0.81244087]
[-1.2629106  -0.23363927  0.15046816]
[-0.7700206  -0.20762727  0.09298269]
[-0.76967525  0.2920388   0.03071104]
[-0.53249097 -0.14982963  0.00112491]
[-0.4384245  -0.639027   -0.07341335]
[-0.65684015 -0.08516663 -0.20041816]
[ 0.39907247  0.37625432 -0.61555386]
[-0.24695426 -0.09113206 -0.1598597 ]
[-0.13135973 -0.50507033 -0.15869105]
[-0.03829619 -0.07999089 -0.21476805]
[ 0.14297193  0.0423157  -0.04729833]
[ 0.03758347 -0.09777915  0.01063485]
[ 0.29597843 -0.04299873 -1.09229076]
[ 0.61325526 -0.32925075 -0.80596507]
[ 0.52765542 -0.6786021  -0.04241841]
[ 0.02251831  0.29666764 -0.63975847]
[ 0.08918586 -0.77343297  0.11411797]
[-0.07180436 -0.85348475  0.41268742]
[ 0.38593733 -0.51250607 -0.2520332 ]
[-0.381428   -0.42697531 -0.21457255]
[-0.18232645  0.22763693 -0.14335319]
[-0.15700974 -0.38047403 -0.5009768 ]
[ 0.34917951 -0.37833399 -0.15942825]
[ 0.25235432 -0.13027531  0.06773462]
[-0.55600113 -0.28549156  0.31320548]
[-1.27454162 -0.01579657  0.14211001]
[-0.28802064  0.12005783 -0.0633313 ]
[ 0.00283983 -0.04041084 -0.56384212]
[ 0.54803377 -0.25816986 -0.57423717]
[ 0.282318   -0.71456099 -0.10954741]
[-0.84738284 -0.39731464  0.31393018]
[-1.36530864 -0.07364889  0.20477627]
[-0.70635563  0.05234074  0.00609287]
[-0.05369057 -0.00654854  0.23628555]
[ 0.00874047  0.12912861  0.04754901]
[ 0.08996996  0.18159062 -0.28051448]
[ 0.30666524 -0.40150958  0.03069105]
[-0.22011465  0.08045894 -0.19125426]
[ 0.05355571  0.233264   -0.18285908]
[ 0.00733397  0.04208871  0.11389608]
[ 0.08635302  0.04973186  0.10373675]
[ 0.18480846 -0.00436885  0.03753306]
[-0.07611679 -0.10055311 -0.03447909]
[ 0.08441923 -0.03654823  0.01335092]
[ 0.06038021  0.08472288  0.03906343]
[-0.69502223 -0.27512363  0.45951813]
[-0.8918016   0.0515688   0.26737386]
[ 0.03347884  0.19336557 -0.16775368]
[-0.22981282 -0.13893352 -0.22731628]
[-0.09931197 -0.1626219  -0.3302424 ]
[-0.10554318 -0.28977329 -0.38786244]
[ 0.35368323 -0.12413387 -1.28919673]
[ 0.67333061 -0.85505277 -0.50758278]
[ 0.23589157 -0.79460996  0.1508771 ]
[-0.64338356  0.07102322  0.21396123]
[-0.40183818  0.07728024  0.0697138 ]
[ 0.15675989  0.05999256 -0.2457346 ]
[ 0.07075921  0.43573612 -1.31223786]
[ 0.14224285 -0.3875843  -0.69199544]
[ 0.00098735 -0.63997048  0.12667587]
[-0.65169924 -0.35359275  0.5541271 ]
[-1.20764315  0.07856428  0.24973042]
[-0.16809584  0.25960675  0.06328377]
[ 0.03205864  0.02323624  0.07772144]
[ 0.07123922  0.03849186  0.00475822]
[ 0.15077052  0.06190155 -0.00514692]
[ 0.15140192 -0.28485292 -1.0257926 ]
[ 0.47569919 -0.73245931 -0.71274245]
[ 0.12945569 -0.89736915 -0.04472887]
[ 0.08475392  0.43224478 -0.60448885]
[ 0.16252336 -0.42515969  0.18364583]
[-0.00672136 -0.6075241   0.46059954]
[ 0.42341086 -0.37006038  0.24006321]
[-0.31171238  0.10766932  0.09853982]
[ 0.03493565  0.25703526 -0.04809071]
[ 0.14360903  0.02380313 -0.90108573]
[ 0.59859681 -0.46523273 -0.92291272]
[ 0.3490327  -0.82189643 -0.09510431]
[-0.0581277  -1.16381955 -0.59763724]
[-0.58072251 -0.82750815 -0.57986647]
[-0.18621683 -0.121432   -0.33196911]
[-0.90247434 -0.34696451  0.36437392]
[-1.8473618   0.04867431  0.31028163]
[-0.23540883  0.32307729  0.05318332]
[ 0.06420744  0.53492665 -0.4335711 ]
[ 0.25993195  0.14415871 -0.14290567]
[ 0.07620723 -0.64587975  0.22545767]
[ 0.26285371  0.07849647 -1.06118441]
[ 0.70694703 -0.42450601 -1.13923132]
[ 0.25555068 -0.9789983  -0.19672179]
[ 0.45794564 -0.61476946 -0.23538093]
[-0.43432805 -0.15127625 -0.27492368]
[-0.05432096  0.25951701 -0.10641851]
[ 0.06740158 -0.75511175 -0.22931702]
[-0.47700033 -0.35129645 -0.5539968 ]
[ 0.10853684  0.14829217 -0.43155229]
[ 0.17212485  0.35766721 -0.77031052]
[ 0.03476187 -0.67170674 -0.08060879]
[-0.15366314 -0.45731229  0.30625078]
[-0.03186155 -0.08292545 -0.89379084]
[-0.17146434 -1.02907717 -0.42512926]
[-0.21609516 -0.45215791 -0.0794889 ]
[-0.44145295 -0.65587646 -0.08433695]
[-0.35940003 -0.60793334  0.00892986]
[-0.53870028 -0.36425725 -0.04452121]
[-0.10007306  0.01091806 -0.04240976]
[ 0.01704735 -0.09800263 -0.1000819 ]
[ 0.11978573 -0.03128164 -0.1812586 ]
[ 0.11760963  0.00665053 -0.33079094]
[ 0.37413952 -0.27367324 -0.24267747]
[ 0.14778419 -0.23445705  0.13298994]
[-0.11038177 -0.28146049 -0.60149217]
[-0.0649346  -0.85805041 -0.89402485]
[-0.16410637 -0.28256187 -0.48717922]
[ 0.35265425 -0.58939612 -0.21308999]
[ 0.1814131  -0.15021269 -0.33255693]
[ 0.02089422 -0.1045132  -0.15926239]
[ 0.05474952 -0.14591099 -0.22377323]
[ 0.05172789 -0.0482769  -0.08909948]
[-0.22310266 -0.12591569  0.08803086]
[ 0.1541605   0.13611059 -0.32146779]
[ 0.09116454  0.09773565 -0.37622255]
[ 0.14840128  0.20644595 -0.03009701]
[ 0.29123002  0.10350806 -0.20589465]
[ 0.45824066 -0.08535278 -0.06430152]
[ 0.19675958  0.04048134  0.14044861]
[ 0.21616957  0.0562378  -0.56796175]
[ 0.05516192 -0.09598288 -0.43161368]
[ 0.23662421  0.0640358  -0.0660781 ]
[ 0.00453618 -0.0845835  -0.19818327]
[ 0.05528749 -0.13306859 -0.34056136]
[ 0.16745304 -0.10216653 -0.11413055]
[ 0.21375881 -0.23608571 -0.12373406]
[ 0.20267555 -0.09118979 -0.22918555]
[ 0.06744681 -0.05337162 -0.08298337]
[ 0.09271886  0.07861644 -0.00413787]
[ 0.11743857  0.02222891 -0.06158281]
[ 0.09581254  0.00481011  0.01497604]
[ 0.08058251 -0.02300145 -0.01883655]
[-0.06604789  0.00882474 -0.02800533]
[-0.08265728 -0.06936514 -0.06400602]
[ 0.10640248  0.17338134 -0.38478497]
[ 0.12792675  0.01333803 -0.47475946]
[ 0.47600135  0.1129265  -0.34115657]
[ 0.10646386 -0.00326862 -0.00068424]
[ 0.2035576   0.00411004  0.01086505]
[ 0.22675692 -0.01190426  0.02453631]
[ 0.12739471  0.00918737 -0.44429973]
[ 0.10055671 -0.28302467 -0.33124557]
[-0.04889472 -0.14458577 -0.07141443]
[ 0.20897749  0.1686006  -0.05655873]
[ 0.17050727  0.10764664 -0.28331497]
[ 0.32525766  0.06007249 -0.11815649]
[-0.03682814 -0.21757382 -0.44464466]
[-0.00483349 -0.75993043 -0.84995359]
[-0.06728406 -0.28191346 -0.46463946]
[ 0.17766833  0.26193333 -0.25325453]
[ 0.2219608   0.06951169 -0.54551256]
[ 0.42018062 -0.02122463 -0.44137326]
[ 0.06596877  0.01089292 -0.0306378 ]
[ 0.11964437 -0.00890351 -0.09274975]
[ 0.13406339 -0.03841128 -0.03759682]
[ 0.2173492  -0.07018857 -0.38949177]
[ 0.17694151 -0.27520913 -0.40947694]
[ 0.05743689 -0.30284151 -0.08696415]
[ 0.02076554 -0.1650607  -0.44404307]
[-0.00148556 -0.68391663 -0.68791336]
[-0.05789835 -0.23214658 -0.38666338]
[ 0.43040657  0.13283268  0.45005026]
[ 0.41392037  0.28941682  0.21181025]
[ 0.27788642  0.06371239  0.25842392]
[ 0.18221466 -0.01735572 -0.26496783]
[ 0.36961094 -0.30240354 -0.16465932]
[ 0.22291155 -0.2245706   0.08227104]
[  4.90387669e-04  -5.83809257e-01  -3.74375731e-01]
[-0.02744097 -0.37286106 -0.50183856]
[-0.07139868 -0.18514305 -0.25891009]
[ 0.17348358  0.11246828 -0.45435789]
[ 0.05896769  0.05854036 -0.59525555]
[ 0.38064995  0.12149938 -0.24997286]
[-0.00152761 -0.10094251 -0.43119577]
[ 0.2172408  -0.49129325 -0.58292824]
[-0.03885916 -0.25995815 -0.28626022]
[ 0.19717239  0.00257845 -0.27075818]
[ 0.40199125 -0.22641543 -0.32798496]
[ 0.08254848 -0.27146018 -0.07212461]
[ 0.36060441 -0.51077092 -0.15121104]
[ 0.36371872 -0.25006124 -0.22617687]
[ 0.03670228 -0.07928228 -0.03947734]
[ 0.02128967 -0.52392805 -0.17713869]
[ 0.01473724 -0.21478567 -0.35802066]
[-0.02758436 -0.1414686  -0.11260233]
[-0.04674562 -0.37699607 -0.36954635]
[-0.05290266 -0.72049898 -0.79400361]
[-0.14966151 -0.23532689 -0.52235687]
[-0.0577782  -0.47201559 -0.33268571]
[-0.07511489 -0.78088915 -0.83834463]
[-0.2824932  -0.41793951 -0.63622826]
[ 0.33009443  0.05901173 -0.30569041]
[ 0.25169471  0.02093309 -0.12388337]
[ 0.20304529  0.05931669  0.19316286]
[ 0.1621871   0.00223909 -0.03121329]
[ 0.17505316  0.01924073  0.01974566]
[ 0.25680611  0.10402436  0.02292873]
[ 0.29686701  0.01451882 -0.58312607]
[ 0.19432421 -0.48246077 -0.50363159]
[ 0.24411802 -0.60853428 -0.36947474]
[-0.35941985 -0.39419466 -0.02867896]
[-0.46149376 -0.5598805  -0.17855573]
[-0.01261284  0.23424754 -0.41366908]
[ 0.10216182 -0.64816004 -0.45018116]
[ 0.56550741  0.44512019 -0.58687538]
[ 0.47513658  0.39503235 -0.33371285]
[-0.04485167 -0.50841725 -0.48737741]
[ 0.07901607 -0.25741026  0.00944103]
[ 0.16152431 -0.234384   -0.03285231]
[-0.28576067  0.16482703  0.2613636 ]
[-0.77475846  0.0136034   0.16295519]
[-0.0811279   0.015916    0.12336322]
[ 0.33032557  0.1630826  -0.27498081]
[-0.00845876  0.04966917 -0.06132387]
[ 0.34964222 -0.3553825  -0.15722594]
[-0.26197058  0.08627069  0.23307952]
[-0.89996624  0.03840397  0.11174169]
[ 0.00504768  0.04056535  0.19956025]
[ 0.0053158  -0.14664644 -0.13409549]
[ 0.3665866  -0.12890892 -0.32370582]
[ 0.20441963 -0.17997259 -0.27434379]
[ 0.3190161  -0.37613922 -0.18968549]
[ 0.35527092  0.15320222 -0.54664654]
[ 0.28894901  0.09557059 -0.24123843]
[ 0.13299382  0.12791148  0.07899736]
[ 0.03661742  0.03604407  0.03858631]
[-0.00517568  0.10544753  0.09506265]
[ 0.07047835 -0.0998223  -0.08806398]
[ 0.04740329 -0.04414119 -0.06848294]
[ 0.03643227  0.0855073   0.06368205]
[-0.81871843  0.1605839   0.31970301]
[-0.18924561 -0.30752414  0.00793773]
[ 0.17154779 -0.24200155  0.01504456]
[ 0.21427551  0.011039   -0.15448806]
[ 0.07766612 -0.02073446 -0.19177376]
[-0.1883584  -0.11806457 -0.17190865]
[ 0.20057525 -0.23463903 -0.62833649]
[ 0.1708734  -0.81735092 -0.40532285]
[-0.01745872 -0.59393477 -0.37249994]
[-0.30826277  0.27941546  0.11316384]
[-0.24089579 -0.04946076  0.05005681]
[ 0.1565115   0.01747279  0.02867125]
[-0.25651357 -0.22782864 -0.60104966]
[-0.45050937 -0.48150319 -0.79678369]
[-0.1786672   0.40787235 -0.48863509]
[-0.68337059  0.35773119  0.34061629]
[-0.33520877 -0.13103165  0.02769322]
[ 0.00048244 -0.27435037  0.05418624]
[ 0.22814013  0.05353674 -0.0482295 ]
[ 0.13779987  0.02698267 -0.03001738]
[-0.02498106  0.09918105  0.05750319]
[ 0.35464722 -0.14444314 -0.55442363]
[ 0.24237069 -0.38565439 -0.36980876]
[ 0.23612744 -0.56183928 -0.40335095]
[-0.31437016 -0.28871498 -0.13817409]
[-0.37791967 -0.38547212 -0.22755952]
[-0.02949022  0.32410145 -0.32945535]
[-0.14625189 -0.3340514  -0.02871093]
[ 0.3106918   0.09203251 -0.32212943]
[ 0.17970428  0.00208384 -0.14017598]
[ 0.29398444  0.05021624 -0.49746454]
[ 0.08607977 -0.38073495 -0.42266518]
[ 0.24171342 -0.40043023 -0.35099381]
[-0.13997382 -0.90088689 -0.05887863]
[ 0.38092685  0.18843755 -0.48976785]
[ 0.30279484  0.22871882 -0.21244176]
[-0.68330479  0.23517717  0.28394756]
[-0.81592172 -0.14443406  0.15570414]
[ 0.04251748  0.05767379  0.07457554]
[ 0.03417641 -0.04049374 -0.40807268]
[-0.3592478  -0.52595443 -0.34754947]
[-0.10543863  0.0232656  -0.2796652 ]
[ 0.32422346  0.060276   -0.69231254]
[ 0.19123438 -0.28947517 -0.50926369]
[ 0.23940101 -0.58865172 -0.46380931]
[ 0.28093183 -0.36606643 -0.22889225]
[ 0.44987172  0.30429241 -0.57676107]
[ 0.41198519  0.2526406  -0.24028574]
[ 0.11433128 -0.91991305 -0.1028525 ]
[ 0.38735184  0.1160323  -0.61478466]
[ 0.27208     0.10353445 -0.29663846]
[-0.3001202  -0.5018242  -0.06017038]
[-0.22293757 -0.42306143 -0.4653537 ]
[-0.0150437   0.32039502 -0.36026931]
[-0.45770881 -0.69646245 -0.08965281]
[ 0.07931216 -0.17692471 -0.52057272]
[ 0.13488114  0.38632807 -0.36282599]
[ 0.23576733 -0.03250997  0.00565093]
[-0.30370331  0.0657113   0.15337807]
[ 0.07335381 -0.20233403  0.08376749]
[ 0.21214443  0.07013391 -0.05831348]
[ 0.14945109  0.03366822 -0.07452665]
[-0.00654822 -0.009226   -0.05984004]
[ 0.07942409  0.1363057   0.02757487]
[-0.01860669  0.01621517  0.19049752]
[-0.05859804  0.33914283  0.38169527]
[-0.44571567 -0.66603643 -0.93701082]
[-0.25269753 -1.38994157 -0.98507166]
[-0.40692601 -0.6504038  -0.17846003]
[ 0.06711703  0.05012753 -0.06939436]
[-0.3383556   0.04191048  0.18618664]
[-0.49641249 -0.00232083  0.04927361]
[ 0.06424815  0.07721651 -0.08966352]
[-0.0529769  -0.04275191 -0.01826454]
[-0.40238425 -0.00520835 -0.02489989]
[-0.22289577 -0.31746355  0.02422288]
[-0.22523244 -0.11284004  0.17045408]
[ 0.30273616  0.08492705  0.01925056]
[ 0.16124161  0.20240028  0.21515082]
[-0.00604101 -0.25738609  0.15609652]
[ 0.03807589  0.11313675  0.53490472]
[-0.1893435  -0.27747405  0.23050374]
[-0.5275979  -0.28509343  0.17921498]
[ 0.13796063  0.00242995  0.27410746]
[-0.32093322 -0.10263218  0.22812568]
[-0.05854616  0.18896849  0.21054831]
[ 0.05572521  0.1031901   0.06248548]
[-0.21270522  0.14810917  0.22473858]
[-0.2771506   0.18238424  0.17038453]
[-0.18467641  0.24261409 -0.01296844]
[ 0.00826757 -0.00480134  0.12726456]
[ 0.06221652  0.0350485   0.08064745]
[ 0.16693577  0.038731    0.10099269]
[-0.04651887  0.05656014  0.08369777]
[ 0.10411998 -0.00819115  0.0894186 ]
[-0.00739374  0.01673036  0.06631283]
[-0.93075478 -0.5579071   0.16473915]
[-0.28472954  0.26261997  0.11495698]
[ 0.03227198  0.20973589  0.07367492]
[-0.01626851  0.00996226  0.25530848]
[-0.08312437 -0.24727271  0.02334678]
[-0.08846247 -0.14346237 -0.0906244 ]
[ 0.18749887  0.23149405 -0.06152962]
[-0.1559719   0.08353081 -0.09901845]
[-0.05110675  0.24538158  0.31711856]
[-0.3466177  -0.29913133  0.24611239]
[-0.06431442 -0.0285029   0.24833524]
[ 0.240786    0.06063602  0.20931312]
[-0.18762411 -0.72049338 -1.11038196]
[-0.03488144 -1.23254311 -1.47305918]
[-0.28595385 -0.7389698  -0.41341585]
[-0.74857789 -0.65604955  0.24684086]
[-0.57761699  0.08954956  0.33749577]
[ 0.07053039  0.1301149   0.21841465]
[ 0.01003495 -0.0436991   0.08608565]
[ 0.02756787  0.09131433  0.04298288]
[ 0.16319749  0.06359882  0.01750437]
[ 0.22639678  0.30878294 -0.00334331]
[-0.19873129 -0.00167428  0.07129502]
[-0.07474646  0.23829934  0.33434546]
[-0.30383533 -0.79112875 -1.01435614]
[-0.13575383 -1.2642988  -0.91074663]
[-0.37124041 -0.61715102 -0.31529358]
[-0.25395834  0.10466405  0.32570618]
[-0.34553418  0.1492362   0.36815369]
[-0.23731269  0.09630184  0.12640864]
[ 0.16241372  0.20602317  0.18521003]
[-0.14314669 -0.15093866  0.29057252]
[ 0.05548637  0.26832283  0.34853253]
[-0.24421732 -0.07103548 -0.14492673]
[-0.44393936  0.1735341  -0.05715807]
[-0.54209727 -0.17964873 -0.47053519]
[-0.52181983 -0.43336785  0.25173989]
[-0.35972929  0.01835382  0.14395989]
[ 0.23314771  0.0931693   0.04977867]
[-0.0868405   0.0061529  -0.18630955]
[ 0.168034   -0.17616859 -0.34322575]
[ 0.07036692 -0.10433522  0.04761032]
[ 0.11894112  0.17875078  0.10425918]
[-0.08644892 -0.07708824 -0.00694905]
[ 0.04271584  0.17362279  0.40584075]
[-0.21171635  0.12508787  0.30785269]
[-0.29530644  0.12063026  0.36983377]
[-0.36078671  0.15012731  0.21320496]
[-0.13752146  0.21217905  0.08883929]
[-0.2845262   0.3112931   0.11782596]
[-0.27477562  0.12422841 -0.21974196]
[-0.28213227 -1.01669848 -0.79503447]
[-0.41631484 -1.11588979 -1.11077356]
[-0.57697433 -0.89578617 -0.57956439]
[-0.38819769 -0.86063308 -0.60791606]
[-0.61257815 -0.84992427 -0.72623712]
[-0.82581937 -0.90761709 -0.9985621 ]
[-0.0299628   0.03005459  0.09328908]
[-0.45842618 -0.3631373   0.10817701]
[-0.0326919   0.14459078  0.22863902]
[-0.03994906 -0.02177815  0.2174917 ]
[ 0.04971985  0.11628616  0.02877687]
[ 0.14599895  0.03617265  0.0396321 ]
[-0.16595218  0.16369395 -0.07935952]
[ 0.18868279  0.64032787 -0.35369277]
[-0.18539189 -0.46545959 -0.20670629]
[-0.21120182 -0.27935511  0.13935377]
[ 0.02247777 -0.08323731  0.10101844]
[ 0.05956965  0.00500442  0.15853874]
[-0.00924695  0.52276856 -0.1107385 ]
[ 0.10609111  0.11331531  0.00577479]
[-0.30580035  0.47886208 -0.27023563]
[-0.48655382 -0.17503698 -0.24339189]
[-0.69281149 -0.73303771 -1.37718272]
[-0.57837808 -0.70792204 -0.82624626]
[-0.04212094 -0.22306687  0.01137359]
[ 0.00699565 -0.06357976  0.14518809]
[ 0.08910772 -0.04776503  0.06144598]
[-0.03355374 -0.20530483 -0.13968907]
[ 0.08242749  0.80169201 -0.02077266]
[-0.08273424 -0.26013249 -0.17070471]
[-0.13386382 -0.48950508 -0.10227166]
[-0.10556051  0.1093063   0.10034417]
[ 0.01821268 -0.18664269 -0.05238355]
[ 0.11371657  0.21454369 -0.24488203]
[-0.21251649 -0.6168142  -0.33401093]
[-0.11373895  0.20957942 -0.35104942]
[ 0.45206612  0.58839905 -0.18926205]
[-0.41614574 -0.69903517 -0.6044699 ]
[-0.10207739  0.32077709 -0.48597088]
[ 0.04627108  0.06676888  0.05274687]
[ 0.06041625  0.01070371  0.03305217]
[ 0.03354956  0.05258366  0.08592653]
[-0.01455062 -0.02220833  0.04471106]
[-0.06381757 -0.00730917  0.01377979]
[ 0.02977063  0.02106313 -0.03897714]
[ 0.11675636 -0.10910651 -0.09253263]
[-0.06241081 -0.32963502 -0.00657931]
[ 0.03329177  0.17487617  0.02328389]
[ 0.09254796  0.04773308  0.07873029]
[-0.01739099  0.02880271 -0.00569866]
[ 0.05724318 -0.02285439  0.0268502 ]
[-0.29711992 -0.15687342 -0.29642031]
[ 0.48953995  0.54896629 -0.64247775]
[-0.25789714 -0.26381513 -0.17816094]
[ 0.04391279 -0.04850984 -0.08479173]
[-0.0550331  -0.08426289  0.08102114]
[ 0.05754967  0.13858548  0.02783993]
[-0.20895793 -0.43026388  0.01738065]
[-0.04614478 -0.15119693 -0.03535963]
[ 0.05082912 -0.01599229  0.10924228]
[ 0.01091089 -0.00128443 -0.0553899 ]
[-0.03605583 -0.40151957 -0.02666903]
[-0.06669575  0.27042815  0.12614405]
[ 0.06298608  0.05692928  0.00598756]
[  4.03019227e-03  -9.70452384e-05   2.67267954e-02]
[ 0.00687664  0.0003622   0.00382317]
[-0.15431723  0.0591245  -0.2716803 ]
[ 0.26698956  0.62869316 -0.47109911]
[-0.24268629 -0.33347726 -0.36617133]
[-0.17046255 -0.2747089   0.10272108]
[-0.01470791 -0.1016814   0.04274444]
[ 0.0252586   0.03234468  0.16467826]
[ 0.28574926  0.5096854  -0.18085149]
[ 0.03040991 -0.36769506 -0.24857508]
[-0.07587818  0.44114634 -0.19792517]
[-0.21314618 -0.06754556 -0.24040668]
[ 0.20020062  0.67684019 -0.34994349]
[-0.23544937 -0.28979793 -0.21678224]
[ 0.55914497  0.40128776 -0.31287295]
[-0.52922297 -0.4981828  -0.04190731]
[ 0.07432685  0.02919168 -0.55666393]
[ 0.02937665 -0.20933378 -0.05123052]
[ 0.04634263 -0.13266456  0.19226904]
[ 0.09035246  0.07454387  0.11773498]
[-0.29914609 -0.30440229  0.08897244]
[ 0.03976604  0.09432952 -0.09941633]
[ 0.00559121 -0.10297327  0.17184401]
[-0.26841033  0.08460879 -0.14693333]
[ 0.16648535  0.67861336 -0.30560946]
[-0.24646543 -0.28648469 -0.22560178]
[ 0.41008377  0.82059145 -0.05681041]
[-0.34039381 -0.2603167  -0.34990084]
[-0.19172966  0.43759662 -0.48452875]
[ 0.62467706  0.46221614 -0.45815954]
[-0.39433214 -0.3620688  -0.25785387]
[ 0.19655661  0.2462106  -0.71630156]
[ 0.0482152  -0.21380843  0.09689108]
[-0.1186379  -0.18341234  0.12218816]
[ 0.12753741  0.02632742  0.13448526]
[ 0.2467678   0.02558475 -0.05243472]
[-0.30491483 -0.3125388   0.11183116]
[ 0.2143264   0.07996312 -0.02174242]
[-0.08946067 -0.47507614 -0.2053806 ]
[ 0.04305378  0.47211891 -0.05012026]
[ 0.06570164 -0.26947394 -0.22812806]
[ 0.05347827 -0.04368395 -0.04035104]
[-0.0167661  -0.01555596 -0.01727037]
[ 0.00876064 -0.02348907 -0.0457785 ]
[-0.18310679  0.03574884  0.26151824]
[-0.15832502  0.15178899  0.30086863]
[ 0.47395399  0.24632451 -0.082378  ]
[ 0.01553951 -0.87571895 -0.09397022]
[-0.02003933 -0.25176305 -0.79476392]
[ 0.1792293   0.15501417 -0.29483694]
[ 0.21576196 -0.28811198 -0.21228522]
[ 0.26133928  0.30443984 -0.16625758]
[ 0.13923074 -0.06422463  0.02736701]
[-0.22427772 -0.26356342 -0.10128833]
[ 0.11123145  0.01589052  0.04057807]
[ 0.46030119  0.00384795  0.31628972]
[-0.70325667  0.15117721 -0.16567959]
[-0.48700681 -0.37503266 -0.00696092]
[-0.4283801   0.02035356 -0.089294  ]
[-0.13620564  0.22858842  0.34075916]
[-0.18600391  0.13250306  0.31099674]
[ 0.40689054  0.19466116 -0.11095378]
[-0.29138941  0.18643099 -0.04779598]
[-0.37606642 -0.23358405  0.05247086]
[-0.21823055 -0.06839888 -0.16995588]
[-0.1513292  -0.69118822 -0.00713616]
[-0.11253603 -0.08493526  0.062137  ]
[-0.28558442 -0.04727896  0.14410359]
[ 0.21249382 -0.56355405  0.18038154]
[ 0.2287344   0.09053743  0.07718079]
[-0.1003693  -0.11812519  0.12573852]
[ 0.01893915  0.07818974 -0.0097358 ]
[ 0.05327068 -0.0156337   0.0890355 ]
[ 0.01496155  0.07559849  0.10080004]
[-0.04605433 -0.02161025  0.08595321]
[-0.01126001 -0.04330026  0.06142695]
[-0.01383219  0.04844608  0.04538123]
[-1.18186188 -0.61584252 -0.28834242]
[-0.77365392 -0.86900312 -0.21256255]
[-0.73727417 -0.02698993 -0.20113458]
[ 0.02329813 -0.07620775 -0.1233594 ]
[-0.07192663 -0.05529037 -0.16280939]
[-0.07656226 -0.14388742 -0.10423237]
[ 0.00321401  0.21365121  0.29234275]
[-0.20321932  0.03964162  0.25238132]
[ 0.56350088 -0.06404124  0.04727112]
[-0.56640828 -0.20257962 -0.24378794]
[-0.7428121  -0.35739899  0.00151539]
[-0.45177767  0.0980111   0.00517276]
[ 0.09590699 -0.94346142 -0.02684686]
[-0.01407896 -0.11508314 -0.81495011]
[ 0.15298609  0.22119971 -0.41550705]
[-1.1616286  -0.42413428 -0.39493728]
[-0.96207994 -1.00941157 -0.21712741]
[-0.88943148 -0.28042436 -0.06031318]
[ 0.16856039  0.00716552  0.01867196]
[ 0.03161141  0.03082804  0.08686525]
[ 0.03296511  0.04716176  0.0653121 ]
[-0.16252844  0.23722698  0.23245431]
[-0.18930423  0.15563093  0.33040026]
[ 0.43217012  0.21186537  0.06544708]
[ 0.06748765 -0.80897808  0.07544313]
[ 0.04817886 -0.0822972  -0.65512669]
[ 0.14026348  0.27167222 -0.33070421]
[ 0.23687212 -0.41125405  0.05007359]
[ 0.30476734 -0.07915784 -0.10094634]
[-0.12458779 -0.17523684  0.03033697]
[-0.16787128  0.22193499  0.27301443]
[-0.07409926 -0.02927916  0.34553918]
[ 0.42829305  0.13900186  0.01939795]
[ 0.44823751 -0.2701754  -0.02941461]
[ 0.32107446  0.2400088  -0.25034311]
[-0.17353424 -0.11243558  0.05839283]
[-1.10635746 -0.11052477 -0.22306408]
[-0.93000233 -0.67766213 -0.13676687]
[-0.79002702 -0.03237212 -0.09732632]
[-0.07129423 -0.62909359  0.07171576]
[-0.17553836 -0.3094689  -0.16490106]
[ 0.18141842  0.1397903  -0.21558806]
[-0.12492996  0.12914309  0.32966551]
[-0.21508877  0.11147077  0.31101993]
[ 0.5103851   0.28994426 -0.06311996]
[ 0.37188974 -0.5336951   0.08962415]
[ 0.36406609  0.18789843 -0.03128087]
[ 0.02038194 -0.09717553  0.23457395]
[ 0.38396549 -0.49030426  0.26127633]
[ 0.38845301  0.2656751  -0.17729092]
[-0.10540006 -0.16374174  0.10205455]
[ 0.01419469 -0.58911812 -0.03283245]
[ 0.03494655  0.02050058 -0.72469443]
[ 0.01924348 -0.0067161  -0.42219666]
[ 0.19968753 -0.64772809  0.12669173]
[ 0.2627556   0.21957828 -0.72402543]
[-0.00153195 -0.05697748 -0.19946364]
[-0.24660623  0.24669006  0.20920536]
[-0.04470916 -0.05006794  0.24651203]
[ 0.04678224 -0.01836867 -0.18514162]
[ 0.09783044 -0.05148111 -0.1384954 ]
[ 0.00444553  0.00852627  0.09193487]
[-0.03790538 -0.01004698 -0.02300016]
[ 0.2138941   0.00356652  0.52764767]
[ 0.01307621  0.12608376  0.14295839]
[ 0.23578338  0.20395234  0.02114512]
[-0.08490136 -0.08610637 -0.15667018]
[-0.11877921  0.12449243 -0.05158187]
[ 0.01614017  0.18090767  0.06114523]
[ 0.05898625 -0.37767524 -0.32798979]
[-0.03533156 -0.80274373 -0.94747525]
[ 0.03714346 -0.52887601 -0.53894597]
[-0.10479664 -0.37149194 -0.05676834]
[ 0.12487654 -0.20276554 -0.23304369]
[ 0.1182677  -0.03377251 -0.31622416]
[ -6.54598989e-05  -2.04752535e-02  -1.80276170e-01]
[ 0.122471    0.02508553  0.16600651]
[ 0.00175299 -0.12761042  0.20358139]
[ 0.36150184  0.05697929  0.64880538]
[ 0.08906897 -0.02534086  0.26018482]
[ 0.09400451  0.22983339  0.08531647]
[ 0.11154702 -0.0865355   0.05265069]
[ 0.05340255 -0.05932078  0.29284066]
[-0.00752915 -0.10788459  0.18043613]
[ 0.13968769 -0.02286368 -0.56911707]
[ 0.04901383 -0.3051101  -0.25289991]
[-0.06756123 -0.22297679  0.07537176]
[ 0.00608088 -0.59776658 -0.58432055]
[-0.06059154 -1.32901835 -0.99287879]
[-0.11495785 -0.62978041 -0.42197514]
[ 0.0218428   0.01101333 -0.09016192]
[ 0.07005451  0.02885878  0.1131945 ]
[-0.01250174  0.13376755  0.06794916]
[ 0.05796047 -0.05192911  0.06471617]
[-0.01001223 -0.03128269  0.03080815]
[ 0.02196828 -0.09120816 -0.0356564 ]
[-0.01376558  0.15369119 -0.56209296]
[ 0.04353629  0.07917042  0.11061026]
[-0.08383563 -0.01565329  0.18078452]
[-0.05305533 -0.28719914 -0.18250512]
[-0.02305613 -0.11720286  0.02334865]
[-0.04181365  0.08295859  0.04905226]
[ 0.00556497  0.22473861  0.43614405]
[-0.05709527  0.28648677  0.06771623]
[ 0.00945244  0.20665841 -0.01216318]
[ 0.10332969 -0.03375623 -0.29357877]
[ 0.22660187  0.09227202  0.22405104]
[ 0.06913529  0.03810957  0.16972145]
[-0.08911721 -0.14493403 -0.15895273]
[ -1.92597657e-01   4.59896326e-02   1.88029400e-04]
[ 0.03962016  0.13995688  0.05105648]
[-0.08060127  0.21105063 -0.57436019]
[ 0.16485925  0.08813196  0.05990619]
[-0.00937874 -0.13433094  0.12582929]
[ 0.00337325 -0.08111808 -0.05397924]
[ 0.04321647  0.01895057  0.00768463]
[ 0.04579918  0.06361529  0.0464555 ]
[ 0.10537649  0.06766149  0.44553432]
[-0.05178244  0.05476367  0.11585496]
[ 0.02383412  0.04228302 -0.13869056]
[-0.09244297 -0.09279111 -0.0663015 ]
[-0.03469656  0.11487223 -0.01379288]
[ 0.07371265  0.21893124  0.00742611]
[ 0.11848294 -0.00976127 -0.23870739]
[ 0.1919667  -0.61068422 -0.45641714]
[ 0.03854991 -0.41454729 -0.23447995]
[ 0.32987913  0.09645078  0.56795669]
[-0.06270678  0.0454864   0.16055673]
[ 0.11219429  0.24201337  0.02857188]
[-0.32265651 -0.71205187 -0.08034535]
[-0.50913423 -1.08629251 -0.71327895]
[-0.32843229 -0.50363481 -0.71189672]
[-0.06692559  0.06798787 -0.32945886]
[ 0.07088901  0.09775855  0.22557956]
[-0.06215426 -0.02400361  0.1799826 ]
[ 0.07949129 -0.11558149  0.01836345]
[ 0.02021571  0.20085187  0.0950164 ]
[ 0.11352544  0.29310969  0.07428365]
[ 0.21151686 -0.04277978  0.490917  ]
[-0.05888555  0.08364628  0.24927589]
[ 0.13430984  0.16841103 -0.07647253]
[ 0.20447773 -0.65551603 -0.49809799]
[ 0.08830982 -1.32860851 -1.20413482]
[-0.10312175 -0.75781995 -0.47228482]
[-0.09302786 -0.70296532 -0.05589937]
[-0.30084711 -1.50046563 -0.94562638]
[-0.2450105  -0.64847559 -0.59994578]
[-0.14044388 -0.22297955 -0.10993179]
[-0.1267809   0.19596504 -0.00456315]
[-0.01095601  0.18082446 -0.03179925]
[-0.15489036 -0.30510068 -0.0578369 ]
[-0.35830393 -0.14524643 -0.1834389 ]
[-0.11330733 -0.05581271 -0.29948029]
[ 0.25855684 -0.09603023  0.36840627]
[-0.00799172 -0.1518299   0.17539771]
[ 0.05926824 -0.03555752  0.07455121]
[ 0.01537449 -0.09535596 -0.14009415]
[-0.0371975  -0.03254775  0.01521616]
[ 0.00726888  0.09630187  0.07330655]
[-0.31158569 -0.98541629  0.13463959]
[-1.25073004 -0.72280174 -0.23312877]
[ 0.01472886  0.05977281  0.22944219]
[ 0.05991722  0.04055309 -0.00058075]
[ 0.32942882  0.27507189  0.07187517]
[ 0.2513389   0.15818638 -0.14455149]
[-0.36866507 -0.4099547   0.21712071]
[-0.64405704 -1.22383225 -0.42109796]
[ 0.27273747 -0.85392702 -0.07182142]
[-0.16727769 -0.52237427  0.02915268]
[-1.03964293 -1.02884066 -0.21954989]
[-0.2486303  -0.40142351  0.06535342]
[ 0.18654776 -0.06962942  0.04783856]
[ 0.25992051 -0.01896854  0.17643982]
[ 0.05923859  0.34676337  0.06491446]
[ 0.28457767 -0.9115324   0.27629828]
[-0.22647204 -0.82327271  0.01367945]
[-0.12812787 -0.05851971  0.12057874]
[ 0.23449734 -0.10149998  0.15100285]
[ 0.26289147 -0.0961144   0.25124377]
[ 0.0767179   0.30831286  0.07419226]
[-0.23690765 -0.19019265 -0.09513   ]
[-0.17445424 -0.44964331 -0.09598728]
[ 0.0750828  -0.25736231  0.0340021 ]
[-0.96874797 -0.61218327 -0.08891507]
[-0.72602522 -1.45608556 -0.17403768]
[ 0.03985588 -0.89750266 -0.06710207]
[ 0.15476707  0.05629938  0.05102368]
[ 0.21310802  0.08252376  0.01833074]
[ 0.14756781  0.21577775  0.08205714]
[ 0.0066001   0.0991803  -0.05415824]
[-0.06160166 -0.07585395  0.01844997]
[ 0.02852106 -0.06620376 -0.09288836]
[ 0.18501545  0.03140026  0.06910963]
[ 0.2722812  -0.01075057  0.19029547]
[ 0.1672186   0.12853761  0.07758423]
[-0.18404102 -0.13451673 -0.26356399]
[-0.14851804 -0.0788036  -0.1257136 ]
[ 0.01720844  0.06301416 -0.07643324]
[-0.52418208 -0.4102599   0.24997406]
[-1.18219781 -0.21965551  0.07855119]
[-0.05911496  0.13399179  0.32518774]
[ 0.31326827  0.28729492 -0.07453239]
[ 0.3246434   0.25777838  0.01268137]
[ 0.19679746  0.38348228  0.06094814]
[ 0.0055046   0.26606226  0.09112627]
[ 0.26830184  0.2927666  -0.0757086 ]
[ 0.19512679  0.24082717 -0.14019926]
[ 0.07633837  0.07071008  0.17748165]
[ 0.16414951  0.11520595  0.04217431]
[ 0.24372849  0.21727265  0.0980207 ]
[ 0.09317819  0.05553664 -0.00837484]
[ 0.09894296  0.06272144  0.08953663]
[ 0.09821224  0.09360547  0.08773445]
[-0.3279599  -0.81639534  0.21090622]
[-1.28911972 -0.77050686 -0.12219421]
[-0.17267388 -0.00174412  0.28772733]
[ 0.00230814  0.13474594  0.02631198]
[ 0.15065096  0.21006401 -0.00511089]
[ 0.17664103  0.14671057 -0.17059729]
[-0.46678138 -0.23586974  0.04437235]
[-0.37017187 -0.80582571 -0.12149402]
[ 0.12972897 -0.5819065   0.1352167 ]
[-0.05905513 -0.85191613  0.29291573]
[-0.87698185 -0.65343142  0.03974653]
[-0.0511118   0.09659436  0.22356737]
[-0.46305236 -0.30787295  0.19464904]
[-1.10970783 -0.80423838 -0.21154879]
[-0.36005038 -0.46211913 -0.2762126 ]
[ 0.22082591  0.02869949  0.13232563]
[ 0.31406486  0.10111379  0.09062926]
[ 0.1884688   0.22079504  0.1082482 ]
[-0.06457105  0.06668352 -0.00094902]
[ 0.04509907  0.23190564  0.00689719]
[ 0.21376762  0.14350134  0.21034315]
[-0.16069864 -1.02554786  0.1525712 ]
[-1.19477928 -0.79931825 -0.07193093]
[-0.2811912   0.01481634  0.13049674]
[-1.06675112 -0.55608845  0.03082121]
[-0.88821542 -1.66212273 -0.49842778]
[ 0.15897959 -1.33697701 -0.18864447]
[-0.9852773  -0.3392652   0.23393708]
[-1.56500101 -1.14724934 -0.11828893]
[-0.48090792 -0.76756746  0.03483798]
[-0.07209819  0.19081309  0.06603745]
[ 0.11874554  0.21567905  0.02378668]
[ 0.12923552  0.19049077 -0.25348455]
[ 0.01584449  0.07538033  0.1291633 ]
[-0.23559915  0.1529531  -0.05083821]
[-0.06299759  0.11999814 -0.31389901]
[ 0.22193572 -0.59561133  0.38344562]
[ 0.27349734 -0.45029989  0.30445614]
[ 0.09987085  0.05182982  0.23026811]
[-0.03223792 -0.09456116 -0.1139759 ]
[-0.02858578 -0.05821139 -0.04888934]
[ 0.03385322  0.06950498 -0.07567018]
[-0.01695474  0.14232992 -0.56968188]
[ 0.07004322  0.11229437 -0.31656343]
[ 0.33287096  0.12515411 -0.13631909]
[ 0.13866331  0.54824948  0.21576789]
[ 0.23485151  0.03119435  0.29679069]
[  1.67858347e-01  -5.99999905e-01   3.65227403e-04]
[-0.15014696 -1.00908184 -0.06091667]
[-0.26438245 -1.44481635 -0.03002298]
[-0.35480666 -0.74358827 -0.28922468]
[-0.55003911 -0.67024404 -0.79874021]
[-0.1965071  -0.39434952 -0.24322978]
[-0.19134913 -0.11544444  0.2698046 ]
[ 0.39842877  0.0496685  -0.05200375]
[ 0.04479719  0.14482306  0.05950364]
[-0.5052954   0.10962569  0.15603472]
[ 0.15781282  0.3712045  -0.28301027]
[-0.21148701  0.17418128 -0.04800975]
[-0.05242012  0.18252234  0.1614494 ]
[ 0.46659446  0.1390055  -0.10968332]
